
\data\
ngram 1=87
ngram 2=680
ngram 3=997

\1-grams:
-2.875929	(.)	-1.189655
-4.080049	(33,False)	-0.2073496
-3.779019	(33,True)	-0.3834409
-3.176959	(36,False)	-0.8605621
-2.824776	(36,True)	-1.185073
-3.779019	(38,False)	-0.3834409
-3.779019	(38,True)	-0.3834409
-3.381079	(40,False)	0.03603737
-3.176959	(40,True)	-0.8605621
-3.301898	(41,False)	-0.7514176
-3.602928	(41,True)	-0.5083796
-3.301898	(43,False)	-0.7514176
-3.234951	(43,True)	-0.7941777
-3.176959	(44,False)	-0.8605621
-2.824776	(44,True)	-1.185073
-2.15577	(45,False)	-1.820507
-1.792247	(45,True)	-2.156438
-3.779019	(46,False)	-0.3834409
-3.779019	(46,True)	-0.3834409
-2.389853	(47,False)	-1.60529
-2.407951	(47,True)	-1.571725
-1.878652	(48,False)	-2.075458
-1.534742	(48,True)	-2.367078
-3.779019	(49,False)	-0.3834409
-3.301898	(49,True)	-0.7514176
-2.260505	(50,False)	-1.730103
-2.216726	(50,True)	-1.758132
-1.949715	(52,False)	-2.011384
-1.623683	(52,True)	-2.300458
-2.347655	(53,False)	-1.609997
-2.15063	(53,True)	-1.15218
-3.381079	(54,False)	-0.6622204
-3.301898	(54,True)	-0.7240428
-1.983139	(55,False)	-1.94882
-1.663409	(55,True)	-2.239603
-2.699838	(56,False)	-1.251935
-2.467265	(56,True)	-1.491858
-1.731744	(57,False)	-2.16573
-1.381948	(57,True)	-1.554676
-3.477989	(58,False)	-0.5873572
-3.779019	(58,True)	-0.371584
-1.962778	(59,False)	-0.7381864
-1.834536	(59,True)	-1.349887
-1.491217	(60,False)	-2.321211
-1.140031	(60,True)	-1.285527
-3.477989	(61,False)	-0.5830863
-2.903958	(61,True)	-1.026726
-1.966106	(62,False)	-0.6527979
-1.901072	(62,True)	-1.19646
-3.779019	(63,False)	-0.4579589
-3.381079	(63,True)	-0.7383484
-1.491217	(64,False)	-2.227901
-1.130171	(64,True)	-2.552636
-2.176959	(65,False)	-0.9244392
-2.050665	(65,True)	-0.7570232
-2.966106	(66,False)	-1.066817
-2.824776	(66,True)	-1.202983
-1.699838	(67,False)	-0.9234172
-1.318873	(67,True)	-1.302963
-2.8496	(68,False)	-1.195751
-2.602928	(68,True)	-1.431342
-1.729801	(69,False)	-2.142537
-1.368242	(69,True)	-1.532883
-3.779019	(70,False)	-0.4205717
-3.779019	(70,True)	-0.4304558
-2.309197	(71,False)	-0.6797513
-2.121008	(71,True)	-1.83171
-1.725941	(72,False)	-2.085267
-1.329541	(72,True)	-2.275025
-2.588687	(74,False)	-1.435146
-2.500265	(74,True)	-1.539994
-3.477989	(75,False)	-0.6968337
-3.176959	(75,True)	-0.9509432
-2.080049	(76,False)	-1.835377
-1.648685	(76,True)	-1.374723
-3.038656	(77,False)	-1.020156
-2.875929	(77,True)	-0.5160069
-2.8496	(79,False)	-1.166317
-2.523746	(79,True)	-0.752537
-3.602928	(81,False)	-0.5854945
-3.381079	(81,True)	-0.7373577
-4.080049	(83,False)	-0.2999088
-4.080049	(84,False)	-0.297403
-3.381079	(84,True)	-0.04777972
-1.556303	</s>
-99	<s>	-2.432667
-0.7121342	|||	-1.969791

\2-grams:
-0.3273589	(.) (69,True)	-0.5965437
-0.3273589	(.) (72,True)	-0.6470082
-0.30103	(33,False) |||
-0.1760913	(33,True) |||
-0.05115252	(36,False) |||	-0.3461092
-0.0234811	(36,True) |||	-0.6241525
-0.1760913	(38,False) |||
-0.1760913	(38,True) |||
-0.9055405	(40,False) |||	-0.6374803
-0.05115252	(40,True) |||	-0.1213178
-0.06694679	(41,False) |||	-0.4293528
-0.1249387	(41,True) |||
-0.06694679	(43,False) |||
-0.90309	(43,True) </s>
-0.1249387	(43,True) |||	-0.1283228
-0.05115252	(44,False) |||	-0.9153187
-0.0234811	(44,True) |||	-1.512347
-1.929419	(45,False) </s>
-0.01034083	(45,False) |||	-0.6804487
-2.290035	(45,True) (55,False)
-2.290035	(45,True) (55,True)
-2.290035	(45,True) (59,False)
-2.290035	(45,True) </s>
-0.01128101	(45,True) |||	-0.5314607
-0.1760913	(46,False) |||
-0.1760913	(46,True) |||
-0.008773924	(47,False) |||	-0.2917867
-1.681241	(47,True) (43,False)
-1.681241	(47,True) (43,True)
-1.681241	(47,True) </s>
-0.03778856	(47,True) |||	-0.5602307
-2.20412	(48,False) (36,False)
-1.124939	(48,False) (45,False)	0.5144455
-2.20412	(48,False) (45,True)
-1.90309	(48,False) (67,False)
-2.20412	(48,False) (69,False)
-0.05183164	(48,False) |||	-1.158068
-2.546543	(48,True) (33,False)
-2.546543	(48,True) (33,True)
-2.546543	(48,True) (36,True)
-1.20412	(48,True) (45,True)	0.2486418
-2.546543	(48,True) (47,False)
-2.546543	(48,True) (47,True)
-1.768391	(48,True) (67,True)	0.1526618
-2.546543	(48,True) (69,True)
-1.944483	(48,True) </s>
-0.05099833	(48,True) |||	-0.115459
-0.1760913	(49,False) |||	-0.4173439
-0.06694679	(49,True) |||	-0.7720903
-1.826075	(50,False) (33,True)
-0.7121314	(50,False) (47,False)	0.552842
-0.1100715	(50,False) |||	-0.5853817
-0.7231037	(50,True) (47,True)	-0.06694686
-1.39211	(50,True) </s>
-0.1210437	(50,True) |||	-0.6752447
-1.355388	(52,False) (36,False)	-0.3391646
-2.133539	(52,False) (40,False)
-1.288441	(52,False) (44,False)	0.4542267
-1.092146	(52,False) (45,False)	0.5492077
-0.4707811	(52,False) (48,False)	-0.246129
-2.133539	(52,False) (48,True)
-0.3341984	(52,False) |||	-1.032077
-1.311754	(52,True) (36,True)	0.1026623
-2.457882	(52,True) (40,True)
-2.457882	(52,True) (41,False)
-1.253762	(52,True) (44,True)	0.04830468
-1.135663	(52,True) (45,True)	0.2486418
-1.855822	(52,True) (47,False)	1
-2.156852	(52,True) (47,True)	0.60206
-2.457882	(52,True) (48,False)
-0.5084919	(52,True) (48,True)	-0.3322663
-1.554792	(52,True) (50,False)	0.1066992
-1.612784	(52,True) (50,True)	-1.089559
-1.612784	(52,True) </s>
-0.397184	(52,True) |||	-0.8219478
-1.439333	(53,False) (38,False)	0
-1.740363	(53,False) (41,False)
-1.740363	(53,False) (43,True)
-1.740363	(53,False) (45,True)
-1.740363	(53,False) (48,False)
-0.8372727	(53,False) (48,True)	0.001235545
-0.8372727	(53,False) (50,False)	-0.304259
-0.2352127	(53,False) |||	-0.6968373
-1.628389	(53,True) (38,True)	0
-1.628389	(53,True) (41,True)	0.1249388
-0.9751764	(53,True) (48,True)	-0.04452193
-0.9751764	(53,True) (50,True)	-0.3860407
-1.929419	(53,True) (52,False)
-2.135989	(53,True) </s>
-0.1735441	(53,True) |||	-0.4493442
-0.7781513	(54,False) (45,False)
-0.7781513	(54,False) (47,False)
-0.4771213	(54,False) (48,True)
-0.7781513	(54,False) |||
-0.544068	(54,True) (45,True)
-0.544068	(54,True) (47,True)	0.60206
-0.845098	(54,True) (48,True)
-0.845098	(54,True) |||
-1.498311	(55,False) (40,False)	-0.641327
-2.100371	(55,False) (43,False)
-2.100371	(55,False) (45,False)
-2.100371	(55,False) (45,True)
-2.100371	(55,False) (46,False)
-1.498311	(55,False) (47,False)	1
-0.6379725	(55,False) (48,False)	-0.5135506
-2.100371	(55,False) (48,True)
-1.623249	(55,False) (50,False)	-0.1723879
-1.799341	(55,False) (50,True)	0.136838
-0.4669021	(55,False) (52,False)	-0.4349878
-2.100371	(55,False) (53,True)
-0.5688916	(55,False) |||	-0.42253
-1.573203	(55,True) (40,True)	0.4542267
-2.418301	(55,True) (41,False)
-2.418301	(55,True) (43,True)
-2.418301	(55,True) (45,True)
-2.418301	(55,True) (46,False)
-2.117271	(55,True) (46,True)	0
-1.94118	(55,True) (47,False)	1.432901
-1.376909	(55,True) (47,True)	0.3388185
-2.418301	(55,True) (48,False)
-0.6779386	(55,True) (48,True)	-0.4838547
-1.464059	(55,True) (50,False)	0.9158846
-1.24221	(55,True) (50,True)	0.4361627
-0.4592599	(55,True) (52,True)	-0.7874662
-1.464059	(55,True) (53,False)	-0.3185906
-1.515211	(55,True) (53,True)	-0.4987158
-1.94118	(55,True) </s>
-0.7848328	(55,True) |||	-0.7235014
-1.39794	(56,False) (47,False)
-1.39794	(56,False) (48,True)
-0.79588	(56,False) (50,False)	0.3489535
-0.79588	(56,False) (52,False)	-0.428754
-1.39794	(56,False) (57,True)
-0.2839966	(56,False) |||	-0.7243465
-1.322219	(56,True) (47,True)	0.60206
-1.322219	(56,True) (50,False)	0.1728623
-0.544068	(56,True) (50,True)	-0.4652219
-0.7201593	(56,True) (52,True)	-0.7318891
-1.623249	(56,True) </s>
-0.4191293	(56,True) |||	-0.6713423
-2.049218	(57,False) (41,False)	0.3679768
-2.350248	(57,False) (43,False)
-0.9700368	(57,False) (45,False)	0.2304488
-1.236305	(57,False) (48,False)	-0.1650959
-2.350248	(57,False) (48,True)
-2.350248	(57,False) (49,False)
-2.049218	(57,False) (50,False)	0.1728623
-1.049218	(57,False) (52,False)	-1.422936
-2.350248	(57,False) (52,True)
-1.20412	(57,False) (53,False)	-0.2808266
-1.873127	(57,False) (53,True)	0.005139649
-2.350248	(57,False) (55,True)
-2.350248	(57,False) </s>
-0.2072332	(57,False) |||	-0.9204491
-2.698101	(57,True) (41,False)
-2.698101	(57,True) (41,True)
-2.698101	(57,True) (43,True)
-2.397071	(57,True) (45,False)
-0.9422257	(57,True) (45,True)	-0.1723634
-2.220979	(57,True) (47,False)	1.432901
-2.698101	(57,True) (47,True)
-1.375881	(57,True) (48,True)	0.1103801
-2.220979	(57,True) (49,True)	0.5790291
-2.09604	(57,True) (50,False)	0.467176
-2.904671	(57,True) (50,True)	0.4743864
-2.397071	(57,True) (52,False)
-0.9738247	(57,True) (52,True)	-0.7340623
-1.355678	(57,True) (53,True)	-0.08969736
-2.698101	(57,True) (54,False)
-2.698101	(57,True) (54,True)
-2.09604	(57,True) (55,False)	-0.552842
-2.09604	(57,True) (55,True)	-0.5902989
-2.904671	(57,True) </s>
-0.2095498	(57,True) |||	-0.7649713
-0.69897	(58,False) (43,False)
-0.69897	(58,False) (55,False)
-0.69897	(58,False) (55,True)
-0.69897	(58,False) |||
-0.4771213	(58,True) (55,True)
-0.4771213	(58,True) |||
-1.816241	(59,False) (43,False)	0.3679768
-2.117271	(59,False) (44,False)
-1.33912	(59,False) (45,True)	0.2976575
-2.323842	(59,False) (47,False)	0.642182
-2.117271	(59,False) (48,True)
-1.816241	(59,False) (50,False)	0.1728623
-2.117271	(59,False) (50,True)
-0.8868224	(59,False) (52,False)	-0.5713718
-2.323842	(59,False) (52,True)	-0.4766166
-1.816241	(59,False) (53,False)	-0.09848642
-2.323842	(59,False) (53,True)	0.3426881
-2.117271	(59,False) (54,True)
-1.075879	(59,False) (55,False)	-0.03670895
-2.117271	(59,False) (55,True)
-1.163029	(59,False) (56,False)	0.05268979
-1.33912	(59,False) (57,True)	-0.8763399
-2.117271	(59,False) (60,True)
-0.3769086	(59,False) |||	-0.5915706
-1.768391	(59,True) (43,True)	0.1249388
-1.944483	(59,True) (44,True)	0.8016324
-1.467361	(59,True) (45,True)	0.2976575
-1.643453	(59,True) (47,True)	0.3802112
-2.245513	(59,True) (50,False)
-1.643453	(59,True) (50,True)	-0.08501077
-0.6327288	(59,True) (52,True)	-1.358492
-1.768391	(59,True) (53,False)	-0.09848642
-1.768391	(59,True) (53,True)	0.2161919
-2.245513	(59,True) (54,False)
-2.245513	(59,True) (54,True)
-2.245513	(59,True) (55,False)
-0.8837848	(59,True) (55,True)	-0.2641994
-2.245513	(59,True) (56,False)
-1.041393	(59,True) (56,True)	0.05862254
-2.452083	(59,True) (57,True)	-0.6397209
-2.245513	(59,True) (60,True)
-1.944483	(59,True) </s>
-0.4820847	(59,True) |||	-0.476323
-1.127552	(60,False) (45,False)	0.1512676
-2.58995	(60,False) (45,True)
-1.158586	(60,False) (48,False)	-0.4825162
-2.58995	(60,False) (50,False)
-1.071436	(60,False) (52,False)	-0.02653724
-2.58995	(60,False) (52,True)
-1.68686	(60,False) (53,False)	-0.5756077
-2.58995	(60,False) (53,True)
-2.58995	(60,False) (54,False)
-0.8117983	(60,False) (55,False)	-0.9574981
-2.112828	(60,False) (55,True)
-2.58995	(60,False) (56,True)
-0.5330448	(60,False) (57,False)	-0.2409616
-2.112828	(60,False) (57,True)	0.1509982
-2.58995	(60,False) (59,True)
-2.28892	(60,False) (64,False)
-2.28892	(60,False) (76,False)	-0.4221899
-2.58995	(60,False) </s>
-0.5943144	(60,False) |||	-0.9621172
-1.17659	(60,True) (45,True)	0.1286665
-3.146589	(60,True) (47,False)	0.642182
-2.462897	(60,True) (47,True)	0.8131123
-2.337958	(60,True) (48,False)	0.7660399
-1.17659	(60,True) (48,True)	-0.3308287
-2.09492	(60,True) (50,False)	0.1499677
-2.337958	(60,True) (50,True)	-0.08501077
-2.940018	(60,True) (52,False)
-1.184143	(60,True) (52,True)	-0.5313755
-2.036928	(60,True) (53,False)	0.3263631
-1.638988	(60,True) (53,True)	-0.216669
-2.638988	(60,True) (54,False)
-2.638988	(60,True) (54,True)
-1.940018	(60,True) (55,False)	-0.5623873
-0.7727008	(60,True) (55,True)	-0.1149455
-2.940018	(60,True) (56,False)
-3.146589	(60,True) (57,False)
-0.5580011	(60,True) (57,True)	-0.3223752
-2.462897	(60,True) (58,False)
-2.940018	(60,True) (58,True)
-2.09492	(60,True) (59,False)	-0.4929259
-3.146589	(60,True) (59,True)	-0.8831574
-2.940018	(60,True) (64,False)
-2.462897	(60,True) (64,True)	-0.4171774
-2.940018	(60,True) (65,False)
-2.940018	(60,True) (65,True)
-2.337958	(60,True) (76,True)	-0.6349622
-3.146589	(60,True) </s>
-0.6240478	(60,True) |||	-0.925222
-0.69897	(61,False) (52,False)
-0.69897	(61,False) (55,False)
-0.69897	(61,False) (57,False)
-0.69897	(61,False) |||
-0.60206	(61,True) (45,True)	0.8920946
-0.7269987	(61,True) (52,True)	-0.2330687
-1.20412	(61,True) (55,False)
-0.7269987	(61,True) (55,True)	-0.1882118
-1.20412	(61,True) (57,True)
-1.20412	(61,True) </s>
-0.90309	(61,True) |||	-0.4173439
-1.636822	(62,False) (45,True)	1.324996
-2.320514	(62,False) (47,False)	0.642182
-2.320514	(62,False) (48,True)	-0.10131
-1.113943	(62,False) (50,False)	-0.3914092
-2.113943	(62,False) (52,False)
-2.320514	(62,False) (52,True)	-0.4766166
-1.636822	(62,False) (53,False)	-0.4088564
-2.113943	(62,False) (53,True)
-0.9678153	(62,False) (55,False)	-0.4538798
-1.335792	(62,False) (55,True)	-0.4619405
-2.113943	(62,False) (56,False)
-2.113943	(62,False) (56,True)
-1.268845	(62,False) (57,False)	-0.2535162
-1.113943	(62,False) (57,True)	0.07797587
-0.4704907	(62,False) (59,False)	-0.614033
-1.812913	(62,False) (59,True)
-2.113943	(62,False) (60,False)
-1.812913	(62,False) (60,True)
-2.113943	(62,False) (76,True)
-1.210853	(62,False) |||	-0.4545148
-1.701856	(62,True) (45,True)	1.324996
-2.178977	(62,True) (47,False)
-1.400826	(62,True) (47,True)	-0.2142259
-1.576917	(62,True) (48,True)	0.2565081
-1.877947	(62,True) (50,False)	0.1728623
-1.099796	(62,True) (50,True)	-0.4999841
-1.877947	(62,True) (52,False)	-0.2069052
-2.178977	(62,True) (52,True)
-1.400826	(62,True) (53,True)	-0.5715714
-0.673827	(62,True) (55,True)	-0.6888194
-1.701856	(62,True) (56,True)	-0.455932
-1.877947	(62,True) (57,False)	-0.4712655
-1.099796	(62,True) (57,True)	0.2924003
-1.877947	(62,True) (59,False)
-0.4977357	(62,True) (59,True)	-0.4656551
-2.178977	(62,True) (60,False)
-2.178977	(62,True) (60,True)
-2.385547	(62,True) </s>
-1.275887	(62,True) |||	-0.2779004
-0.4771213	(63,False) (59,False)
-0.4771213	(63,False) (60,False)
-0.7781513	(63,True) (54,True)
-0.30103	(63,True) (59,True)	-0.0924383
-0.7781513	(63,True) (60,True)
-2.112828	(64,False) (45,False)	1.36232
-1.142792	(64,False) (48,False)	-0.4983105
-2.58995	(64,False) (48,True)
-2.58995	(64,False) (49,False)
-1.68686	(64,False) (52,False)	-0.1258938
-2.28892	(64,False) (53,True)	0.005139649
-1.510768	(64,False) (55,False)	0.3044066
-2.58995	(64,False) (55,True)
-1.635707	(64,False) (56,False)	-0.3436781
-0.8575559	(64,False) (57,False)	0.04372609
-1.98789	(64,False) (57,True)	-0.2727111
-1.209738	(64,False) (59,False)	-0.8202617
-2.28892	(64,False) (59,True)
-0.2455573	(64,False) (60,False)	-0.3134191
-2.112828	(64,False) (60,True)
-2.28892	(64,False) (61,False)
-2.58995	(64,False) (62,True)
-2.112828	(64,False) (67,False)
-2.58995	(64,False) (69,False)
-2.58995	(64,False) </s>
-1.744852	(64,False) |||	-0.3733236
-2.348305	(64,True) (45,True)	0.8920946
-2.473244	(64,True) (47,False)	1.432901
-2.950365	(64,True) (47,True)
-1.130821	(64,True) (48,True)	-0.5243469
-2.473244	(64,True) (49,True)	0.5790291
-1.719916	(64,True) (52,True)	-0.5309742
-2.473244	(64,True) (55,False)	-0.1294862
-1.607942	(64,True) (55,True)	-0.1929349
-2.649335	(64,True) (56,False)
-1.649335	(64,True) (56,True)	-0.9711873
-2.649335	(64,True) (57,False)
-0.889667	(64,True) (57,True)	-0.4822375
-1.649335	(64,True) (59,False)	-0.3298868
-1.099107	(64,True) (59,True)	-0.2960855
-2.950365	(64,True) (60,False)
-0.2700293	(64,True) (60,True)	-0.6441327
-1.950365	(64,True) (61,True)	-0.19382
-1.628146	(64,True) (62,False)	-0.4151317
-1.774274	(64,True) (62,True)	-0.3164189
-2.348305	(64,True) (67,True)
-1.996122	(64,True) </s>
-2.473244	(64,True) |||	-0.3925078
-1.425969	(65,False) (48,True)	0.6894091
-1.60206	(65,False) (50,False)	0.1728623
-1.124939	(65,False) (53,False)	-0.9147723
-1.90309	(65,False) (55,False)
-1.425969	(65,False) (55,True)	-0.2508882
-1.425969	(65,False) (57,False)	-0.4490925
-2.10966	(65,False) (57,True)	-0.6397209
-1.30103	(65,False) (59,False)	-0.2943484
-0.8616973	(65,False) (60,False)	-0.2895914
-0.8616973	(65,False) (60,True)	-0.6848103
-0.5606673	(65,False) (62,False)	-0.4627393
-1.90309	(65,False) (62,True)
-1.90309	(65,False) (67,True)
-1.90309	(65,False) </s>
-1.124939	(65,False) |||	-1.208794
-1.552263	(65,True) (48,True)	0.6894091
-1.728354	(65,True) (50,True)	0.136838
-1.029384	(65,True) (53,True)	-0.5591317
-1.552263	(65,True) (55,True)	-0.2404646
-2.029384	(65,True) (57,False)
-2.235954	(65,True) (57,True)	-0.2287562
-2.029384	(65,True) (58,False)
-2.029384	(65,True) (58,True)
-2.029384	(65,True) (59,False)
-2.235954	(65,True) (59,True)	-0.6889858
-2.029384	(65,True) (60,False)
-0.5522625	(65,True) (60,True)	-0.5693957
-2.029384	(65,True) (62,False)
-0.5822257	(65,True) (62,True)	-0.3907905
-1.552263	(65,True) (64,False)	-0.2581827
-1.427324	(65,True) </s>
-1.126294	(65,True) |||	-0.869629
-1.146128	(66,False) (57,False)
-1.146128	(66,False) (57,True)
-0.6690068	(66,False) (59,False)	-0.02961126
-0.544068	(66,False) (60,True)	-0.5582924
-0.845098	(66,False) (62,False)
-1.146128	(66,False) (62,True)
-1.146128	(66,False) (63,False)
-0.8016323	(66,True) (57,False)	0.1547601
-0.9777236	(66,True) (57,True)	-0.06005409
-0.8016323	(66,True) (59,True)	-0.0924383
-1.278754	(66,True) (60,True)
-0.5006024	(66,True) (62,True)	-0.2043633
-0.8016323	(66,True) (63,True)	0.03496101
-1.535113	(67,False) (48,False)	0.4488316
-2.079181	(67,False) (52,False)	-0.2069052
-2.586782	(67,False) (55,False)	-0.1291074
-2.380211	(67,False) (55,True)
-2.586782	(67,False) (57,True)	-0.6397209
-2.586782	(67,False) (59,False)	-0.1835598
-0.5477023	(67,False) (60,False)	-0.8327725
-0.9488475	(67,False) (62,False)	-1.174753
-0.3427847	(67,False) (64,False)	-0.5658605
-2.079181	(67,False) (64,True)
-2.380211	(67,False) (65,False)
-2.380211	(67,False) (71,False)
-2.380211	(67,False) (72,True)
-2.380211	(67,False) (74,False)
-2.380211	(67,False) </s>
-1.778151	(67,False) |||	-0.2659575
-1.530727	(67,True) (48,True)	-0.2997944
-2.761176	(67,True) (50,False)
-2.284055	(67,True) (52,True)	-0.04371551
-1.858086	(67,True) (55,True)	-0.6364443
-2.761176	(67,True) (57,False)
-2.967746	(67,True) (57,True)	-0.6397209
-1.916078	(67,True) (59,False)	-0.2214794
-1.615048	(67,True) (59,True)	-0.3050001
-2.967746	(67,True) (60,False)	0.01104407
-0.5708441	(67,True) (60,True)	-0.4318499
-1.647232	(67,True) (62,False)	-0.08126409
-1.028782	(67,True) (62,True)	-0.6590871
-2.159116	(67,True) (64,False)
-0.3395719	(67,True) (64,True)	-0.8470198
-1.916078	(67,True) (65,False)	-0.7481881
-1.806933	(67,True) (65,True)	-0.3572592
-2.761176	(67,True) (71,True)
-2.761176	(67,True) (72,True)
-2.761176	(67,True) (74,True)
-2.159116	(67,True) </s>
-2.284055	(67,True) |||
-0.4771213	(68,False) (59,False)	-1.233041
-0.4771213	(68,False) (62,False)	-0.2976764
-0.6532125	(68,False) (64,False)	-0.6899454
-1.255273	(68,False) (64,True)
-0.3452336	(68,True) (59,True)	-1.060912
-0.8893017	(68,True) (62,True)	-0.01666783
-0.4913617	(68,True) (64,True)	-1.033036
-1.190332	(68,True) </s>
-2.352183	(69,False) (45,False)
-2.352183	(69,False) (53,False)
-1.176091	(69,False) (57,False)	-0.783291
-2.352183	(69,False) (59,True)
-0.8897845	(69,False) (60,False)	-0.717178
-2.051152	(69,False) (60,True)	-0.3592712
-2.051152	(69,False) (61,False)
-1.574031	(69,False) (62,False)	-0.1640335
-1.750123	(69,False) (62,True)	-0.01666783
-0.2552725	(69,False) (64,False)	-1.204393
-1.875061	(69,False) (64,True)
-0.8897845	(69,False) (65,False)	-0.9349555
-2.051152	(69,False) (66,False)	-0.4101745
-2.352183	(69,False) (67,False)
-2.352183	(69,False) (67,True)
-2.051152	(69,False) </s>
-2.234686	(69,True) (45,True)	1.324996
-2.234686	(69,True) (53,True)	0.2161919
-1.264649	(69,True) (57,True)	-1.045331
-2.410777	(69,True) (59,False)
-2.234686	(69,True) (59,True)
-0.9483792	(69,True) (60,True)	-0.9106311
-2.918378	(69,True) (61,True)	-0.2837978
-1.535716	(69,True) (62,False)	-0.2439915
-1.350079	(69,True) (62,True)	-0.4895622
-2.234686	(69,True) (64,False)	-0.1124809
-0.2509094	(69,True) (64,True)	-0.9958417
-1.866709	(69,True) (65,False)	-0.7007574
-0.9958039	(69,True) (65,True)	-0.2387445
-2.410777	(69,True) (66,False)	-0.3309932
-2.918378	(69,True) (66,True)	-0.5341598
-2.410777	(69,True) (67,False)
-2.109747	(69,True) (67,True)	0.08282392
-2.711807	(69,True) (71,False)
-2.711807	(69,True) (71,True)
-1.757565	(69,True) </s>
-0.4771213	(70,False) (64,True)
-0.4771213	(70,False) (67,True)
-0.4771213	(70,True) (64,True)
-0.4771213	(70,True) </s>
-1.770852	(71,False) (56,False)
-1.469822	(71,False) (59,False)
-1.770852	(71,False) (60,True)
-1.293731	(71,False) (62,False)
-0.624724	(71,False) (64,False)	-0.2821681
-0.867762	(71,False) (64,True)	-0.07150862
-1.293731	(71,False) (65,False)
-1.168792	(71,False) (65,True)	-0.2584179
-1.977422	(71,False) (66,False)	-0.03483748
-1.770852	(71,False) (66,True)
-0.8166095	(71,False) (67,False)	-0.7854275
-1.293731	(71,False) (67,True)	-0.3412579
-1.977422	(71,False) (68,False)	-0.03042835
-1.662758	(71,True) (59,True)
-1.963788	(71,True) (60,False)
-1.662758	(71,True) (62,True)
-1.662758	(71,True) (64,False)
-0.3955861	(71,True) (64,True)	-0.7059985
-1.963788	(71,True) (65,False)
-1.361728	(71,True) (65,True)
-1.963788	(71,True) (66,False)
-0.8846066	(71,True) (66,True)	0.06565529
-0.7596679	(71,True) (67,True)	-0.4895698
-0.9223952	(71,True) (68,True)	-0.5712203
-1.662758	(71,True) </s>
-2.356026	(72,False) (48,False)
-2.356026	(72,False) (57,False)
-1.577875	(72,False) (60,False)	-0.02547435
-0.8508759	(72,False) (64,False)	0.08190107
-1.878905	(72,False) (65,False)	-0.443263
-0.3068078	(72,False) (67,False)	-1.405261
-2.054996	(72,False) (67,True)
-2.356026	(72,False) (68,False)
-0.5498459	(72,False) (69,False)	-0.7250644
-2.356026	(72,False) (69,True)
-2.356026	(72,False) (76,False)
-2.356026	(72,False) </s>
-2.356026	(72,False) |||
-2.274158	(72,True) (48,True)	-0.2586024
-2.274158	(72,True) (57,True)	-0.06005409
-1.751279	(72,True) (60,True)	-0.07604146
-2.450249	(72,True) (62,False)	-0.4423591
-2.751279	(72,True) (62,True)
-2.274158	(72,True) (64,False)	-0.4748826
-0.9252043	(72,True) (64,True)	-0.5555724
-1.547159	(72,True) (65,False)	-0.178125
-1.547159	(72,True) (65,True)	-0.05228415
-2.751279	(72,True) (66,False)
-1.973128	(72,True) (67,False)	-0.4759952
-0.2949131	(72,True) (67,True)	-1.060681
-2.751279	(72,True) (68,True)
-2.450249	(72,True) (69,False)
-0.6241743	(72,True) (69,True)	-0.6920272
-2.450249	(72,True) (70,False)
-2.450249	(72,True) (70,True)
-2.274158	(72,True) (76,True)	-0.2612165
-2.450249	(72,True) </s>
-2.274158	(72,True) |||	-0.3925078
-1.50515	(74,False) (62,False)
-0.3290587	(74,False) (67,False)	-0.3296533
-1.028029	(74,False) (67,True)	-0.4718203
-1.50515	(74,False) (69,False)
-0.60206	(74,False) (71,False)	-0.0944494
-1.50515	(74,False) (72,False)
-1.20412	(74,False) </s>
-1.591065	(74,True) (62,True)
-0.1597008	(74,True) (67,True)	-0.7034363
-1.113943	(74,True) (69,True)	-0.2655446
-0.7459666	(74,True) (71,True)	0.08702236
-0.09691001	(75,False) (71,False)	-0.694371
-0.05115252	(75,True) (71,True)	-0.8935447
-2.004321	(76,False) (60,False)
-1.703291	(76,False) (64,False)
-0.9251401	(76,False) (67,False)	-0.951216
-1.22617	(76,False) (68,False)	-1.117316
-0.6241101	(76,False) (69,False)	-0.8792869
-1.050079	(76,False) (71,False)	-0.836603
-0.3511088	(76,False) (72,False)	-0.3057868
-2.004321	(76,False) |||
-1.954242	(76,True) (60,True)	-0.1482189
-2.431364	(76,True) (64,False)
-1.954242	(76,True) (64,True)	-0.4410996
-2.431364	(76,True) (66,False)
-2.431364	(76,True) (67,False)
-0.863162	(76,True) (67,True)	-0.7672237
-2.637934	(76,True) (68,False)	-0.8806968
-1.176091	(76,True) (68,True)	-0.4586017
-1.954242	(76,True) (69,False)
-0.6679358	(76,True) (69,True)	-0.6862696
-1.829304	(76,True) (71,False)
-1.15261	(76,True) (71,True)	-0.7382116
-1.954242	(76,True) (72,False)	-0.2000777
-0.3899711	(76,True) (72,True)	-0.2775876
-2.431364	(76,True) (74,False)
-2.130334	(76,True) </s>
-2.431364	(76,True) |||
-0.60206	(77,False) (69,False)	-0.4171948
-0.7781513	(77,False) (69,True)	-0.464284
-0.4771213	(77,False) (72,False)	-0.03896929
-0.7781513	(77,False) (72,True)	-0.169887
-1.41069	(77,True) (69,True)	-0.1756225
-1.20412	(77,True) (71,False)
-1.20412	(77,True) (71,True)
-0.2498775	(77,True) (72,True)	-0.2117874
-1.255273	(79,False) (64,True)
-0.6532125	(79,False) (67,False)	-0.1309759
-1.255273	(79,False) (69,False)
-1.255273	(79,False) (69,True)
-0.4771213	(79,False) (72,False)	-0.5541854
-1.255273	(79,False) (74,False)
-0.7781513	(79,False) (76,False)	-0.009935617
-1.556303	(79,True) (64,True)
-1.556303	(79,True) (67,False)
-1.762873	(79,True) (67,True)	-0.0968987
-1.079181	(79,True) (69,False)	-0.2582787
-1.556303	(79,True) (69,True)
-0.3802112	(79,True) (72,True)	-0.9074869
-1.556303	(79,True) (74,True)
-1.556303	(79,True) (76,False)
-0.7112045	(79,True) (76,True)	-0.5021399
-1.556303	(79,True) </s>
-0.60206	(81,False) (69,False)
-0.30103	(81,False) (72,False)	-0.4713434
-0.7781513	(81,True) (69,True)
-0.1760913	(81,True) (72,True)	-0.6840874
-0.30103	(83,False) (74,False)
-0.30103	(84,False) (76,False)
-0.9055405	(84,True) (76,True)	-0.9927803
-1.922985	<s> (.)	0.5314789
-2.525045	<s> (36,False)
-2.525045	<s> (48,False)
-1.525045	<s> (57,False)	-0.9593822
-1.110071	<s> (60,False)	-1.04119
-2.224015	<s> (62,False)	-0.453083
-0.8915763	<s> (64,False)	-0.5206402
-2.224015	<s> (65,False)
-1.019895	<s> (67,False)	-1.039058
-0.7541928	<s> (69,False)	-0.5197479
-1.746894	<s> (71,False)	-0.2352196
-0.6219548	<s> (72,False)	-0.7101032
-2.525045	<s> (74,False)
-0.7691699	<s> (76,False)	-0.5966511
-2.525045	<s> (77,False)
-1.679947	<s> (79,False)	-0.9018862
-2.525045	<s> (81,False)
-2.525045	<s> (84,False)
-2.288733	||| (.)	-0.062958
-2.890794	||| (36,True)	1.012685
-3.367915	||| (48,True)
-2.890794	||| (57,False)	-0.2254511
-1.695817	||| (57,True)	-0.3770015
-3.066885	||| (59,False)	-0.4462098
-3.066885	||| (59,True)	-0.4357286
-2.191823	||| (60,False)	-0.1663604
-1.334491	||| (60,True)	-0.9280791
-2.413672	||| (62,False)	-0.183992
-2.367915	||| (62,True)	-0.290845
-3.367915	||| (63,False)
-3.066885	||| (63,True)
-1.765855	||| (64,False)	-0.4396288
-1.066885	||| (64,True)	-0.7699797
-2.367915	||| (65,False)	-0.3521825
-2.045696	||| (65,True)	-0.3357744
-3.367915	||| (66,False)
-1.765855	||| (67,False)	-0.3557512
-1.110236	||| (67,True)	-0.3338212
-1.582585	||| (69,False)	-0.4161111
-0.8907935	||| (69,True)	-0.6884832
-1.969975	||| (71,False)	-0.08228451
-1.635521	||| (71,True)	-0.2914849
-1.438496	||| (72,False)	0.3056259
-0.7519647	||| (72,True)	-0.4547619
-1.952941	||| (74,False)	0.1728954
-1.811612	||| (74,True)	0.3179795
-2.765855	||| (75,False)	0
-2.464825	||| (75,True)	0
-1.823847	||| (76,False)	-0.7158381
-0.9699748	||| (76,True)	-0.09001803
-2.367915	||| (77,False)	0.5912633
-2.163795	||| (77,True)	-0.4175587
-2.367915	||| (79,False)	-0.1127043
-1.811612	||| (79,True)	-0.004227877
-3.066885	||| (81,False)	-0.1760913
-3.574485	||| (81,True)	-0.2218488
-3.367915	||| (83,False)
-3.574485	||| (84,True)	-0.9991451
-0.9823084	||| </s>

\3-grams:
-0.39794	<s> (.) (69,True)
-0.39794	<s> (.) (72,True)
-0.3237113	||| (.) (69,True)
-0.3237113	||| (.) (72,True)
-0.02268133	(52,False) (36,False) |||
-0.02996322	(52,True) (36,True) |||
-0.3390538	||| (36,True) |||
-0.1760913	(53,False) (38,False) |||
-0.1760913	(53,True) (38,True) |||
-0.09691001	(55,False) (40,False) |||
-0.1650812	(55,True) (40,True) |||
-0.1760913	(57,False) (41,False) |||
-0.1760913	(53,True) (41,True) |||
-0.1760913	(59,False) (43,False) |||
-0.1760913	(59,True) (43,True) |||
-0.1650812	(52,False) (44,False) |||
-0.02632894	(52,True) (44,True) |||
-0.1760913	(59,True) (44,True) |||
-0.03476211	(48,False) (45,False) |||
-0.03778856	(52,False) (45,False) |||
-0.01772877	(57,False) (45,False) |||
-0.01472326	(60,False) (45,False) |||
-0.3390538	(64,False) (45,False) |||
-0.02020339	(48,True) (45,True) |||
-0.02020339	(52,True) (45,True) |||
-0.007553138	(57,True) (45,True) |||
-0.02268133	(59,False) (45,True) |||
-0.02268133	(59,True) (45,True) |||
-0.01523997	(60,True) (45,True) |||
-0.09691001	(61,True) (45,True) |||
-0.3390538	(62,False) (45,True) |||
-0.3390538	(62,True) (45,True) |||
-0.09691001	(64,True) (45,True) |||
-0.3390538	(69,True) (45,True) |||
-0.1760913	(55,True) (46,True) |||
-0.03218468	(50,False) (47,False) |||
-0.09691001	(52,True) (47,False) |||
-0.09691001	(55,False) (47,False) |||
-0.3390538	(55,True) (47,False) |||
-0.3390538	(57,True) (47,False) |||
-0.03988274	(59,False) (47,False) |||
-0.03988274	(60,True) (47,False) |||
-0.03988274	(62,False) (47,False) |||
-0.3390538	(64,True) (47,False) |||
-0.03218468	(50,True) (47,True) |||
-0.1760913	(52,True) (47,True) |||
-0.1760913	(54,True) (47,True) |||
-0.08715018	(55,True) (47,True) |||
-0.1760913	(56,True) (47,True) |||
-0.09691001	(59,True) (47,True) |||
-0.3390538	(60,True) (47,True) |||
-0.02268133	(62,True) (47,True) |||
-0.6720979	(52,False) (48,False) (45,False)
-0.1157954	(52,False) (48,False) |||
-0.01523997	(55,False) (48,False) |||
-0.03476211	(57,False) (48,False) |||
-0.01639042	(60,False) (48,False) |||
-0.4639925	(60,True) (48,False) |||
-0.01579427	(64,False) (48,False) |||
-0.1650812	(67,False) (48,False) |||
-0.6941175	(52,True) (48,True) (45,True)
-0.1105409	(52,True) (48,True) |||
-0.05115252	(53,False) (48,True) |||
-0.04575749	(53,True) (48,True) |||
-0.01608682	(55,True) (48,True) |||
-0.06694679	(57,True) (48,True) |||
-0.0230653	(60,True) (48,True) |||
-0.03988274	(62,False) (48,True) |||
-0.09691001	(62,True) (48,True) |||
-1.681476	(64,True) (48,True) (67,True)
-1.518514	(64,True) (48,True) </s>
-0.0342141	(64,True) (48,True) |||
-0.3390538	(65,False) (48,True) |||
-0.3390538	(65,True) (48,True) |||
-0.02482358	(67,True) (48,True) |||
-0.3390538	(72,True) (48,True) (67,True)
-0.3390538	(57,True) (49,True) |||
-0.3390538	(64,True) (49,True) |||
-0.1476201	(52,True) (50,False) (47,False)
-0.60206	(52,True) (50,False) |||
-0.05115252	(53,False) (50,False) |||
-0.3390538	(55,False) (50,False) (47,False)
-0.6532125	(55,True) (50,False) (47,False)
-0.2742257	(55,True) (50,False) |||
-0.30103	(56,False) (50,False) |||
-0.1760913	(56,True) (50,False) |||
-0.1760913	(57,False) (50,False) |||
-0.4639925	(57,True) (50,False) |||
-0.1760913	(59,False) (50,False) |||
-0.1650812	(60,True) (50,False) |||
-0.04139268	(62,False) (50,False) |||
-0.1760913	(62,True) (50,False) |||
-0.1760913	(65,False) (50,False) |||
-0.1860108	(52,True) (50,True) (47,True)
-0.544068	(52,True) (50,True) </s>
-0.04575749	(53,True) (50,True) |||
-0.1760913	(55,False) (50,True) |||
-0.4960744	(55,True) (50,True) (47,True)
-0.2730013	(55,True) (50,True) |||
-0.03778856	(56,True) (50,True) |||
-0.5609025	(57,True) (50,True) |||
-0.09691001	(59,True) (50,True) |||
-0.09691001	(60,True) (50,True) |||
-0.03476211	(62,True) (50,True) |||
-0.1760913	(65,True) (50,True) |||
-0.9743812	(55,False) (52,False) (36,False)
-0.2910458	(55,False) (52,False) (48,False)
-0.4873404	(55,False) (52,False) |||
-0.09691001	(56,False) (52,False) |||
-0.6419427	(57,False) (52,False) (45,False)
-0.1249387	(57,False) (52,False) (48,False)
-0.5504321	(59,False) (52,False) (44,False)
-0.2304489	(59,False) (52,False) |||
-0.8594267	(60,False) (52,False) (45,False)
-0.8384971	(60,False) (52,False) (48,False)
-0.2174839	(60,False) (52,False) |||
-0.1760913	(62,True) (52,False) |||
-0.2230732	(64,False) (52,False) |||
-0.1760913	(67,False) (52,False) |||
-0.845098	(55,True) (52,True) (36,True)
-1.658011	(55,True) (52,True) (47,False)
-0.2778001	(55,True) (52,True) (48,True)
-1.658011	(55,True) (52,True) </s>
-0.5973136	(55,True) (52,True) |||
-0.05115252	(56,True) (52,True) |||
-0.7242759	(57,True) (52,True) (45,True)
-0.2929121	(57,True) (52,True) (48,True)
-1.044259	(57,True) (52,True) (50,False)
-0.968806	(57,True) (52,True) (50,True)
-0.09691001	(59,False) (52,True) |||
-0.4191293	(59,True) (52,True) (44,True)
-0.2253093	(59,True) (52,True) |||
-1.075858	(60,True) (52,True) (45,True)
-0.6419315	(60,True) (52,True) (48,True)
-1.153815	(60,True) (52,True) </s>
-0.2507249	(60,True) (52,True) |||
-0.3390538	(61,True) (52,True) (45,True)
-0.09691001	(62,False) (52,True) |||
-0.08432089	(64,True) (52,True) |||
-0.3390538	(67,True) (52,True) |||
-0.2951553	(55,True) (53,False) (48,True)
-0.816175	(55,True) (53,False) (50,False)
-0.845098	(57,False) (53,False) (50,False)
-0.146128	(57,False) (53,False) |||
-0.1760913	(59,False) (53,False) |||
-0.1760913	(59,True) (53,False) |||
-0.05115252	(60,False) (53,False) |||
-0.7650225	(60,True) (53,False) (48,True)
-0.60206	(60,True) (53,False) |||
-0.1760913	(62,False) (53,False) (50,False)
-0.02268133	(65,False) (53,False) |||
-0.30103	(55,True) (53,True) (48,True)
-0.60206	(55,True) (53,True) (50,True)
-0.1760913	(57,False) (53,True) |||
-1.041393	(57,True) (53,True) (50,True)
-0.1383027	(57,True) (53,True) |||
-0.5609025	(59,False) (53,True) |||
-0.3390538	(59,True) (53,True) |||
-1.162962	(60,True) (53,True) (48,True)
-1	(60,True) (53,True) </s>
-0.154902	(60,True) (53,True) |||
-0.119064	(62,True) (53,True) (50,True)
-0.1760913	(64,False) (53,True) |||
-0.04139268	(65,True) (53,True) |||
-0.3390538	(69,True) (53,True) |||
-0.39794	(57,True) (55,False) (50,True)
-0.39794	(57,True) (55,False) |||
-0.9033251	(59,False) (55,False) (52,False)
-0.2859228	(59,False) (55,False) |||
-1.640084	(60,False) (55,False) (40,False)
-0.4771213	(60,False) (55,False) (48,False)
-0.2218488	(60,False) (55,False) (52,False)
-0.09691001	(60,True) (55,False) |||
-0.544068	(62,False) (55,False) (47,False)
-0.845098	(62,False) (55,False) (48,False)
-0.3906581	(62,False) (55,False) |||
-0.3991644	(64,False) (55,False) (48,False)
-0.7781513	(64,False) (55,False) (52,False)
-0.9411137	(64,False) (55,False) |||
-0.3390538	(64,True) (55,False) |||
-0.5609025	(67,False) (55,False) (50,False)
-0.39794	(57,True) (55,True) (50,True)
-0.39794	(57,True) (55,True) |||
-1.22366	(59,True) (55,True) (40,True)
-1.060698	(59,True) (55,True) (50,True)
-0.7026406	(59,True) (55,True) (52,True)
-0.3617278	(59,True) (55,True) |||
-1.866287	(60,True) (55,True) (40,True)
-1.866287	(60,True) (55,True) (46,True)
-0.5762527	(60,True) (55,True) (48,True)
-2.02925	(60,True) (55,True) (50,False)
-1.866287	(60,True) (55,True) (50,True)
-0.2642274	(60,True) (55,True) (52,True)
-1.50823	(60,True) (55,True) (53,False)
-2.02925	(60,True) (55,True) (53,True)
-1.487301	(60,True) (55,True) |||
-0.3390538	(61,True) (55,True) |||
-0.1760913	(62,False) (55,True) (53,False)
-0.4637573	(62,True) (55,True) (47,True)
-1.367082	(62,True) (55,True) (48,True)
-0.90309	(62,True) (55,True) (53,True)
-0.4259687	(62,True) (55,True) |||
-0.30103	(64,True) (55,True) (48,True)
-1.204355	(64,True) (55,True) (52,True)
-0.5869527	(64,True) (55,True) |||
-0.3390538	(65,False) (55,True) (50,False)
-0.3390538	(65,True) (55,True) (50,True)
-0.2440027	(67,True) (55,True) (50,True)
-0.60206	(67,True) (55,True) |||
-0.816175	(59,False) (56,False) (50,False)
-0.6532125	(59,False) (56,False) (52,False)
-0.3521825	(59,False) (56,False) |||
-0.6532125	(64,False) (56,False) (52,False)
-0.1987726	(64,False) (56,False) |||
-0.90309	(59,True) (56,True) (50,False)
-0.4486501	(59,True) (56,True) (50,True)
-0.90309	(59,True) (56,True) (52,True)
-0.5450327	(59,True) (56,True) |||
-0.1760913	(62,True) (56,True) (47,True)
-0.5455601	(64,True) (56,True) (50,True)
-0.69897	(64,True) (56,True) (52,True)
-0.30103	(64,True) (56,True) |||
-0.7346855	(60,False) (57,False) (45,False)
-1.397818	(60,False) (57,False) (48,False)
-1.397818	(60,False) (57,False) (52,False)
-1.376888	(60,False) (57,False) (53,False)
-0.1818436	(60,False) (57,False) |||
-0.544068	(62,False) (57,False) (50,False)
-0.7070305	(62,False) (57,False) (53,False)
-0.1760913	(62,True) (57,False) (53,True)
-1.594326	(64,False) (57,False) (45,False)
-1.052377	(64,False) (57,False) (48,False)
-1.594326	(64,False) (57,False) (52,False)
-0.1413292	(64,False) (57,False) |||
-0.1760913	(65,False) (57,False) (53,False)
-0.3390538	(66,True) (57,False) |||
-0.02802872	(69,False) (57,False) |||
-0.04575749	<s> (57,False) (52,False)
-0.3390538	||| (57,False) (52,False)
-0.02268133	(59,False) (57,True) |||
-0.03988274	(59,True) (57,True) |||
-0.3390538	(60,False) (57,True) |||
-0.7692332	(60,True) (57,True) (45,True)
-2.243949	(60,True) (57,True) (47,False)
-1.72293	(60,True) (57,True) (48,True)
-1.382017	(60,True) (57,True) (52,True)
-1.177897	(60,True) (57,True) (53,True)
-2.080987	(60,True) (57,True) (55,False)
-2.080987	(60,True) (57,True) (55,True)
-2.080987	(60,True) (57,True) </s>
-0.1888924	(60,True) (57,True) |||
-0.69897	(62,False) (57,True) (45,True)
-0.3199832	(62,False) (57,True) |||
-0.7781513	(62,True) (57,True) (45,True)
-0.9411137	(62,True) (57,True) (50,True)
-0.7781513	(62,True) (57,True) (53,True)
-0.9411137	(62,True) (57,True) |||
-0.39794	(64,False) (57,True) (55,False)
-0.39794	(64,False) (57,True) |||
-0.9815166	(64,True) (57,True) (45,True)
-0.9145698	(64,True) (57,True) (48,True)
-1.92263	(64,True) (57,True) (49,True)
-1.759668	(64,True) (57,True) (50,False)
-1.759668	(64,True) (57,True) (50,True)
-1.458638	(64,True) (57,True) (52,True)
-1.759668	(64,True) (57,True) (55,True)
-1.759668	(64,True) (57,True) </s>
-0.2033653	(64,True) (57,True) |||
-0.03988274	(65,False) (57,True) |||
-0.39794	(65,True) (57,True) (53,True)
-0.39794	(65,True) (57,True) |||
-0.1760913	(66,True) (57,True) |||
-0.03988274	(67,False) (57,True) |||
-0.03988274	(67,True) (57,True) |||
-0.01523997	(69,True) (57,True) |||
-0.1760913	(72,True) (57,True) |||
-1.371068	||| (57,True) (48,True)
-0.08103325	||| (57,True) (52,True)
-1.53403	||| (57,True) |||
-0.08962812	(60,True) (59,False) |||
-0.9843654	(62,False) (59,False) (45,True)
-1.041393	(62,False) (59,False) (47,False)
-1.342423	(62,False) (59,False) (53,False)
-1.041393	(62,False) (59,False) (53,True)
-1.505385	(62,False) (59,False) (55,False)
-1.342423	(62,False) (59,False) (57,True)
-0.30103	(62,False) (59,False) |||
-0.3388186	(64,False) (59,False) (52,False)
-0.7781513	(64,False) (59,False) (55,False)
-0.721124	(64,False) (59,False) (56,False)
-1.079181	(64,False) (59,False) (57,True)
-1	(64,True) (59,False) (57,True)
-0.1870866	(64,True) (59,False) |||
-0.30103	(65,False) (59,False) (50,False)
-0.3390538	(66,False) (59,False) |||
-0.5609025	(67,False) (59,False) (55,False)
-0.39794	(67,False) (59,False) |||
-0.1860108	(67,True) (59,False) |||
-0.02268133	(68,False) (59,False) (52,False)
-0.1760913	||| (59,False) (56,False)
-0.03988274	(60,True) (59,True) |||
-1.022154	(62,True) (59,True) (45,True)
-1.543174	(62,True) (59,True) (47,True)
-1.380211	(62,True) (59,True) (53,False)
-1.543174	(62,True) (59,True) (53,True)
-1.543174	(62,True) (59,True) (55,True)
-1.380211	(62,True) (59,True) (57,True)
-0.2340832	(62,True) (59,True) |||
-0.3390538	(63,True) (59,True) |||
-0.4533183	(64,True) (59,True) (52,True)
-0.737315	(64,True) (59,True) (55,True)
-0.737315	(64,True) (59,True) (56,True)
-1.713191	(64,True) (59,True) (57,True)
-0.8098657	(64,True) (59,True) |||
-0.09691001	(65,True) (59,True) (50,True)
-0.3390538	(66,True) (59,True) |||
-0.4870408	(67,True) (59,True) (55,True)
-0.3906581	(67,True) (59,True) |||
-0.02996322	(68,True) (59,True) (52,True)
-0.1760913	||| (59,True) (56,True)
-0.9826645	(64,False) (60,False) (45,False)
-1.022173	(64,False) (60,False) (48,False)
-2.206325	(64,False) (60,False) (52,False)
-1.022173	(64,False) (60,False) (55,False)
-0.4413023	(64,False) (60,False) (57,False)
-2.043362	(64,False) (60,False) (57,True)
-0.5248483	(64,False) (60,False) |||
-0.3823054	(65,False) (60,False) (53,False)
-0.7403627	(65,False) (60,False) (57,False)
-0.7403627	(65,False) (60,False) |||
-1.173422	(67,False) (60,False) (48,False)
-0.4345689	(67,False) (60,False) (52,False)
-0.9294189	(67,False) (60,False) (55,False)
-1.531479	(67,False) (60,False) (57,False)
-0.4011452	(67,False) (60,False) |||
-0.5609025	(67,True) (60,False) (57,False)
-0.7069281	(69,False) (60,False) (45,False)
-1.32433	(69,False) (60,False) (52,False)
-1.161368	(69,False) (60,False) (53,False)
-0.2319491	(69,False) (60,False) (57,False)
-0.4771213	(72,False) (60,False) (57,False)
-0.03476211	<s> (60,False) (55,False)
-0.517004	||| (60,False) (55,False)
-0.4960744	||| (60,False) (57,False)
-0.9643322	(64,True) (60,True) (45,True)
-2.078275	(64,True) (60,True) (47,False)
-2.379306	(64,True) (60,True) (47,True)
-1.057086	(64,True) (60,True) (48,True)
-2.078275	(64,True) (60,True) (50,False)
-2.542268	(64,True) (60,True) (52,True)
-1.680336	(64,True) (60,True) (55,False)
-0.9727653	(64,True) (60,True) (55,True)
-0.4984919	(64,True) (60,True) (57,True)
-2.078275	(64,True) (60,True) (59,False)
-2.542268	(64,True) (60,True) (59,True)
-2.379306	(64,True) (60,True) </s>
-0.521973	(64,True) (60,True) |||
-0.9033251	(65,False) (60,True) (50,False)
-0.1383027	(65,False) (60,True) (57,True)
-1.339054	(65,True) (60,True) (50,True)
-0.5228788	(65,True) (60,True) (53,True)
-0.3309932	(65,True) (60,True) (57,True)
-0.09691001	(66,False) (60,True) (57,True)
-1.044204	(67,True) (60,True) (48,True)
-0.5182338	(67,True) (60,True) (52,True)
-1.510315	(67,True) (60,True) (53,False)
-1.588272	(67,True) (60,True) (53,True)
-1.01424	(67,True) (60,True) (55,True)
-1.889302	(67,True) (60,True) (57,False)
-1.889302	(67,True) (60,True) (57,True)
-1.889302	(67,True) (60,True) (59,False)
-1.889302	(67,True) (60,True) (59,True)
-0.4579379	(67,True) (60,True) |||
-0.1760913	(69,False) (60,True) |||
-1.007958	(69,True) (60,True) (45,True)
-1.104341	(69,True) (60,True) (52,True)
-1.007958	(69,True) (60,True) (53,True)
-0.1836444	(69,True) (60,True) (57,True)
-0.8619325	(72,True) (60,True) (55,True)
-0.69897	(72,True) (60,True) (57,True)
-0.69897	(72,True) (60,True) (64,True)
-0.3390538	(76,True) (60,True) |||
-0.1526102	||| (60,True) (55,True)
-1.732394	||| (60,True) (57,False)
-0.7546701	||| (60,True) (57,True)
-1.431364	||| (60,True) (76,True)
-0.39794	(64,True) (61,True) (45,True)
-0.69897	(64,True) (61,True) |||
-0.5609025	(69,True) (61,True) (52,True)
-0.39794	(69,True) (61,True) (55,True)
-1.021189	(64,True) (62,False) (45,True)
-1.021189	(64,True) (62,False) (47,False)
-1.021189	(64,True) (62,False) (55,True)
-1.184152	(64,True) (62,False) (57,True)
-0.4191293	(64,True) (62,False) (59,False)
-1.021189	(64,True) (62,False) |||
-0.7403627	(65,False) (62,False) (48,True)
-0.6833354	(65,False) (62,False) (50,False)
-1.204355	(65,False) (62,False) (57,False)
-1.041393	(65,False) (62,False) (57,True)
-0.6833354	(65,False) (62,False) |||
-0.3174204	(67,False) (62,False) (55,False)
-0.3174204	(67,False) (62,False) (59,False)
-0.9758759	(67,True) (62,False) (50,False)
-0.5118834	(67,True) (62,False) (52,True)
-0.9758759	(67,True) (62,False) (59,False)
-0.1760913	(68,False) (62,False) (59,False)
-0.4771213	(69,False) (62,False) (53,False)
-0.6400837	(69,False) (62,False) (59,False)
-0.8750613	(69,True) (62,False) (57,True)
-0.2730013	(69,True) (62,False) (59,False)
-0.1760913	(72,True) (62,False) (57,True)
-0.1760913	<s> (62,False) (57,False)
-0.3521825	||| (62,False) (55,True)
-0.816175	||| (62,False) (59,False)
-0.8750613	(64,True) (62,True) (45,True)
-0.8750613	(64,True) (62,True) (47,True)
-1.038024	(64,True) (62,True) (57,True)
-0.4206213	(64,True) (62,True) (59,True)
-1.30909	(65,True) (62,True) (48,True)
-1.146128	(65,True) (62,True) (50,False)
-0.6916881	(65,True) (62,True) (50,True)
-1.146128	(65,True) (62,True) (52,False)
-0.845098	(65,True) (62,True) (57,True)
-0.7880707	(65,True) (62,True) |||
-0.6400837	(66,True) (62,True) (50,True)
-0.6400837	(66,True) (62,True) |||
-1.594326	(67,True) (62,True) (50,True)
-0.3344538	(67,True) (62,True) (55,True)
-0.3706659	(67,True) (62,True) (59,True)
-0.4639925	(68,True) (62,True) (59,True)
-0.4639925	(69,False) (62,True) (59,True)
-0.7026406	(69,True) (62,True) (53,True)
-1.060698	(69,True) (62,True) (57,False)
-1.060698	(69,True) (62,True) (57,True)
-0.4074853	(69,True) (62,True) (59,True)
-1.22366	(69,True) (62,True) </s>
-0.39794	||| (62,True) (55,True)
-0.69897	||| (62,True) (57,True)
-0.69897	||| (62,True) (59,True)
-0.3390538	(66,True) (63,True) (59,True)
-0.3390538	(65,True) (64,False) |||
-0.7152072	(67,False) (64,False) (48,False)
-1.899359	(67,False) (64,False) (52,False)
-1.378339	(67,False) (64,False) (59,False)
-0.1741036	(67,False) (64,False) (60,False)
-1.899359	(67,False) (64,False) |||
-0.09691001	(68,False) (64,False) (52,False)
-1.958843	(69,False) (64,False) (45,False)
-1.49485	(69,False) (64,False) (48,False)
-0.5058454	(69,False) (64,False) (57,False)
-0.2104193	(69,False) (64,False) (60,False)
-1.79588	(69,False) (64,False) (61,False)
-0.1760913	(69,True) (64,False) (60,False)
-1.008061	(71,False) (64,False) (55,False)
-0.4661112	(71,False) (64,False) (56,False)
-1.008061	(71,False) (64,False) (59,False)
-1.20412	(72,False) (64,False) (48,False)
-0.8251331	(72,False) (64,False) (55,False)
-0.8251331	(72,False) (64,False) (57,False)
-0.4259687	(72,False) (64,False) (60,False)
-1.367082	(72,False) (64,False) (67,False)
-0.1760913	(72,True) (64,False) (53,True)
-1.332438	<s> (64,False) (57,False)
-0.7303784	<s> (64,False) (59,False)
-0.1563472	<s> (64,False) (60,False)
-1	||| (64,False) (57,False)
-1.30103	||| (64,False) (57,True)
-0.9220431	||| (64,False) (59,False)
-0.1870866	||| (64,False) (60,False)
-0.1760913	(60,True) (64,True) (57,True)
-0.7226339	(67,True) (64,True) (48,True)
-2.283536	(67,True) (64,True) (49,True)
-2.283536	(67,True) (64,True) (52,True)
-2.283536	(67,True) (64,True) (55,True)
-1.380211	(67,True) (64,True) (59,False)
-1.079181	(67,True) (64,True) (59,True)
-0.20412	(67,True) (64,True) (60,True)
-2.120574	(67,True) (64,True) </s>
-2.283536	(67,True) (64,True) |||
-0.04139268	(68,True) (64,True) (52,True)
-1.858838	(69,True) (64,True) (45,True)
-2.159868	(69,True) (64,True) (47,False)
-1.705428	(69,True) (64,True) (48,True)
-2.159868	(69,True) (64,True) (55,False)
-0.6283889	(69,True) (64,True) (57,True)
-1.858838	(69,True) (64,True) (59,False)
-0.2104778	(69,True) (64,True) (60,True)
-1.460898	(69,True) (64,True) (61,True)
-1.801811	(69,True) (64,True) (62,False)
-2.32283	(69,True) (64,True) (62,True)
-1.801811	(69,True) (64,True) </s>
-0.7650225	(71,False) (64,True) (62,False)
-0.8127318	(71,True) (64,True) (55,True)
-0.3129292	(71,True) (64,True) (56,True)
-0.8127318	(71,True) (64,True) (59,True)
-1.430134	(71,True) (64,True) (62,True)
-1.070605	(72,True) (64,True) (48,True)
-0.7468936	(72,True) (64,True) (55,True)
-0.5038555	(72,True) (64,True) (57,True)
-0.5250448	(72,True) (64,True) (60,True)
-1.224015	(72,True) (64,True) (67,True)
-0.1760913	(76,True) (64,True) (59,True)
-2.162962	||| (64,True) (52,True)
-1.070581	||| (64,True) (57,True)
-0.7099654	||| (64,True) (59,True)
-0.2403322	||| (64,True) (60,True)
-1.221849	||| (64,True) (62,False)
-1.346787	||| (64,True) (62,True)
-0.544068	(67,True) (65,False) (48,True)
-0.544068	(67,True) (65,False) (50,False)
-0.544068	(67,True) (65,False) (60,True)
-0.860338	(69,False) (65,False) (53,False)
-1.161368	(69,False) (65,False) (59,False)
-0.559308	(69,False) (65,False) (60,False)
-0.559308	(69,False) (65,False) (62,False)
-0.7069281	(69,False) (65,False) |||
-0.243038	(69,True) (65,False) (57,True)
-0.544068	(69,True) (65,False) (62,False)
-0.1760913	(72,False) (65,False) (53,False)
-1.066052	(72,True) (65,False) (55,True)
-0.5241032	(72,True) (65,False) (60,True)
-0.60206	(72,True) (65,False) (62,False)
-0.69897	||| (65,False) (60,False)
-0.69897	||| (65,False) (60,True)
-0.39794	||| (65,False) (62,False)
-0.6532125	(67,True) (65,True) (48,True)
-0.6532125	(67,True) (65,True) (50,True)
-0.6532125	(67,True) (65,True) (60,True)
-0.816175	(67,True) (65,True) (62,True)
-0.9605334	(69,True) (65,True) (53,True)
-1.113943	(69,True) (65,True) (59,True)
-0.6746107	(69,True) (65,True) (60,True)
-0.5698753	(69,True) (65,True) (62,True)
-1.577936	(69,True) (65,True) (64,False)
-1.577936	(69,True) (65,True) </s>
-0.8129134	(69,True) (65,True) |||
-0.30103	(71,False) (65,True) (53,True)
-0.90309	(72,True) (65,True) (53,True)
-1.066052	(72,True) (65,True) (55,True)
-0.90309	(72,True) (65,True) (57,True)
-0.5450327	(72,True) (65,True) (60,True)
-1.066052	(72,True) (65,True) (62,True)
-0.243038	||| (65,True) (60,True)
-0.663132	||| (65,True) (62,True)
-0.1760913	(69,False) (66,False) (62,False)
-0.1760913	(69,True) (66,False) (60,True)
-0.5609025	(71,False) (66,False) (59,False)
-0.09691001	(69,True) (66,True) (62,True)
-0.9411137	(71,True) (66,True) (57,False)
-0.7781513	(71,True) (66,True) (57,True)
-0.9411137	(71,True) (66,True) (59,True)
-0.9411137	(71,True) (66,True) (63,True)
-0.6532125	(71,False) (67,False) (55,False)
-0.1987726	(71,False) (67,False) (62,False)
-1.451018	(72,False) (67,False) (48,False)
-1.752048	(72,False) (67,False) (52,False)
-0.5215995	(72,False) (67,False) (60,False)
-0.1957459	(72,False) (67,False) (64,False)
-0.1760913	(72,True) (67,False) (57,True)
-0.5740313	(74,False) (67,False) (59,False)
-0.4960744	(74,False) (67,False) (62,False)
-0.8129134	(76,False) (67,False) (48,False)
-0.1139434	(76,False) (67,False) (60,False)
-0.4639925	(79,False) (67,False) (62,False)
-0.60206	<s> (67,False) (60,False)
-0.8460627	<s> (67,False) (62,False)
-0.2263964	<s> (67,False) (64,False)
-1.30103	||| (67,False) (55,False)
-0.455932	||| (67,False) (60,False)
-0.8465901	||| (67,False) (62,False)
-0.455932	||| (67,False) (64,False)
-1.30103	||| (67,False) |||
-0.6400837	(48,True) (67,True) (64,True)
-0.4639925	(69,True) (67,True) (64,True)
-0.1760913	(71,False) (67,True) (60,True)
-1.066052	(71,True) (67,True) (55,True)
-0.20412	(71,True) (67,True) (62,True)
-1.414973	(72,True) (67,True) (48,True)
-2.155336	(72,True) (67,True) (52,True)
-1.854306	(72,True) (67,True) (57,True)
-1.854306	(72,True) (67,True) (59,False)
-2.155336	(72,True) (67,True) (59,True)
-0.6434527	(72,True) (67,True) (60,True)
-1.553276	(72,True) (67,True) (62,False)
-1.797279	(72,True) (67,True) (62,True)
-0.2010935	(72,True) (67,True) (64,True)
-2.155336	(72,True) (67,True) (65,False)
-2.155336	(72,True) (67,True) (65,True)
-0.1760913	(74,False) (67,True) (65,False)
-0.5282738	(74,True) (67,True) (59,True)
-1.293296	(74,True) (67,True) (60,False)
-0.3899711	(74,True) (67,True) (62,True)
-1.130334	(74,True) (67,True) (65,True)
-0.9091145	(76,True) (67,True) (48,True)
-0.1210437	(76,True) (67,True) (60,True)
-0.5609025	(79,True) (67,True) (62,True)
-1.655619	||| (67,True) (55,True)
-1.956649	||| (67,True) (59,True)
-0.5094905	||| (67,True) (60,True)
-2.119611	||| (67,True) (62,False)
-0.8774673	||| (67,True) (62,True)
-1.655619	||| (67,True) (64,False)
-0.3826173	||| (67,True) (64,True)
-2.119611	||| (67,True) (65,False)
-1.598591	||| (67,True) (65,True)
-1.956649	||| (67,True) |||
-0.5609025	(71,False) (68,False) (64,False)
-0.02268133	(76,False) (68,False) (59,False)
-0.03988274	(76,True) (68,False) (62,False)
-0.08715018	(71,True) (68,True) (64,True)
-0.1091445	(76,True) (68,True) (59,True)
-1.117205	(76,True) (68,True) (62,True)
-0.6300887	(72,False) (69,False) (57,False)
-0.2498775	(72,False) (69,False) (64,False)
-0.80618	(72,False) (69,False) (65,False)
-0.1014576	(76,False) (69,False) (60,False)
-0.7781513	(76,False) (69,False) (64,False)
-0.1760913	(77,False) (69,False) (65,False)
-0.3390538	(79,True) (69,False) (62,True)
-1.632784	<s> (69,False) (60,False)
-0.05484867	<s> (69,False) (64,False)
-1.02986	||| (69,False) (60,False)
-1.126243	||| (69,False) (62,False)
-0.2939681	||| (69,False) (64,False)
-0.5812098	||| (69,False) (65,False)
-0.05115252	(.) (69,True) (64,True)
-1.989037	(72,True) (69,True) (45,True)
-1.989037	(72,True) (69,True) (53,True)
-0.6799468	(72,True) (69,True) (57,True)
-0.30103	(72,True) (69,True) (64,True)
-1.525045	(72,True) (69,True) (65,False)
-0.8260748	(72,True) (69,True) (65,True)
-1.371635	(72,True) (69,True) </s>
-0.3390538	(74,True) (69,True) (66,True)
-1.462398	(76,True) (69,True) (59,True)
-0.1401787	(76,True) (69,True) (60,True)
-1.462398	(76,True) (69,True) (61,True)
-1.62536	(76,True) (69,True) (62,False)
-1.462398	(76,True) (69,True) (62,True)
-1.007958	(76,True) (69,True) (64,True)
-0.1760913	(77,False) (69,True) (62,False)
-0.39794	(77,True) (69,True) (65,True)
-1.30103	||| (69,True) (60,True)
-2.339054	||| (69,True) (61,True)
-1.477121	||| (69,True) (62,False)
-1.154902	||| (69,True) (62,True)
-2.176091	||| (69,True) (64,False)
-0.1674911	||| (69,True) (64,True)
-2.339054	||| (69,True) (65,False)
-1	||| (69,True) (65,True)
-2.176091	||| (69,True) (66,False)
-2.176091	||| (69,True) (66,True)
-1.875061	||| (69,True) (67,True)
-0.60206	(74,False) (71,False) (65,True)
-0.09691001	(75,False) (71,False) (66,False)
-0.05115252	(76,False) (71,False) (64,False)
-0.4771213	<s> (71,False) (64,False)
-0.6400837	<s> (71,False) (68,False)
-1.09691	||| (71,False) (62,False)
-1.259872	||| (71,False) (64,False)
-0.6424701	||| (71,False) (64,True)
-1.09691	||| (71,False) (65,True)
-0.7179232	||| (71,False) (67,False)
-1.09691	||| (71,False) (68,False)
-0.544068	(74,True) (71,True) (64,True)
-0.7070305	(74,True) (71,True) (67,True)
-0.05115252	(75,True) (71,True) (66,True)
-0.9777236	(76,True) (71,True) (59,True)
-0.1026623	(76,True) (71,True) (64,True)
-1.431364	||| (71,True) (62,True)
-0.4313638	||| (71,True) (64,True)
-1.431364	||| (71,True) (65,True)
-1.130334	||| (71,True) (66,True)
-0.6532125	||| (71,True) (67,True)
-0.6910011	||| (71,True) (68,True)
-0.2382392	(76,False) (72,False) (67,False)
-0.5070845	(76,False) (72,False) (69,False)
-0.3390538	(76,True) (72,False) (64,False)
-0.4639925	(77,False) (72,False) (69,False)
-0.119064	(79,False) (72,False) (64,False)
-0.1760913	(81,False) (72,False) (65,False)
-0.69897	<s> (72,False) (64,False)
-0.1472151	<s> (72,False) (67,False)
-1.14762	<s> (72,False) (69,False)
-1.791351	||| (72,False) (60,False)
-1.249402	||| (72,False) (64,False)
-0.4670209	||| (72,False) (67,False)
-0.3273589	||| (72,False) (69,False)
-0.05115252	(.) (72,True) (67,True)
-1.903325	(76,True) (72,True) (48,True)
-1.903325	(76,True) (72,True) (57,True)
-1.382305	(76,True) (72,True) (64,True)
-1.439333	(76,True) (72,True) (67,False)
-0.2420521	(76,True) (72,True) (67,True)
-0.5789947	(76,True) (72,True) (69,True)
-0.1760913	(77,False) (72,True) (67,True)
-0.2742257	(77,True) (72,True) (69,True)
-0.09691001	(79,True) (72,True) (64,True)
-1.038024	(79,True) (72,True) (76,True)
-0.39794	(81,True) (72,True) (64,False)
-0.39794	(81,True) (72,True) (65,True)
-1.71286	||| (72,True) (60,True)
-0.9347088	||| (72,True) (64,True)
-1.41183	||| (72,True) (65,False)
-1.469822	||| (72,True) (65,True)
-2.31492	||| (72,True) (67,False)
-0.2875704	||| (72,True) (67,True)
-2.31492	||| (72,True) (69,False)
-0.624724	||| (72,True) (69,True)
-2.31492	||| (72,True) (70,False)
-2.31492	||| (72,True) (70,True)
-2.31492	||| (72,True) </s>
-2.477883	||| (72,True) |||
-0.30103	||| (74,False) (67,False)
-1.276906	||| (74,False) (67,True)
-0.7349565	||| (74,False) (71,False)
-1.113943	||| (74,False) </s>
-0.1413292	||| (74,True) (67,True)
-1.418235	||| (74,True) (69,True)
-0.8762857	||| (74,True) (71,True)
-0.09691001	||| (75,False) (71,False)
-0.05115252	||| (75,True) (71,True)
-0.1760913	(60,False) (76,False) (67,False)
-0.3390538	(79,False) (76,False) (72,False)
-0.8527849	<s> (76,False) (67,False)
-1.153815	<s> (76,False) (68,False)
-0.5797836	<s> (76,False) (69,False)
-0.3087168	<s> (76,False) (72,False)
-1.243038	||| (76,False) (64,False)
-1.243038	||| (76,False) (68,False)
-0.5898255	||| (76,False) (69,False)
-0.640978	||| (76,False) (71,False)
-0.4301247	||| (76,False) (72,False)
-0.09691001	(60,True) (76,True) (67,True)
-0.3390538	(72,True) (76,True) (60,True)
-0.08962812	(79,True) (76,True) (72,True)
-0.03988274	(84,True) (76,True) (67,True)
-2.259872	||| (76,True) (64,True)
-0.9665762	||| (76,True) (67,True)
-1.738853	||| (76,True) (68,False)
-1.142668	||| (76,True) (68,True)
-2.259872	||| (76,True) (69,False)
-0.634512	||| (76,True) (69,True)
-1.79588	||| (76,True) (71,False)
-1.119186	||| (76,True) (71,True)
-2.259872	||| (76,True) (72,False)
-0.3809067	||| (76,True) (72,True)
-2.09691	||| (76,True) </s>
-0.8619325	||| (77,False) (69,False)
-0.69897	||| (77,False) (69,True)
-0.8619325	||| (77,False) (72,False)
-0.69897	||| (77,False) (72,True)
-0.5450327	||| (77,True) (69,True)
-0.2498775	||| (77,True) (72,True)
-0.1860108	<s> (79,False) (72,False)
-0.544068	<s> (79,False) (76,False)
-0.39794	||| (79,False) (67,False)
-0.8972152	||| (79,True) (67,True)
-1.418235	||| (79,True) (69,False)
-0.3802112	||| (79,True) (72,True)
-0.8762857	||| (79,True) (76,True)
-0.1760913	||| (81,False) (72,False)
-0.09691001	||| (81,True) (72,True)
-0.03988274	||| (84,True) (76,True)
-0.2440027	(36,False) ||| (60,True)
-0.9542425	(36,True) ||| (36,True)
-0.2552725	(36,True) ||| (60,True)
-0.9542425	(36,True) ||| (64,False)
-0.39794	(40,False) ||| (60,True)
-0.39794	(40,False) ||| (64,True)
-0.7650225	(40,True) ||| (60,True)
-0.7650225	(40,True) ||| (64,True)
-0.1760913	(41,False) ||| </s>
-0.4771213	(43,True) ||| </s>
-0.05115252	(44,False) ||| (64,True)
-0.9542425	(44,True) ||| (64,False)
-0.2138798	(44,True) ||| (64,True)
-0.5961853	(44,True) ||| </s>
-0.9648356	(45,False) ||| (57,True)
-1.239061	(45,False) ||| (60,True)
-0.5388669	(45,False) ||| (64,True)
-0.4877143	(45,False) ||| (69,True)
-1.163608	(45,False) ||| (72,True)
-1.239061	(45,False) ||| (76,True)
-1.618048	(45,False) ||| </s>
-1.523284	(45,True) ||| (.)
-1.132626	(45,True) ||| (57,True)
-2.140686	(45,True) ||| (60,False)
-1.278754	(45,True) ||| (60,True)
-1.375664	(45,True) ||| (64,False)
-0.6255411	(45,True) ||| (64,True)
-1.676694	(45,True) ||| (67,False)
-1.074634	(45,True) ||| (69,False)
-0.6659697	(45,True) ||| (69,True)
-2.140686	(45,True) ||| (71,False)
-1.977724	(45,True) ||| (71,True)
-1.523284	(45,True) ||| (72,False)
-1.237361	(45,True) ||| (72,True)
-2.140686	(45,True) ||| (76,False)
-1.324511	(45,True) ||| (76,True)
-1.598737	(45,True) ||| </s>
-0.9347262	(47,False) ||| (57,True)
-1.552129	(47,False) ||| (60,True)
-1.552129	(47,False) ||| (64,True)
-1.010179	(47,False) ||| (67,True)
-0.7359536	(47,False) ||| (69,True)
-1.088136	(47,False) ||| (76,True)
-0.6110148	(47,False) ||| </s>
-1.505385	(47,True) ||| (57,False)
-1.505385	(47,True) ||| (60,False)
-0.6892102	(47,True) ||| (64,False)
-1.342423	(47,True) ||| (67,False)
-0.6434527	(47,True) ||| (67,True)
-0.9634358	(47,True) ||| (69,False)
-1.342423	(47,True) ||| (76,False)
-0.9843654	(47,True) ||| </s>
-1.493201	(48,False) ||| (57,True)
-0.7720771	(48,False) ||| (60,True)
-0.7051303	(48,False) ||| (64,True)
-1.851258	(48,False) ||| (65,True)
-0.6898903	(48,False) ||| (67,True)
-1.152288	(48,False) ||| (69,True)
-0.6751671	(48,False) ||| (72,True)
-1.110896	(48,False) ||| (76,True)
-1.740074	(48,True) ||| (.)
-1.836457	(48,True) ||| (57,True)
-1.815528	(48,True) ||| (60,False)
-0.9640654	(48,True) ||| (60,True)
-1.815528	(48,True) ||| (62,False)
-1.893484	(48,True) ||| (62,True)
-1.416363	(48,True) ||| (64,False)
-1.048386	(48,True) ||| (64,True)
-1.893484	(48,True) ||| (65,False)
-1.454152	(48,True) ||| (67,False)
-0.7965744	(48,True) ||| (67,True)
-1.893484	(48,True) ||| (69,False)
-1.381601	(48,True) ||| (69,True)
-1.815528	(48,True) ||| (71,False)
-1.319453	(48,True) ||| (72,False)
-0.8934844	(48,True) ||| (72,True)
-1.740074	(48,True) ||| (74,False)
-2.357477	(48,True) ||| (74,True)
-1.815528	(48,True) ||| (76,False)
-1.216791	(48,True) ||| (76,True)
-2.194514	(48,True) ||| (79,True)
-1.097604	(48,True) ||| </s>
-0.1760913	(49,False) ||| (69,True)
-0.544068	(49,True) ||| (69,False)
-0.243038	(49,True) ||| (69,True)
-1.414973	(50,False) ||| (57,True)
-1.414973	(50,False) ||| (60,True)
-1.414973	(50,False) ||| (62,True)
-1.056916	(50,False) ||| (64,True)
-1.577936	(50,False) ||| (65,True)
-1.577936	(50,False) ||| (67,True)
-0.7160034	(50,False) ||| (69,True)
-0.6746107	(50,False) ||| (72,True)
-0.60206	(50,False) ||| </s>
-1.146128	(50,True) ||| (64,False)
-1.146128	(50,True) ||| (64,True)
-1.447158	(50,True) ||| (65,False)
-1.447158	(50,True) ||| (65,True)
-0.748188	(50,True) ||| (67,False)
-1.447158	(50,True) ||| (69,False)
-0.7939455	(50,True) ||| (69,True)
-1.610121	(50,True) ||| (71,False)
-0.9927181	(50,True) ||| (71,True)
-1.068171	(50,True) ||| (72,False)
-1.068171	(50,True) ||| </s>
-1.043871	(52,False) ||| (64,True)
-0.4771213	(52,False) ||| (67,True)
-1.140253	(52,False) ||| (71,True)
-0.520587	(52,False) ||| (72,True)
-1.043871	(52,False) ||| (76,True)
-1.140253	(52,False) ||| </s>
-1.380681	(52,True) ||| (64,True)
-1.759668	(52,True) ||| (67,False)
-0.5693362	(52,True) ||| (67,True)
-1.759668	(52,True) ||| (69,False)
-1.106455	(52,True) ||| (71,True)
-1.401611	(52,True) ||| (72,False)
-0.7819442	(52,True) ||| (72,True)
-1.759668	(52,True) ||| (76,False)
-1.106455	(52,True) ||| (76,True)
-1.759668	(52,True) ||| (79,False)
-0.6804866	(52,True) ||| </s>
-1.20412	(53,False) ||| (60,True)
-1.20412	(53,False) ||| (65,True)
-0.3590219	(53,False) ||| (69,True)
-0.8460627	(53,False) ||| (72,True)
-1.20412	(53,False) ||| (81,True)
-0.90309	(53,False) ||| </s>
-1.617807	(53,True) ||| (60,True)
-1.075858	(53,True) ||| (65,True)
-0.4771213	(53,True) ||| (69,True)
-1.617807	(53,True) ||| (72,True)
-1.454845	(53,True) ||| (74,False)
-1.454845	(53,True) ||| (77,True)
-1.454845	(53,True) ||| (81,True)
-0.6097468	(53,True) ||| </s>
-0.776009	(55,False) ||| (64,True)
-1.230449	(55,False) ||| (67,True)
-0.8514621	(55,False) ||| (69,True)
-0.776009	(55,False) ||| (71,True)
-1.393411	(55,False) ||| (74,True)
-0.9294189	(55,False) ||| (76,True)
-0.8723916	(55,False) ||| </s>
-1.332438	(55,True) ||| (64,True)
-1.495401	(55,True) ||| (67,True)
-0.5920758	(55,True) ||| (69,False)
-0.8779985	(55,True) ||| (71,True)
-1.495401	(55,True) ||| (74,True)
-1.031408	(55,True) ||| (76,True)
-0.5195251	(55,True) ||| </s>
-0.8129134	(56,False) ||| (71,True)
-0.4548561	(56,False) ||| (76,True)
-0.4548561	(56,False) ||| </s>
-0.90309	(56,True) ||| (71,True)
-0.4486501	(56,True) ||| (76,True)
-0.4486501	(56,True) ||| </s>
-1.462998	(57,False) ||| (64,True)
-0.5095463	(57,False) ||| (69,True)
-0.480257	(57,False) ||| (72,True)
-0.6806168	(57,False) ||| (76,True)
-1.540955	(57,False) ||| (77,True)
-1.387545	(57,False) ||| </s>
-2.350483	(57,True) ||| (57,True)
-1.733081	(57,True) ||| (64,True)
-2.187521	(57,True) ||| (65,False)
-2.187521	(57,True) ||| (65,True)
-2.350483	(57,True) ||| (67,False)
-1.447158	(57,True) ||| (69,False)
-0.7103994	(57,True) ||| (69,True)
-1.585461	(57,True) ||| (71,False)
-1.829463	(57,True) ||| (71,True)
-1.447158	(57,True) ||| (72,False)
-0.7103994	(57,True) ||| (72,True)
-1.829463	(57,True) ||| (74,False)
-2.187521	(57,True) ||| (74,True)
-1.886491	(57,True) ||| (75,False)
-1.488551	(57,True) ||| (76,False)
-0.7251227	(57,True) ||| (76,True)
-2.350483	(57,True) ||| (77,False)
-1.733081	(57,True) ||| (77,True)
-0.8353382	(57,True) ||| </s>
-0.9848928	(59,False) ||| (69,True)
-1.602295	(59,False) ||| (71,True)
-0.5642715	(59,False) ||| (72,True)
-0.8372727	(59,False) ||| (74,True)
-1.602295	(59,False) ||| (75,True)
-0.7861202	(59,False) ||| (76,True)
-1.081275	(59,False) ||| (79,True)
-1.138303	(59,False) ||| </s>
-1.462398	(59,True) ||| (67,True)
-1.62536	(59,True) ||| (69,False)
-1.62536	(59,True) ||| (69,True)
-1.462398	(59,True) ||| (71,True)
-0.559308	(59,True) ||| (72,False)
-0.8091855	(59,True) ||| (74,True)
-1.62536	(59,True) ||| (75,True)
-1.083411	(59,True) ||| (76,False)
-1.104341	(59,True) ||| (79,True)
-1.083411	(59,True) ||| </s>
-1.393575	(60,False) ||| (67,True)
-1.092545	(60,False) ||| (69,True)
-0.3235373	(60,False) ||| (72,True)
-0.5332372	(60,False) ||| (76,True)
-1.315618	(60,False) ||| (79,True)
-1.694605	(60,False) ||| </s>
-2.177903	(60,True) ||| (67,False)
-1.41288	(60,True) ||| (67,True)
-1.41288	(60,True) ||| (69,True)
-2.01494	(60,True) ||| (71,False)
-1.037217	(60,True) ||| (72,False)
-0.464712	(60,True) ||| (72,True)
-1.274578	(60,True) ||| (74,False)
-2.01494	(60,True) ||| (76,False)
-0.7361867	(60,True) ||| (76,True)
-1.656883	(60,True) ||| (77,False)
-1.656883	(60,True) ||| (79,False)
-1.202027	(60,True) ||| (79,True)
-2.01494	(60,True) ||| (81,False)
-2.177903	(60,True) ||| (84,True)
-1.169842	(60,True) ||| </s>
-0.1760913	(61,True) ||| (69,True)
-0.60206	(62,False) ||| (72,True)
-0.60206	(62,False) ||| (77,True)
-0.60206	(62,False) ||| </s>
-0.60206	(62,True) ||| (72,False)
-0.60206	(62,True) ||| (74,True)
-0.1860108	(64,False) ||| (72,True)
-0.1760913	(64,True) ||| (72,True)
-0.02268133	(65,False) ||| (72,True)
-0.05115252	(65,True) ||| (72,True)
-0.30103	(67,False) ||| (67,True)
-0.1760913	(72,True) ||| (72,True)

\end\
