\data\
ngram 1=88
ngram 2=680
ngram 3=1816

\1-grams:
-2.5346286	<unk>	0
0	<s>	-1.1612923
-1.3083265	</s>	0
-1.7379138	(69,False)	-0.30323333
-1.6440431	(64,False)	-0.34543043
-1.6731358	(60,False)	-0.3797113
-1.6440431	(57,False)	-0.40104002
-1.0733433	|||	-0.7543727
-1.774328	(69,True)	-0.29889613
-1.6440431	(64,True)	-0.42028806
-1.5911231	(60,True)	-0.3631282
-1.5669	(57,True)	-0.4039366
-1.7043182	(62,False)	-0.33965483
-1.6440431	(59,False)	-0.36482483
-1.7043182	(62,True)	-0.3485124
-1.6731358	(59,True)	-0.32795864
-1.9064986	(71,False)	-0.24832974
-2.2967658	(68,False)	-0.23716554
-2.0240583	(71,True)	-0.24208361
-2.446269	(68,True)	-0.22565342
-1.9613128	(72,False)	-0.33039403
-1.7043182	(67,False)	-0.35187358
-1.9064986	(72,True)	-0.28556934
-1.6731358	(67,True)	-0.36974078
-1.7043182	(55,False)	-0.44311738
-1.5911231	(55,True)	-0.40205264
-1.8140769	(65,False)	-0.31320122
-1.9064986	(53,False)	-0.3969855
-2.0240583	(65,True)	-0.33085176
-1.7379138	(53,True)	-0.449938
-1.9064986	(45,False)	-0.643749
-1.6167775	(45,True)	-0.73727393
-1.7379138	(47,False)	-0.8717935
-1.8140769	(47,True)	-0.62490076
-1.774328	(48,False)	-0.45731443
-1.5014148	(48,True)	-0.57400143
-2.0240583	(66,False)	-0.26449522
-1.6440431	(50,False)	-0.7182524
-1.7379138	(52,False)	-0.4756903
-1.7379138	(52,True)	-0.36088395
-1.8140769	(50,True)	-0.53149384
-2.4863749	(79,False)	-0.25099376
-2.4002538	(79,True)	-0.28004554
-2.0240583	(56,False)	-0.31978354
-2.0974255	(74,False)	-0.25312787
-2.0240583	(76,False)	-0.2906442
-2.0974255	(76,True)	-0.28756753
-2.4863749	(77,False)	-0.253813
-2.4002538	(77,True)	-0.28004554
-2.1857576	(56,True)	-0.28122315
-2.4863749	(44,False)	-0.21721527
-2.4863749	(44,True)	-0.21721527
-2.4863749	(40,False)	-0.21721527
-2.4863749	(40,True)	-0.21721527
-2.1857576	(41,False)	-0.4568202
-2.446269	(74,True)	-0.253813
-2.446269	(36,False)	-0.23497145
-2.446269	(36,True)	-0.23497145
-2.4863749	(46,False)	-0.21721527
-2.4002538	(38,False)	-0.28004554
-2.4002538	(38,True)	-0.28004554
-2.4863749	(58,False)	-0.28004554
-2.4863749	(63,False)	-0.28004554
-2.2967658	(54,False)	-0.253813
-2.4863749	(63,True)	-0.28004554
-2.1857576	(54,True)	-0.23716554
-2.446269	(66,True)	-0.26259
-2.4863749	(61,False)	-0.28004554
-2.4863749	(61,True)	-0.26346543
-2.4863749	(81,False)	-0.28004554
-2.4002538	(81,True)	-0.28004554
-2.1857576	(43,False)	-0.4568202
-2.1857576	(43,True)	-0.42190024
-2.4863749	(58,True)	-0.28004554
-2.4863749	(41,True)	-0.21721527
-2.4002538	(70,False)	-0.28004554
-2.4002538	(70,True)	-0.28004554
-2.4002538	(46,True)	-0.28004554
-2.4863749	(.)	-0.21721527
-2.4002538	(75,False)	-0.28004554
-2.4002538	(75,True)	-0.28004554
-2.4002538	(33,False)	-0.28004554
-2.4863749	(33,True)	-0.21721527
-2.4002538	(84,False)	-0.28004554
-2.4002538	(84,True)	-0.28004554
-2.4002538	(83,False)	-0.28004554
-2.4863749	(49,False)	-0.21721527
-2.4863749	(49,True)	-0.21721527

\2-grams:
-1.3283784	(69,False) </s>	0
-1.5063841	(64,False) </s>	0
-1.5253698	(60,False) </s>	0
-1.4850775	(57,False) </s>	0
-1.0408268	||| </s>	0
-1.1196313	(69,True) </s>	0
-1.3049452	(64,True) </s>	0
-1.3116624	(60,True) </s>	0
-1.3831081	(57,True) </s>	0
-1.3222051	(62,True) </s>	0
-1.3828864	(59,True) </s>	0
-1.1828344	(71,True) </s>	0
-0.8486613	(68,True) </s>	0
-1.3984898	(72,False) </s>	0
-1.4717426	(67,False) </s>	0
-1.4083465	(72,True) </s>	0
-1.2544838	(67,True) </s>	0
-1.3606266	(55,True) </s>	0
-1.4167385	(65,False) </s>	0
-1.3362716	(65,True) </s>	0
-1.0090735	(53,True) </s>	0
-1.2314252	(45,False) </s>	0
-1.4998447	(45,True) </s>	0
-1.3409567	(47,True) </s>	0
-1.3193595	(48,True) </s>	0
-1.2499542	(52,True) </s>	0
-1.1961613	(50,True) </s>	0
-1.1347464	(79,True) </s>	0
-1.1250837	(74,False) </s>	0
-1.3188645	(76,True) </s>	0
-1.1848569	(56,True) </s>	0
-1.06444	(61,True) </s>	0
-1.0095764	(43,True) </s>	0
-0.5793442	(70,True) </s>	0
-0.76276016	<s> (69,False)	-0.9836545
-1.7639475	(64,False) (69,False)	-0.2069609
-1.4800048	||| (69,False)	-0.82400584
-0.90398127	(72,False) (69,False)	-0.9412739
-1.6372888	(72,True) (69,False)	-0.2069609
-1.4843656	(48,False) (69,False)	-0.2069609
-1.2002186	(79,False) (69,False)	-0.2069609
-1.2432144	(79,True) (69,False)	-0.21674097
-1.2385746	(74,False) (69,False)	-0.2069609
-1.2544156	(76,False) (69,False)	-0.75044346
-1.4940231	(76,True) (69,False)	-0.2069609
-0.9778116	(77,False) (69,False)	-0.36248344
-0.6069187	(81,False) (69,False)	-0.2069609
-0.90281475	<s> (64,False)	-0.842022
-0.87673163	(69,False) (64,False)	-1.1956515
-1.6037724	(60,False) (64,False)	-0.2069609
-1.5995817	||| (64,False)	-0.77173024
-1.5332305	(69,True) (64,False)	-0.36248344
-1.8059874	(60,True) (64,False)	-0.2069609
-1.0432469	(71,False) (64,False)	-0.36188102
-0.84063125	(68,False) (64,False)	-0.3416797
-1.2968788	(71,True) (64,False)	-0.2069609
-0.89686227	(72,False) (64,False)	-0.5712954
-0.84944665	(67,False) (64,False)	-0.9733365
-1.465354	(72,True) (64,False)	-0.36248344
-1.7695742	(67,True) (64,False)	-0.2069609
-1.6095424	(65,True) (64,False)	-0.21674097
-1.4025397	(76,False) (64,False)	-0.2069609
-1.4642463	(76,True) (64,False)	-0.2069609
-1.1303014	<s> (60,False)	-0.9288058
-1.1252455	(69,False) (60,False)	-0.6320682
-0.9637482	(64,False) (60,False)	-1.1766748
-1.8786907	||| (60,False)	-0.43530515
-1.8363999	(64,True) (60,False)	-0.2069609
-1.7205987	(62,False) (60,False)	-0.2069609
-1.7164121	(62,True) (60,False)	-0.2069609
-1.4585886	(71,True) (60,False)	-0.2069609
-1.0438129	(72,False) (60,False)	-0.2777974
-0.9363673	(67,False) (60,False)	-0.8986543
-1.5475131	(67,True) (60,False)	-0.21280245
-1.3159924	(65,False) (60,False)	-0.39543465
-1.621848	(65,True) (60,False)	-0.2069609
-1.410883	(76,False) (60,False)	-0.2069609
-0.60421586	(63,False) (60,False)	-0.2069609
-1.5804268	<s> (57,False)	-0.6122152
-1.604337	(69,False) (57,False)	-0.915711
-1.0433443	(64,False) (57,False)	-0.801596
-0.87914044	(60,False) (57,False)	-1.0689081
-2.2691224	||| (57,False)	-0.21674097
-1.7120687	(64,True) (57,False)	-0.2069609
-1.5999157	(60,True) (57,False)	-0.2069609
-1.263044	(62,False) (57,False)	-0.27172735
-1.7017623	(62,True) (57,False)	-0.46778375
-1.5594152	(72,False) (57,False)	-0.2069609
-1.7695742	(67,True) (57,False)	-0.2069609
-1.3096116	(65,False) (57,False)	-0.36248344
-1.6095424	(65,True) (57,False)	-0.2069609
-1.1860893	(66,False) (57,False)	-0.2069609
-1.143849	(66,True) (57,False)	-0.21674097
-0.88365173	(61,False) (57,False)	-0.2069609
-1.2091604	(64,False) |||	-0.3589305
-0.8593539	(60,False) |||	-0.9530802
-0.5367225	(57,False) |||	-1.0155385
-1.4134109	(64,True) |||	-0.36248344
-0.9474326	(60,True) |||	-0.9049944
-0.4969293	(57,True) |||	-0.9613349
-1.1991677	(62,False) |||	-0.38651282
-0.6496695	(59,False) |||	-0.54137015
-1.2682446	(62,True) |||	-0.3180795
-0.73253834	(59,True) |||	-0.54453564
-1.2483921	(72,False) |||	-0.2069609
-1.1617534	(67,False) |||	-0.3180795
-1.241546	(72,True) |||	-0.36248344
-1.3173085	(67,True) |||	-0.2069609
-0.44224364	(55,False) |||	-0.44405776
-0.8132496	(55,True) |||	-0.54604733
-1.2559818	(65,False) |||	-0.51777095
-0.46024972	(53,False) |||	-0.5334045
-1.2724109	(65,True) |||	-0.6427097
-0.40211698	(53,True) |||	-0.60192084
-0.12811187	(45,False) |||	-0.83165693
-0.12969743	(45,True) |||	-0.8127401
-0.05699735	(47,False) |||	-0.4900657
-0.16685088	(47,True) |||	-0.49260855
-0.31158072	(48,False) |||	-0.9677958
-0.27607802	(48,True) |||	-0.8784176
-0.18890695	(50,False) |||	-0.5827148
-0.38319665	(52,False) |||	-0.73680764
-0.575021	(52,True) |||	-0.8217374
-0.26705238	(50,True) |||	-0.52771837
-0.50643456	(56,False) |||	-0.41980597
-1.147469	(76,False) |||	-0.2069609
-1.1792012	(76,True) |||	-0.2069609
-0.827789	(56,True) |||	-0.45860833
-0.3518503	(44,False) |||	-0.6427097
-0.3518503	(44,True) |||	-0.61941236
-0.3518503	(40,False) |||	-0.40159565
-0.3518503	(40,True) |||	-0.21427523
-0.16735315	(41,False) |||	-0.29198372
-0.3306582	(36,False) |||	-0.33676213
-0.3306582	(36,True) |||	-0.50189584
-0.3518503	(46,False) |||	-0.2069609
-0.28435698	(38,False) |||	-0.2069609
-0.28435698	(38,True) |||	-0.2069609
-0.78745806	(58,False) |||	-0.2069609
-0.84731334	(54,False) |||	-0.2069609
-0.89235437	(54,True) |||	-0.2069609
-0.78745806	(61,False) |||	-0.2069609
-0.97694564	(61,True) |||	-0.46778375
-0.16735315	(43,False) |||	-0.2069609
-0.24091142	(43,True) |||	-0.2777974
-0.54983574	(58,True) |||	-0.2069609
-0.3518503	(41,True) |||	-0.2069609
-0.28435698	(46,True) |||	-0.2069609
-0.28435698	(33,False) |||	-0.2069609
-0.3518503	(33,True) |||	-0.2069609
-0.3518503	(49,False) |||	-0.46778375
-0.3518503	(49,True) |||	-0.37978578
-1.1685188	||| (69,True)	-1.1961441
-1.6050143	(72,False) (69,True)	-0.2069609
-1.3513654	(72,True) (69,True)	-0.9623999
-1.7523857	(48,True) (69,True)	-0.2069609
-1.2059381	(79,False) (69,True)	-0.2069609
-1.2491218	(79,True) (69,True)	-0.2069609
-1.5044204	(76,True) (69,True)	-0.8534295
-0.9812076	(77,False) (69,True)	-0.46778375
-0.8940299	(77,True) (69,True)	-0.29346478
-0.9812076	(74,True) (69,True)	-0.21674097
-0.6082765	(81,True) (69,True)	-0.2069609
-0.68407416	(.) (69,True)	-0.6427097
-1.3269126	(69,False) (64,True)	-0.2069609
-1.2003566	||| (64,True)	-1.1538982
-0.8138045	(69,True) (64,True)	-1.18224
-1.7114074	(60,True) (64,True)	-0.36248344
-1.2515093	(71,False) (64,True)	-0.21060267
-1.034545	(68,False) (64,True)	-0.2069609
-1.1385136	(71,True) (64,True)	-0.578357
-0.89981556	(68,True) (64,True)	-0.73961973
-1.526182	(67,False) (64,True)	-0.2069609
-0.9799755	(72,True) (64,True)	-0.7619848
-1.0432947	(67,True) (64,True)	-1.2042946
-1.1834986	(79,False) (64,True)	-0.2069609
-1.2259595	(79,True) (64,True)	-0.2069609
-1.4642463	(76,True) (64,True)	-0.36248344
-0.60287064	(70,False) (64,True)	-0.2069609
-0.60287064	(70,True) (64,True)	-0.2069609
-1.4529233	(69,False) (60,True)	-0.46778375
-1.4531443	(64,False) (60,True)	-0.2069609
-1.3649833	||| (60,True)	-1.0125855
-1.3832905	(69,True) (60,True)	-0.802104
-1.2651186	(64,True) (60,True)	-1.2802795
-1.5660408	(62,False) (60,True)	-0.2069609
-1.6601782	(59,False) (60,True)	-0.2069609
-1.6738669	(62,True) (60,True)	-0.2069609
-1.6363813	(59,True) (60,True)	-0.2069609
-1.5105976	(71,False) (60,True)	-0.2069609
-1.3089204	(72,True) (60,True)	-0.29702
-0.9700004	(67,True) (60,True)	-0.95033336
-1.2971245	(65,False) (60,True)	-0.4799824
-1.1065172	(65,True) (60,True)	-0.5768861
-0.81465626	(66,False) (60,True)	-0.3416797
-1.445472	(76,True) (60,True)	-0.21674097
-0.76480186	(63,True) (60,True)	-0.2069609
-1.1342385	(66,True) (60,True)	-0.2069609
-1.445036	(64,False) (57,True)	-0.46778375
-1.5728066	(60,False) (57,True)	-0.21674097
-1.5400771	||| (57,True)	-0.8806514
-1.6122202	(69,True) (57,True)	-1.1867777
-0.86308706	(64,True) (57,True)	-0.9443243
-0.9492276	(60,True) (57,True)	-1.1929498
-1.1180663	(62,False) (57,True)	-0.5053758
-1.3958522	(59,False) (57,True)	-0.51777095
-1.1048548	(62,True) (57,True)	-0.28352705
-1.5080154	(59,True) (57,True)	-0.4385897
-1.4984634	(67,False) (57,True)	-0.4385897
-1.5587168	(72,True) (57,True)	-0.36248344
-1.6256117	(67,True) (57,True)	-0.4385897
-1.4314243	(65,False) (57,True)	-0.4385897
-1.1027237	(65,True) (57,True)	-0.40159565
-1.1703815	(66,False) (57,True)	-0.2069609
-1.2791363	(56,False) (57,True)	-0.2069609
-1.1295117	(66,True) (57,True)	-0.46778375
-1.1296864	(61,True) (57,True)	-0.2069609
-2.4295342	<s> (62,False)	-0.46778375
-1.4905689	(69,False) (62,False)	-0.28352705
-2.1467535	||| (62,False)	-0.26542774
-1.415481	(69,True) (62,False)	-0.42735487
-1.4159331	(64,True) (62,False)	-0.44088817
-1.4168652	(71,False) (62,False)	-0.2069609
-0.84578764	(68,False) (62,False)	-0.29198372
-1.0451512	(67,False) (62,False)	-0.801596
-1.4851208	(72,True) (62,False)	-0.46778375
-1.3654966	(67,True) (62,False)	-0.24903734
-0.70091367	(65,False) (62,False)	-0.34990847
-1.6345124	(65,True) (62,False)	-0.2069609
-1.1968858	(66,False) (62,False)	-0.2069609
-1.2324419	(74,False) (62,False)	-0.2069609
-1.1448835	(64,False) (59,False)	-0.5117496
-2.201318	||| (59,False)	-0.46778375
-1.5332305	(69,True) (59,False)	-0.2069609
-1.0937189	(64,True) (59,False)	-0.55229366
-1.5999157	(60,True) (59,False)	-0.45731324
-0.8164185	(62,False) (59,False)	-0.5748722
-1.5810901	(62,True) (59,False)	-0.2069609
-1.3984325	(71,False) (59,False)	-0.2069609
-1.034545	(68,False) (59,False)	-0.51777095
-1.526182	(67,False) (59,False)	-0.30060455
-1.3530282	(67,True) (59,False)	-0.3589305
-1.3096116	(65,False) (59,False)	-0.3180795
-1.6095424	(65,True) (59,False)	-0.2069609
-1.5720774	(45,True) (59,False)	-0.2069609
-1.1860893	(66,False) (59,False)	-0.21674097
-0.60287064	(63,False) (59,False)	-0.2069609
-1.4905689	(69,False) (62,True)	-0.21427523
-1.7475207	(64,False) (62,True)	-0.2069609
-1.7991788	||| (62,True)	-0.354042
-1.5557123	(69,True) (62,True)	-0.45495945
-1.6076899	(64,True) (62,True)	-0.38043708
-1.4692323	(71,True) (62,True)	-0.2069609
-0.9058899	(68,True) (62,True)	-0.21427523
-1.6231662	(72,True) (62,True)	-0.2069609
-1.1315212	(67,True) (62,True)	-0.8674877
-1.619679	(65,False) (62,True)	-0.2069609
-0.7858478	(65,True) (62,True)	-0.35468158
-1.1968858	(66,False) (62,True)	-0.2069609
-0.9744419	(74,True) (62,True)	-0.2069609
-0.77601457	(66,True) (62,True)	-0.21674097
-1.6173041	(69,False) (59,True)	-0.2069609
-1.6120234	(64,False) (59,True)	-0.2069609
-1.7405769	(60,False) (59,True)	-0.2069609
-2.2195702	||| (59,True)	-0.46778375
-1.544326	(69,True) (59,True)	-0.2069609
-1.1782727	(64,True) (59,True)	-0.7429632
-1.7258875	(60,True) (59,True)	-0.4385897
-1.5995712	(62,False) (59,True)	-0.2069609
-0.86284304	(62,True) (59,True)	-0.61266077
-1.4585886	(71,True) (59,True)	-0.2069609
-1.0941129	(68,True) (59,True)	-0.88574773
-1.2283031	(67,True) (59,True)	-0.40534192
-1.4807044	(65,True) (59,True)	-0.3111852
-0.77069163	(63,True) (59,True)	-0.21674097
-1.1487353	(66,True) (59,True)	-0.21674097
-1.8667572	<s> (71,False)	-0.28352705
-1.7569638	||| (71,False)	-0.42619455
-1.7687149	(69,True) (71,False)	-0.2069609
-1.7595198	(67,False) (71,False)	-0.2069609
-1.0673379	(74,False) (71,False)	-0.258976
-1.2785776	(76,False) (71,False)	-0.56645775
-1.5371947	(76,True) (71,False)	-0.2069609
-0.90197957	(77,True) (71,False)	-0.2069609
-0.31717315	(75,False) (71,False)	-0.3416797
-1.5229836	(71,False) (68,False)	-0.21280245
-1.7137067	(72,False) (68,False)	-0.2069609
-1.3108025	(76,False) (68,False)	-0.51777095
-1.5979968	(76,True) (68,False)	-0.4385897
-1.3359538	||| (71,True)	-0.7107801
-1.8081319	(69,True) (71,True)	-0.2069609
-1.9450109	(67,True) (71,True)	-0.2069609
-1.5605043	(76,True) (71,True)	-0.70538294
-0.9073614	(77,True) (71,True)	-0.2069609
-0.99859786	(74,True) (71,True)	-0.27172735
-0.3185667	(75,True) (71,True)	-0.6427097
-1.607649	(71,True) (68,True)	-0.55522513
-1.8115574	(72,True) (68,True)	-0.2069609
-1.6112498	(76,True) (68,True)	-0.62550473
-0.62884676	<s> (72,False)	-1.118843
-1.4973232	||| (72,False)	-0.8876028
-1.0287611	(79,False) (72,False)	-0.39036646
-1.2706085	(74,False) (72,False)	-0.2069609
-0.8596133	(76,False) (72,False)	-0.824088
-1.5486932	(76,True) (72,False)	-0.21674097
-0.7864309	(77,False) (72,False)	-0.21427523
-0.61375046	(81,False) (72,False)	-0.46778375
-1.036485	<s> (67,False)	-0.7676484
-1.6306704	(69,False) (67,False)	-0.2069609
-1.7475207	(64,False) (67,False)	-0.2069609
-1.4766225	||| (67,False)	-0.6952916
-1.5557123	(69,True) (67,False)	-0.2069609
-1.264571	(71,False) (67,False)	-0.45961833
-1.2675871	(72,False) (67,False)	-1.2606933
-1.4851208	(72,True) (67,False)	-0.29198372
-1.2956631	(48,False) (67,False)	-0.2069609
-1.1945734	(79,False) (67,False)	-0.21427523
-1.2373862	(79,True) (67,False)	-0.2069609
-0.86522704	(74,False) (67,False)	-0.38889372
-0.8456372	(76,False) (67,False)	-0.68081576
-1.483869	(76,True) (67,False)	-0.2069609
-1.1550381	||| (72,True)	-1.3602527
-1.7595198	(67,False) (72,True)	-0.2069609
-1.8994497	(67,True) (72,True)	-0.2069609
-1.2673419	(79,True) (72,True)	-0.61468095
-1.3577464	(76,True) (72,True)	-0.9345036
-0.99155796	(77,False) (72,True)	-0.46778375
-0.90197957	(77,True) (72,True)	-0.46807498
-0.61237544	(81,True) (72,True)	-0.46778375
-0.6897245	(.) (72,True)	-0.6427097
-1.6173041	(69,False) (67,True)	-0.2069609
-1.2021437	||| (67,True)	-1.0073696
-1.6682436	(69,True) (67,True)	-0.21427523
-1.8363999	(64,True) (67,True)	-0.2069609
-1.2579911	(71,False) (67,True)	-0.36248344
-1.1435745	(71,True) (67,True)	-0.46333387
-1.4198647	(72,False) (67,True)	-0.2069609
-1.1227129	(72,True) (67,True)	-1.2496855
-1.6069331	(65,False) (67,True)	-0.2069609
-1.560268	(48,True) (67,True)	-0.21182339
-1.2316353	(79,True) (67,True)	-0.21280245
-1.2263945	(74,False) (67,True)	-0.36248344
-0.9271616	(76,True) (67,True)	-0.7810042
-0.77145195	(74,True) (67,True)	-0.5278497
-0.60421586	(70,False) (67,True)	-0.2069609
-1.2887163	(64,False) (55,False)	-0.4433211
-1.0378947	(60,False) (55,False)	-0.99390423
-1.737826	(64,True) (55,False)	-0.21674097
-1.8429279	(60,True) (55,False)	-0.51383245
-1.6654859	(57,True) (55,False)	-0.46778375
-1.6113491	(62,False) (55,False)	-0.4006164
-1.2236925	(59,False) (55,False)	-0.3525779
-1.6917342	(59,True) (55,False)	-0.2069609
-1.3965771	(67,False) (55,False)	-0.21280245
-1.619679	(65,False) (55,False)	-0.2069609
-1.5808983	(45,True) (55,False)	-0.2069609
-0.8888098	(58,False) (55,False)	-0.2069609
-0.8888098	(61,False) (55,False)	-0.2069609
-1.1538117	(61,True) (55,False)	-0.2069609
-1.6874007	(64,False) (55,True)	-0.2069609
-1.4525387	(60,False) (55,True)	-0.2069609
-1.6310922	(57,False) (55,True)	-0.2069609
-1.3913503	(64,True) (55,True)	-0.5159763
-1.2007716	(60,True) (55,True)	-0.9782501
-1.6211721	(57,True) (55,True)	-0.46778375
-1.5660408	(62,False) (55,True)	-0.29198372
-1.6601782	(59,False) (55,True)	-0.2069609
-1.1085145	(62,True) (55,True)	-0.5743522
-1.0569378	(59,True) (55,True)	-0.45821375
-1.6329466	(67,False) (55,True)	-0.2069609
-1.5195795	(67,True) (55,True)	-0.4084658
-1.5707976	(65,False) (55,True)	-0.21674097
-1.5859301	(65,True) (55,True)	-0.21674097
-1.5634321	(45,True) (55,True)	-0.2069609
-0.8785542	(58,False) (55,True)	-0.2069609
-0.94935733	(61,True) (55,True)	-0.21674097
-0.60019284	(58,True) (55,True)	-0.2069609
-2.466606	<s> (65,False)	-0.2069609
-1.1425422	(69,False) (65,False)	-0.52854335
-1.9141102	||| (65,False)	-0.354042
-1.5917803	(69,True) (65,False)	-0.35047385
-1.9049948	(60,True) (65,False)	-0.2069609
-1.2849311	(71,False) (65,False)	-0.2069609
-1.5028241	(71,True) (65,False)	-0.2069609
-1.452448	(72,False) (65,False)	-0.36248344
-1.728034	(67,False) (65,False)	-0.2069609
-1.6669911	(72,True) (65,False)	-0.3776736
-1.5877935	(67,True) (65,False)	-0.41950002
-1.7044712	(69,False) (53,False)	-0.2069609
-1.5264623	(60,False) (53,False)	-0.6427097
-1.0208948	(57,False) (53,False)	-0.57275736
-1.8246603	(60,True) (53,False)	-0.2630833
-1.6755666	(62,False) (53,False)	-0.36248344
-1.7916915	(59,False) (53,False)	-0.46778375
-1.6173774	(59,True) (53,False)	-0.36248344
-1.6978587	(55,True) (53,False)	-0.32447472
-1.5245882	(65,False) (53,False)	-0.51777095
-1.6418167	||| (65,True)	-0.5350218
-1.4782841	(69,True) (65,True)	-0.5512985
-2.0045412	(60,True) (65,True)	-0.2069609
-1.4883407	(71,False) (65,True)	-0.3180795
-1.186337	(71,True) (65,True)	-0.2069609
-1.562386	(72,True) (65,True)	-0.33213156
-1.6321951	(67,True) (65,True)	-0.36711982
-1.7639475	(64,False) (53,True)	-0.46778375
-1.7709341	(60,False) (53,True)	-0.2069609
-1.5357114	(57,False) (53,True)	-0.36248344
-1.6992214	(69,True) (53,True)	-0.21674097
-1.4509125	(60,True) (53,True)	-0.6068926
-1.1918308	(57,True) (53,True)	-0.6446573
-1.7524462	(62,False) (53,True)	-0.2069609
-1.5886726	(59,False) (53,True)	-0.21280245
-1.6151214	(62,True) (53,True)	-0.39036646
-1.7067497	(59,True) (53,True)	-0.21674097
-1.6591232	(55,False) (53,True)	-0.2069609
-1.5037328	(55,True) (53,True)	-0.3297193
-1.3428918	(65,True) (53,True)	-0.73961973
-1.7044712	(69,False) (45,False)	-0.2069609
-1.8366768	(64,False) (45,False)	-0.21674097
-1.6859756	(60,False) (45,False)	-1.2020178
-1.5720222	(57,False) (45,False)	-1.119831
-1.7281083	(57,True) (45,False)	-0.2069609
-1.7033051	(55,False) (45,False)	-0.2069609
-1.1309439	(48,False) (45,False)	-0.8188009
-1.2488745	(52,False) (45,False)	-0.7810124
-0.99155796	(54,False) (45,False)	-0.2069609
-1.7122037	(60,False) (45,True)	-0.2069609
-1.6393292	(69,True) (45,True)	-0.21674097
-1.8043168	(64,True) (45,True)	-0.3416797
-1.6973945	(60,True) (45,True)	-1.2772604
-1.3091782	(57,True) (45,True)	-1.4954946
-1.5769324	(62,False) (45,True)	-0.21674097
-1.5478759	(59,False) (45,True)	-0.51777095
-1.5703142	(62,True) (45,True)	-0.21674097
-1.5277948	(59,True) (45,True)	-0.51777095
-1.6190238	(55,False) (45,True)	-0.2069609
-1.7278088	(55,True) (45,True)	-0.2069609
-1.4755982	(53,False) (45,True)	-0.2069609
-1.4579941	(48,False) (45,True)	-0.2069609
-1.0140257	(48,True) (45,True)	-0.9546379
-1.1359215	(52,True) (45,True)	-1.061839
-0.8380758	(54,True) (45,True)	-0.2069609
-1.1391762	(61,True) (45,True)	-0.3416797
-1.7513012	(64,True) (47,False)	-0.21674097
-1.7563822	(60,True) (47,False)	-0.4385897
-1.8082352	(57,True) (47,False)	-0.21674097
-1.2794101	(62,False) (47,False)	-0.4385897
-1.5886726	(59,False) (47,False)	-0.4385897
-1.7472829	(62,True) (47,False)	-0.2069609
-1.6591232	(55,False) (47,False)	-0.3416797
-1.5037328	(55,True) (47,False)	-0.21674097
-1.7428602	(48,True) (47,False)	-0.2069609
-0.80016184	(50,False) (47,False)	-0.8535631
-1.3686898	(52,True) (47,False)	-0.3416797
-1.3155146	(56,False) (47,False)	-0.2069609
-0.9778116	(54,False) (47,False)	-0.2069609
-1.9086922	(64,True) (47,True)	-0.2069609
-1.7891809	(60,True) (47,True)	-0.21674097
-1.8419122	(57,True) (47,True)	-0.2069609
-1.1350342	(62,True) (47,True)	-0.51777095
-1.5931908	(59,True) (47,True)	-0.3416797
-1.8176165	(55,True) (47,True)	-0.55522513
-1.7621249	(48,True) (47,True)	-0.2069609
-1.5444132	(52,True) (47,True)	-0.46778375
-0.83755183	(50,True) (47,True)	-0.7583432
-1.3220859	(56,True) (47,True)	-0.46778375
-0.8536389	(54,True) (47,True)	-0.46778375
-2.587928	<s> (48,False)	-0.2069609
-1.3000731	(64,False) (48,False)	-1.0593733
-1.5003977	(60,False) (48,False)	-1.043579
-1.381959	(57,False) (48,False)	-0.72615856
-1.458801	(60,True) (48,False)	-0.21427523
-1.6050143	(72,False) (48,False)	-0.2069609
-1.4109712	(67,False) (48,False)	-0.58471775
-1.3325558	(55,False) (48,False)	-1.0746132
-1.8012989	(55,True) (48,False)	-0.2069609
-1.5156604	(53,False) (48,False)	-0.2069609
-0.8501997	(52,False) (48,False)	-1.1013476
-1.6876959	(52,True) (48,False)	-0.2069609
-1.6346002	(64,False) (48,True)	-0.2069609
-1.5897355	(57,False) (48,True)	-0.2069609
-2.1589828	||| (48,True)	-0.2069609
-1.0760187	(64,True) (48,True)	-1.1836839
-1.385706	(60,True) (48,True)	-1.1971002
-1.4630929	(57,True) (48,True)	-0.75589144
-1.5250158	(62,False) (48,True)	-0.4385897
-1.6124675	(59,False) (48,True)	-0.2069609
-1.520114	(62,True) (48,True)	-0.3416797
-1.5241892	(72,True) (48,True)	-0.21674097
-1.4849272	(67,True) (48,True)	-0.97006863
-1.5736041	(55,False) (48,True)	-0.2069609
-1.1246036	(55,True) (48,True)	-1.2541951
-1.4069711	(65,False) (48,True)	-0.21674097
-1.2840623	(53,False) (48,True)	-0.6427097
-1.4217628	(65,True) (48,True)	-0.21674097
-1.0377722	(53,True) (48,True)	-0.6938622
-1.5179372	(52,False) (48,True)	-0.2069609
-1.1173031	(52,True) (48,True)	-1.2605752
-1.2620295	(56,False) (48,True)	-0.2069609
-0.7569725	(54,False) (48,True)	-0.2069609
-1.0111535	(54,True) (48,True)	-0.2069609
-1.5654949	(69,False) (66,False)	-0.46778375
-2.5155358	||| (66,False)	-0.2069609
-1.8081319	(69,True) (66,False)	-0.46778375
-1.4883407	(71,False) (66,False)	-0.21280245
-1.5520815	(71,True) (66,False)	-0.2069609
-1.7332865	(72,True) (66,False)	-0.2069609
-1.5605043	(76,True) (66,False)	-0.2069609
-1.7261586	(60,False) (50,False)	-0.2069609
-1.6533477	(57,False) (50,False)	-0.46778375
-1.7114074	(60,True) (50,False)	-0.58471775
-1.5093868	(57,True) (50,False)	-0.21427523
-1.263044	(62,False) (50,False)	-0.73961973
-1.6861547	(59,False) (50,False)	-0.46778375
-1.7017623	(62,True) (50,False)	-0.46778375
-1.6631764	(59,True) (50,False)	-0.2069609
-1.7695742	(67,True) (50,False)	-0.2069609
-1.6287069	(55,False) (50,False)	-0.21674097
-1.1453191	(55,True) (50,False)	-0.555877
-1.5945508	(65,False) (50,False)	-0.46778375
-0.91443366	(53,False) (50,False)	-0.6427097
-1.4982306	(52,True) (50,False)	-0.5047245
-1.1165507	(56,False) (50,False)	-0.3180795
-1.2883471	(56,True) (50,False)	-0.46778375
-1.4961249	(64,False) (52,False)	-0.5153052
-1.1461622	(60,False) (52,False)	-0.7342669
-1.1557643	(57,False) (52,False)	-0.73961973
-1.8626475	(60,True) (52,False)	-0.2069609
-1.6773088	(57,True) (52,False)	-0.2069609
-1.7524462	(62,False) (52,False)	-0.2069609
-1.5886726	(59,False) (52,False)	-0.66903865
-1.7472829	(62,True) (52,False)	-0.46778375
-1.6986775	(67,False) (52,False)	-0.46778375
-0.9525487	(55,False) (52,False)	-0.8070221
-1.6296408	(53,True) (52,False)	-0.2069609
-1.1287191	(56,False) (52,False)	-0.3416797
-0.891412	(61,False) (52,False)	-0.2069609
-1.7709341	(60,False) (52,True)	-0.2069609
-1.6890274	(57,False) (52,True)	-0.2069609
-1.4223025	(64,True) (52,True)	-0.6641211
-1.3223748	(60,True) (52,True)	-0.8579123
-1.5345263	(57,True) (52,True)	-0.76295185
-1.6234554	(62,False) (52,True)	-0.3111852
-1.0870438	(59,False) (52,True)	-0.3111852
-1.7472829	(62,True) (52,True)	-0.2069609
-1.2146603	(59,True) (52,True)	-1.0513736
-1.7008376	(67,True) (52,True)	-0.21674097
-1.0503932	(55,True) (52,True)	-1.020073
-0.70472574	(56,True) (52,True)	-0.6427097
-1.1588018	(61,True) (52,True)	-0.21674097
-1.7891809	(60,True) (50,True)	-0.3416797
-1.7019662	(57,True) (50,True)	-0.21280245
-1.7588336	(59,False) (50,True)	-0.2069609
-1.4886467	(62,True) (50,True)	-0.8188009
-1.7384337	(59,True) (50,True)	-0.3416797
-1.6806525	(55,False) (50,True)	-0.46778375
-1.0561146	(55,True) (50,True)	-0.61468095
-1.6748852	(65,True) (50,True)	-0.46778375
-1.2991631	(53,True) (50,True)	-0.6938622
-1.5444132	(52,True) (50,True)	-0.44673255
-1.132982	(56,True) (50,True)	-0.6913965
-1.797121	<s> (79,False)	-0.44673255
-1.997398	||| (79,False)	-0.25595403
-1.6605904	||| (79,True)	-0.5144864
-1.5540351	(64,False) (56,False)	-0.45961833
-1.8423254	(64,True) (56,False)	-0.2069609
-2.0045412	(60,True) (56,False)	-0.2069609
-1.8649764	(62,False) (56,False)	-0.2069609
-1.2572598	(59,False) (56,False)	-0.31838238
-1.8097129	(59,True) (56,False)	-0.2069609
-1.662966	(71,False) (56,False)	-0.2069609
-2.704639	<s> (74,False)	-0.2069609
-1.8598757	||| (74,False)	-0.5846436
-1.8114918	(67,False) (74,False)	-0.2069609
-1.2419332	(79,False) (74,False)	-0.2069609
-1.5726457	(76,True) (74,False)	-0.2069609
-0.3192652	(83,False) (74,False)	-0.2069609
-0.77967626	<s> (76,False)	-0.82507706
-1.7126337	(60,False) (76,False)	-0.46778375
-1.6418167	||| (76,False)	-0.6720796
-1.6696999	(72,False) (76,False)	-0.2069609
-1.0326067	(79,False) (76,False)	-0.21674097
-1.2799276	(79,True) (76,False)	-0.2069609
-0.3185667	(84,False) (76,False)	-0.2069609
-1.2864366	||| (76,True)	-1.067977
-2.0334523	(60,True) (76,True)	-0.3416797
-1.8869311	(62,False) (76,True)	-0.2069609
-1.7515719	(72,True) (76,True)	-0.21674097
-1.28636	(79,True) (76,True)	-0.45731324
-0.3192652	(84,True) (76,True)	-0.4385897
-2.7830493	<s> (77,False)	-0.2069609
-2.1460195	||| (77,False)	-0.30060455
-1.8826777	||| (77,True)	-0.5153052
-1.9194332	(60,False) (56,True)	-0.2069609
-1.7066501	(64,True) (56,True)	-0.5635285
-1.910055	(62,False) (56,True)	-0.2069609
-1.5450712	(62,True) (56,True)	-0.36248344
-1.4919165	(59,True) (56,True)	-0.45393372
-1.9132942	(59,False) (44,False)	-0.2069609
-1.6799939	(52,False) (44,False)	-0.58471775
-1.7024856	(59,True) (44,True)	-0.46778375
-1.8349694	(52,True) (44,True)	-0.94373965
-1.575649	(55,False) (40,False)	-0.3416797
-1.6799939	(52,False) (40,False)	-0.2069609
-1.3503643	(55,True) (40,True)	-0.58471775
-1.8349694	(52,True) (40,True)	-0.2069609
-1.6116482	(57,False) (41,False)	-0.46778375
-1.9621799	(57,True) (41,False)	-0.2069609
-1.93097	(55,True) (41,False)	-0.2069609
-1.5787896	(53,False) (41,False)	-0.2069609
-1.7947528	(52,True) (41,False)	-0.2069609
-1.475743	||| (74,True)	-0.8188009
-2.0535953	(67,True) (74,True)	-0.2069609
-1.3062491	(79,True) (74,True)	-0.2069609
-2.7773485	<s> (36,False)	-0.2069609
-1.5582856	(48,False) (36,False)	-0.2069609
-1.4685993	(52,False) (36,False)	-0.51777095
-2.5338948	||| (36,True)	-0.21674097
-1.849068	(48,True) (36,True)	-0.2069609
-1.6303446	(52,True) (36,True)	-0.88574773
-1.7823361	(55,False) (46,False)	-0.2069609
-1.98162	(55,True) (46,False)	-0.2069609
-1.3877308	(53,False) (38,False)	-0.46778375
-1.5298299	(53,True) (38,True)	-0.46778375
-1.7772404	(60,True) (58,False)	-0.2069609
-1.8096367	(65,True) (58,False)	-0.2069609
-2.7077413	||| (63,False)	-0.2069609
-1.2629664	(66,False) (63,False)	-0.2069609
-1.9421479	(60,False) (54,False)	-0.2069609
-1.928581	(60,True) (54,False)	-0.2069609
-1.9859117	(57,True) (54,False)	-0.2069609
-1.8720809	(59,True) (54,False)	-0.2069609
-2.542226	||| (63,True)	-0.2069609
-1.2133304	(66,True) (63,True)	-0.21674097
-1.9057122	(60,True) (54,True)	-0.2069609
-1.9621799	(57,True) (54,True)	-0.2069609
-1.8659605	(59,False) (54,True)	-0.2069609
-1.8502812	(59,True) (54,True)	-0.2069609
-0.7909216	(63,True) (54,True)	-0.2069609
-1.70581	(69,True) (66,True)	-0.3111852
-1.7349916	(71,False) (66,True)	-0.2069609
-1.4030533	(71,True) (66,True)	-0.24885151
-1.6177548	(69,False) (61,False)	-0.2069609
-1.9813033	(64,False) (61,False)	-0.2069609
-1.7093232	(69,True) (61,True)	-0.30060455
-2.1106985	(64,True) (61,True)	-0.30223465
-2.7830493	<s> (81,False)	-0.2069609
-2.7077413	||| (81,False)	-0.46778375
-2.3609936	||| (81,True)	-0.3111852
-1.8015975	(57,False) (43,False)	-0.2069609
-1.6839479	(59,False) (43,False)	-0.46778375
-1.7524962	(55,False) (43,False)	-0.2069609
-1.4498607	(47,True) (43,False)	-0.2069609
-0.9128107	(58,False) (43,False)	-0.2069609
-1.9621799	(57,True) (43,True)	-0.2069609
-1.4919165	(59,True) (43,True)	-0.36248344
-1.93097	(55,True) (43,True)	-0.2069609
-1.5787896	(53,False) (43,True)	-0.2069609
-1.4498607	(47,True) (43,True)	-0.2069609
-2.1420734	(60,True) (58,True)	-0.2069609
-1.8096367	(65,True) (58,True)	-0.2069609
-2.0165992	(57,True) (41,True)	-0.2069609
-1.533582	(53,True) (41,True)	-0.46778375
-1.8057641	(72,True) (70,False)	-0.2069609
-1.8057641	(72,True) (70,True)	-0.2069609
-1.9699724	(55,True) (46,True)	-0.46778375
-2.1566234	<s> (.)	-0.46778375
-2.542226	||| (.)	-0.51777095
-2.6806846	||| (75,False)	-0.3416797
-2.1384277	||| (75,True)	-0.6427097
-1.8458076	(48,True) (33,False)	-0.2069609
-1.8516587	(48,True) (33,True)	-0.2069609
-1.6334816	(50,False) (33,True)	-0.2069609
-2.7702308	<s> (84,False)	-0.2069609
-2.3609936	||| (84,True)	-0.4385897
-2.6806846	||| (83,False)	-0.2069609
-1.9813033	(64,False) (49,False)	-0.2069609
-1.838714	(57,False) (49,False)	-0.2069609
-2.1106985	(64,True) (49,True)	-0.21674097
-2.0165992	(57,True) (49,True)	-0.21674097

\3-grams:
-1.8776189	||| (69,False) </s>
-1.9470112	(72,False) (69,False) </s>
-2.1680539	(67,False) (64,False) </s>
-2.4316618	(64,False) (60,False) </s>
-0.3985954	(67,True) (57,False) </s>
-1.6296175	(60,False) ||| </s>
-1.4106597	(57,False) ||| </s>
-1.1538919	(60,True) ||| </s>
-0.8235009	(57,True) ||| </s>
-0.6941386	(62,False) ||| </s>
-1.1818879	(59,False) ||| </s>
-0.93829155	(59,True) ||| </s>
-0.8584549	(67,False) ||| </s>
-0.8988234	(55,False) ||| </s>
-0.5438473	(55,True) ||| </s>
-1.0234716	(53,False) ||| </s>
-0.62630534	(53,True) ||| </s>
-1.5330969	(45,False) ||| </s>
-1.3844057	(45,True) ||| </s>
-0.6249216	(47,False) ||| </s>
-0.99343616	(47,True) ||| </s>
-1.9040306	(48,False) ||| </s>
-1.0650122	(48,True) ||| </s>
-0.62202275	(50,False) ||| </s>
-1.1730049	(52,False) ||| </s>
-0.6849098	(52,True) ||| </s>
-0.9226955	(50,True) ||| </s>
-0.55417955	(56,False) ||| </s>
-0.53338	(56,True) ||| </s>
-0.70232636	(44,True) ||| </s>
-0.3876514	(41,False) ||| </s>
-0.608961	(46,False) ||| </s>
-0.5721533	(43,True) ||| </s>
-0.7378346	(41,True) ||| </s>
-0.608961	(46,True) ||| </s>
-2.2149072	||| (69,True) </s>
-1.4038078	(72,True) (69,True) </s>
-0.3703692	(48,True) (69,True) </s>
-0.9414102	(77,True) (69,True) </s>
-2.2698648	||| (64,True) </s>
-1.8460037	(69,True) (64,True) </s>
-1.6321228	(71,True) (64,True) </s>
-2.09198	(67,True) (64,True) </s>
-2.0835636	||| (60,True) </s>
-2.274721	(64,True) (60,True) </s>
-2.101502	(67,True) (60,True) </s>
-1.5924144	(65,True) (60,True) </s>
-1.7912014	(64,True) (57,True) </s>
-2.0900893	(60,True) (57,True) </s>
-0.84066576	(72,True) (57,True) </s>
-1.1677938	(69,True) (62,True) </s>
-1.3457919	(64,True) (62,True) </s>
-1.8702773	(67,True) (62,True) </s>
-1.7447165	(62,True) (59,True) </s>
-1.3628988	(67,True) (59,True) </s>
-0.37692416	(69,True) (71,True) </s>
-0.37692416	(77,True) (71,True) </s>
-1.1312532	(71,True) (68,True) </s>
-1.2626431	(76,True) (68,True) </s>
-2.016163	||| (72,False) </s>
-0.3979069	(76,True) (67,False) </s>
-2.3100648	||| (72,True) </s>
-2.121114	||| (67,True) </s>
-0.8902523	(69,True) (67,True) </s>
-0.88830984	(64,True) (67,True) </s>
-2.3509085	(72,True) (67,True) </s>
-2.1449983	(60,True) (55,True) </s>
-1.499522	(59,True) (55,True) </s>
-0.3913239	(67,False) (55,True) </s>
-1.2607485	||| (65,False) </s>
-1.4482795	(69,True) (65,True) </s>
-1.3453368	(72,True) (65,True) </s>
-0.3566621	(60,False) (53,True) </s>
-0.77246386	(57,False) (53,True) </s>
-1.0450131	(60,True) (53,True) </s>
-1.4042128	(57,True) (53,True) </s>
-0.64592904	(57,True) (45,False) </s>
-1.6831414	(48,True) (45,True) </s>
-1.4555241	(50,True) (47,True) </s>
-1.6359617	(64,True) (48,True) </s>
-2.0186143	(60,True) (48,True) </s>
-0.38844848	(54,True) (48,True) </s>
-1.3370194	(60,True) (52,True) </s>
-1.7731538	(57,True) (52,True) </s>
-1.70196	(55,True) (52,True) </s>
-0.9400109	(57,True) (50,True) </s>
-0.6753824	(52,True) (50,True) </s>
-1.4820569	||| (79,True) </s>
-1.1534435	||| (74,False) </s>
-2.0278473	||| (76,True) </s>
-1.331011	(59,True) (56,True) </s>
-1.0920873	(64,True) (61,True) </s>
-0.7725904	(59,True) (43,True) </s>
-0.45209706	(72,True) (70,True) </s>
-0.409194	(76,True) (64,False) (69,False)
-0.8516128	(64,True) ||| (69,False)
-1.4759859	(57,True) ||| (69,False)
-1.7848382	(59,False) ||| (69,False)
-1.1985731	(62,True) ||| (69,False)
-1.5261759	(59,True) ||| (69,False)
-0.65193665	(55,True) ||| (69,False)
-1.0984269	(45,True) ||| (69,False)
-0.89160836	(47,True) ||| (69,False)
-1.9453194	(48,True) ||| (69,False)
-1.7835696	(52,True) ||| (69,False)
-1.4765848	(50,True) ||| (69,False)
-0.6314938	(49,True) ||| (69,False)
-1.2095611	<s> (72,False) (69,False)
-0.33224803	||| (72,False) (69,False)
-0.3405292	(74,False) (72,False) (69,False)
-0.5385889	(76,False) (72,False) (69,False)
-0.43081445	(77,False) (72,False) (69,False)
-2.3768537	||| (72,True) (69,False)
-1.7694228	(60,False) (48,False) (69,False)
-1.1373433	||| (79,False) (69,False)
-1.299192	||| (79,True) (69,False)
-0.38203248	<s> (74,False) (69,False)
-0.62063515	<s> (76,False) (69,False)
-0.66364026	||| (76,False) (69,False)
-2.1274712	||| (76,True) (69,False)
-0.7681661	||| (77,False) (69,False)
-0.27361572	<s> (81,False) (69,False)
-0.063346505	<s> (69,False) (64,False)
-0.30254555	||| (69,False) (64,False)
-0.2602319	(72,False) (69,False) (64,False)
-0.33578387	(79,False) (69,False) (64,False)
-0.9416703	(76,False) (69,False) (64,False)
-0.33578387	(81,False) (69,False) (64,False)
-1.1173948	(72,False) (60,False) (64,False)
-2.0595188	(67,False) (60,False) (64,False)
-2.4002059	(57,True) ||| (64,False)
-1.4390274	(45,True) ||| (64,False)
-0.7663953	(47,True) ||| (64,False)
-1.4455541	(48,True) ||| (64,False)
-1.3338119	(50,True) ||| (64,False)
-1.1006792	(44,True) ||| (64,False)
-1.0905218	(36,True) ||| (64,False)
-0.6879296	(38,True) ||| (64,False)
-1.1166706	(43,True) ||| (64,False)
-2.203362	||| (69,True) (64,False)
-1.0423014	(77,True) (69,True) (64,False)
-2.3769336	(67,True) (60,True) (64,False)
-0.57360315	<s> (71,False) (64,False)
-1.0911064	||| (71,False) (64,False)
-1.0121228	(74,False) (71,False) (64,False)
-0.14807753	(76,False) (71,False) (64,False)
-0.48923492	(71,False) (68,False) (64,False)
-0.32910907	(72,False) (68,False) (64,False)
-1.7735263	||| (71,True) (64,False)
-1.0906823	(74,True) (71,True) (64,False)
-0.7284403	<s> (72,False) (64,False)
-1.1115282	||| (72,False) (64,False)
-0.23552603	(79,False) (72,False) (64,False)
-1.5616658	(76,False) (72,False) (64,False)
-0.3280084	(76,True) (72,False) (64,False)
-0.25104967	<s> (67,False) (64,False)
-0.3307809	(69,False) (67,False) (64,False)
-0.4775623	||| (67,False) (64,False)
-0.55696034	(69,True) (67,False) (64,False)
-0.19766727	(72,False) (67,False) (64,False)
-0.55696034	(48,False) (67,False) (64,False)
-1.0807337	(74,False) (67,False) (64,False)
-2.617622	||| (72,True) (64,False)
-0.4667676	(81,True) (72,True) (64,False)
-1.8630148	||| (67,True) (64,False)
-1.5291144	(69,True) (65,True) (64,False)
-1.3362745	||| (76,False) (64,False)
-2.3514018	||| (76,True) (64,False)
-1.5565772	<s> (69,False) (60,False)
-1.098308	||| (69,False) (60,False)
-0.1372168	(76,False) (69,False) (60,False)
-0.79891056	(77,False) (69,False) (60,False)
-0.17330438	<s> (64,False) (60,False)
-0.2158411	(69,False) (64,False) (60,False)
-0.205613	||| (64,False) (60,False)
-0.312653	(69,True) (64,False) (60,False)
-0.4593504	(72,False) (64,False) (60,False)
-0.17745633	(67,False) (64,False) (60,False)
-0.76060176	(72,True) (64,False) (60,False)
-2.0841396	(45,True) ||| (60,False)
-1.5080531	(47,True) ||| (60,False)
-1.7376724	(48,True) ||| (60,False)
-1.5982069	(36,True) ||| (60,False)
-0.7038887	(38,True) ||| (60,False)
-2.644038	(69,True) (64,True) (60,False)
-1.4896619	(69,True) (62,False) (60,False)
-1.6570177	(65,True) (62,True) (60,False)
-1.5717574	(76,True) (71,True) (60,False)
-1.9349968	<s> (72,False) (60,False)
-1.5921359	||| (72,False) (60,False)
-1.6579945	(76,False) (72,False) (60,False)
-0.8240092	(77,False) (72,False) (60,False)
-0.67191917	<s> (67,False) (60,False)
-0.70278925	(64,False) (67,False) (60,False)
-0.48436385	||| (67,False) (60,False)
-0.5321518	(72,False) (67,False) (60,False)
-0.5826478	(48,False) (67,False) (60,False)
-0.15137792	(76,False) (67,False) (60,False)
-2.3114724	||| (67,True) (60,False)
-1.475662	(71,True) (67,True) (60,False)
-1.2834736	(74,True) (67,True) (60,False)
-0.6585014	<s> (65,False) (60,False)
-0.64328015	(69,False) (65,False) (60,False)
-0.8145644	||| (65,False) (60,False)
-0.96018755	(71,True) (65,True) (60,False)
-0.39449802	(72,False) (76,False) (60,False)
-0.27283496	||| (63,False) (60,False)
-0.6803438	(72,False) (69,False) (57,False)
-1.3596032	<s> (64,False) (57,False)
-0.5182746	(69,False) (64,False) (57,False)
-0.609538	(60,False) (64,False) (57,False)
-1.1562947	||| (64,False) (57,False)
-0.7302051	(72,False) (64,False) (57,False)
-0.609538	(76,False) (64,False) (57,False)
-1.5208367	<s> (60,False) (57,False)
-0.25631723	(69,False) (60,False) (57,False)
-0.44063956	(64,False) (60,False) (57,False)
-0.4048058	||| (60,False) (57,False)
-0.53838134	(72,False) (60,False) (57,False)
-1.4427922	(67,False) (60,False) (57,False)
-0.49940515	(67,True) (60,False) (57,False)
-0.76186514	(65,False) (60,False) (57,False)
-1.544856	(47,True) ||| (57,False)
-2.4871924	||| (64,True) (57,False)
-2.045044	(72,True) (64,True) (57,False)
-1.834099	||| (60,True) (57,False)
-2.6759126	(64,True) (60,True) (57,False)
-1.9459449	(67,True) (60,True) (57,False)
-0.1687654	<s> (62,False) (57,False)
-1.038169	(69,False) (62,False) (57,False)
-1.2224656	(67,True) (62,False) (57,False)
-1.1081378	(65,False) (62,False) (57,False)
-1.1917093	(69,True) (62,True) (57,False)
-1.9010417	(76,False) (72,False) (57,False)
-0.6987688	(72,False) (67,True) (57,False)
-0.657624	<s> (65,False) (57,False)
-1.5592878	(69,False) (65,False) (57,False)
-0.8308104	(72,False) (65,False) (57,False)
-1.8478698	(69,True) (65,True) (57,False)
-0.9365636	(71,False) (66,False) (57,False)
-0.85788935	(71,True) (66,True) (57,False)
-0.56750214	(64,False) (61,False) (57,False)
-0.3794111	(60,True) (64,False) |||
-1.7598786	(67,False) (64,False) |||
-0.36612022	(65,True) (64,False) |||
-1.343661	(69,False) (60,False) |||
-0.52345055	(64,False) (60,False) |||
-0.3326272	(64,True) (60,False) |||
-0.3326272	(62,True) (60,False) |||
-0.41146725	(67,False) (60,False) |||
-0.755692	(65,False) (60,False) |||
-0.3326272	(76,False) (60,False) |||
-0.96307	<s> (57,False) |||
-0.039118707	(69,False) (57,False) |||
-0.13407877	(64,False) (57,False) |||
-0.1760606	(60,False) (57,False) |||
-0.591339	(60,True) (57,False) |||
-0.67863137	(62,False) (57,False) |||
-0.25219345	(72,False) (57,False) |||
-0.5977708	(65,False) (57,False) |||
-0.25219345	(66,False) (57,False) |||
-0.24464577	(66,True) (57,False) |||
-0.25219345	(61,False) (57,False) |||
-2.1626432	(67,True) (64,True) |||
-0.15623024	(69,False) (60,True) |||
-1.6137229	(69,True) (60,True) |||
-0.5189251	(64,True) (60,True) |||
-0.34760177	(59,False) (60,True) |||
-0.34760177	(59,True) (60,True) |||
-0.45681265	(67,True) (60,True) |||
-1.3712379	(65,True) (60,True) |||
-0.33590066	(76,True) (60,True) |||
-0.35835195	(64,False) (57,True) |||
-0.23192067	(60,False) (57,True) |||
-1.173934	||| (57,True) |||
-0.019692454	(69,True) (57,True) |||
-0.18946324	(64,True) (57,True) |||
-0.18034503	(60,True) (57,True) |||
-0.20947477	(62,False) (57,True) |||
-0.100659646	(59,False) (57,True) |||
-0.5783799	(62,True) (57,True) |||
-0.12392822	(59,True) (57,True) |||
-0.12392822	(67,False) (57,True) |||
-0.23819233	(72,True) (57,True) |||
-0.12392822	(67,True) (57,True) |||
-0.12392822	(65,False) (57,True) |||
-0.40883547	(65,True) (57,True) |||
-0.23895814	(56,False) (57,True) |||
-0.11470289	(66,True) (57,True) |||
-0.23895814	(61,True) (57,True) |||
-1.0669794	(64,True) (62,False) |||
-0.7626311	(65,False) (62,False) |||
-0.6405622	(66,False) (62,False) |||
-0.48326486	(69,True) (59,False) |||
-0.2063867	(64,True) (59,False) |||
-0.17061663	(60,True) (59,False) |||
-0.2854724	(62,False) (59,False) |||
-0.4249277	(67,False) (59,False) |||
-0.25795084	(67,True) (59,False) |||
-0.28551212	(65,True) (59,False) |||
-0.28551212	(45,True) (59,False) |||
-0.27661207	(66,False) (59,False) |||
-0.28551212	(63,False) (59,False) |||
-0.86216366	(65,True) (62,True) |||
-0.63981193	(66,True) (62,True) |||
-0.30625293	(60,False) (59,True) |||
-0.6174316	(69,True) (59,True) |||
-0.7885179	(64,True) (59,True) |||
-0.15293728	(60,True) (59,True) |||
-0.22873996	(62,True) (59,True) |||
-0.430302	(67,True) (59,True) |||
-0.2964594	(63,True) (59,True) |||
-0.2964594	(66,True) (59,True) |||
-1.9291799	||| (72,False) |||
-0.7717465	(64,False) (67,False) |||
-1.3291124	||| (67,False) |||
-1.2723486	(74,False) (67,False) |||
-2.271199	||| (72,True) |||
-1.920043	||| (67,True) |||
-0.9042281	(64,True) (67,True) |||
-0.64135575	(64,False) (55,False) |||
-0.21311384	(64,True) (55,False) |||
-0.13756241	(60,True) (55,False) |||
-0.3441605	(57,True) (55,False) |||
-0.3545049	(62,False) (55,False) |||
-0.26738697	(59,False) (55,False) |||
-0.21942526	(59,True) (55,False) |||
-0.5270959	(67,False) (55,False) |||
-0.21942526	(65,False) (55,False) |||
-0.21942526	(45,True) (55,False) |||
-0.21942526	(61,False) (55,False) |||
-0.21942526	(61,True) (55,False) |||
-0.6256218	(64,True) (55,True) |||
-1.2891089	(60,True) (55,True) |||
-0.4178603	(57,True) (55,True) |||
-0.4448473	(62,True) (55,True) |||
-0.388151	(59,True) (55,True) |||
-0.6480608	(67,True) (55,True) |||
-0.32373816	(45,True) (55,True) |||
-0.31315905	(61,True) (55,True) |||
-0.79447865	(69,False) (65,False) |||
-0.22603168	(69,False) (53,False) |||
-0.06995231	(60,False) (53,False) |||
-0.16949172	(57,False) (53,False) |||
-0.45106438	(60,True) (53,False) |||
-0.557889	(62,False) (53,False) |||
-0.10933018	(59,False) (53,False) |||
-0.22913222	(59,True) (53,False) |||
-0.09601951	(65,False) (53,False) |||
-0.87345254	(69,True) (65,True) |||
-0.09998841	(64,False) (53,True) |||
-0.21355823	(57,False) (53,True) |||
-0.19831057	(69,True) (53,True) |||
-0.15065305	(60,True) (53,True) |||
-0.1341406	(57,True) (53,True) |||
-0.20407294	(62,False) (53,True) |||
-0.32016614	(59,False) (53,True) |||
-0.6489086	(62,True) (53,True) |||
-0.19831057	(59,True) (53,True) |||
-0.20407294	(55,False) (53,True) |||
-0.6330032	(55,True) (53,True) |||
-0.050597817	(65,True) (53,True) |||
-0.075008556	(69,False) (45,False) |||
-0.07318918	(64,False) (45,False) |||
-0.0070241997	(60,False) (45,False) |||
-0.008501961	(57,False) (45,False) |||
-0.18585831	(57,True) (45,False) |||
-0.075008556	(55,False) (45,False) |||
-0.017173743	(48,False) (45,False) |||
-0.018769156	(52,False) (45,False) |||
-0.075008556	(54,False) (45,False) |||
-0.075879	(60,False) (45,True) |||
-0.074036695	(69,True) (45,True) |||
-0.05431105	(64,True) (45,True) |||
-0.011756131	(60,True) (45,True) |||
-0.003597477	(57,True) (45,True) |||
-0.074036695	(62,False) (45,True) |||
-0.035442546	(59,False) (45,True) |||
-0.074036695	(62,True) (45,True) |||
-0.035442546	(59,True) (45,True) |||
-0.075879	(55,False) (45,True) |||
-0.075879	(55,True) (45,True) |||
-0.075879	(53,False) (45,True) |||
-0.075879	(48,False) (45,True) |||
-0.020401757	(48,True) (45,True) |||
-0.009834765	(52,True) (45,True) |||
-0.18698217	(54,True) (45,True) |||
-0.05431105	(61,True) (45,True) |||
-0.03370306	(64,True) (47,False) |||
-0.019906411	(60,True) (47,False) |||
-0.03370306	(57,True) (47,False) |||
-0.019906411	(62,False) (47,False) |||
-0.019906411	(59,False) (47,False) |||
-0.034501944	(62,True) (47,False) |||
-0.025028937	(55,False) (47,False) |||
-0.03370306	(55,True) (47,False) |||
-0.034501944	(48,True) (47,False) |||
-0.007548704	(50,False) (47,False) |||
-0.025028937	(52,True) (47,False) |||
-0.034501944	(56,False) (47,False) |||
-0.034501944	(54,False) (47,False) |||
-0.09586522	(64,True) (47,True) |||
-0.09348313	(60,True) (47,True) |||
-0.09586522	(57,True) (47,True) |||
-0.044231076	(62,True) (47,True) |||
-0.0681593	(59,True) (47,True) |||
-0.07456052	(55,True) (47,True) |||
-0.09586522	(48,True) (47,True) |||
-0.049948435	(52,True) (47,True) |||
-0.03749993	(50,True) (47,True) |||
-0.049948435	(56,True) (47,True) |||
-0.049948435	(54,True) (47,True) |||
-0.16616084	<s> (48,False) |||
-0.026039558	(64,False) (48,False) |||
-0.027034627	(60,False) (48,False) |||
-0.05816351	(57,False) (48,False) |||
-0.2272188	(60,True) (48,False) |||
-0.06208853	(67,False) (48,False) |||
-0.025115158	(55,False) (48,False) |||
-0.16616084	(53,False) (48,False) |||
-0.10698303	(52,False) (48,False) |||
-0.16616084	(52,True) (48,False) |||
-0.15002982	(64,False) (48,True) |||
-0.15002982	(57,False) (48,True) |||
-0.15002982	||| (48,True) |||
-0.030891865	(64,True) (48,True) |||
-0.022042617	(60,True) (48,True) |||
-0.06382935	(57,True) (48,True) |||
-0.08163355	(62,False) (48,True) |||
-0.15002982	(59,False) (48,True) |||
-0.104687266	(62,True) (48,True) |||
-0.022459166	(67,True) (48,True) |||
-0.15002982	(55,False) (48,True) |||
-0.017721793	(55,True) (48,True) |||
-0.14605752	(65,False) (48,True) |||
-0.04919686	(53,False) (48,True) |||
-0.14605752	(65,True) (48,True) |||
-0.043447122	(53,True) (48,True) |||
-0.15002982	(52,False) (48,True) |||
-0.10575026	(52,True) (48,True) |||
-0.15002982	(56,False) (48,True) |||
-0.2853688	(54,False) (48,True) |||
-0.10735555	(60,False) (50,False) |||
-0.05558058	(57,False) (50,False) |||
-0.041805156	(60,True) (50,False) |||
-0.16122831	(57,True) (50,False) |||
-0.028835736	(62,False) (50,False) |||
-0.05558058	(59,False) (50,False) |||
-0.05558058	(62,True) (50,False) |||
-0.10735555	(59,True) (50,False) |||
-0.10735555	(67,True) (50,False) |||
-0.12182978	(55,True) (50,False) |||
-0.05558058	(65,False) (50,False) |||
-0.036354084	(53,False) (50,False) |||
-0.4349445	(52,True) (50,False) |||
-0.19321482	(56,False) (50,False) |||
-0.05558058	(56,True) (50,False) |||
-0.11144664	(64,False) (52,False) |||
-0.20261335	(60,False) (52,False) |||
-0.1965283	(60,True) (52,False) |||
-0.35019422	(57,True) (52,False) |||
-0.1965283	(62,False) (52,False) |||
-0.24430203	(59,False) (52,False) |||
-0.09671597	(62,True) (52,False) |||
-0.09671597	(67,False) (52,False) |||
-0.4587221	(55,False) (52,False) |||
-0.1965283	(53,True) (52,False) |||
-0.13483986	(56,False) (52,False) |||
-0.2641791	(60,False) (52,True) |||
-0.2641791	(57,False) (52,True) |||
-0.111229755	(64,True) (52,True) |||
-0.24691173	(60,True) (52,True) |||
-0.24741672	(62,False) (52,True) |||
-0.24741672	(59,False) (52,True) |||
-0.22990538	(59,True) (52,True) |||
-0.2561564	(67,True) (52,True) |||
-0.5881493	(55,True) (52,True) |||
-0.07940205	(56,True) (52,True) |||
-0.10189774	(60,True) (50,True) |||
-0.24643013	(57,True) (50,True) |||
-0.145814	(59,False) (50,True) |||
-0.031382464	(62,True) (50,True) |||
-0.10189774	(59,True) (50,True) |||
-0.07387943	(55,False) (50,True) |||
-0.26502883	(55,True) (50,True) |||
-0.07387943	(65,True) (50,True) |||
-0.04236828	(53,True) (50,True) |||
-0.058025587	(56,True) (50,True) |||
-0.24227704	(64,False) (56,False) |||
-0.41679728	(64,True) (56,False) |||
-0.40697438	(59,False) (56,False) |||
-0.24219342	(59,True) (56,False) |||
-0.24219342	(71,False) (56,False) |||
-1.7618787	<s> (76,False) |||
-2.1440952	||| (76,True) |||
-0.32662395	(60,False) (56,True) |||
-0.34722212	(64,True) (56,True) |||
-0.60042655	(59,True) (56,True) |||
-0.18359107	(59,False) (44,False) |||
-0.06775899	(52,False) (44,False) |||
-0.091029495	(59,True) (44,True) |||
-0.028353449	(52,True) (44,True) |||
-0.12656476	(55,False) (40,False) |||
-0.18359107	(52,False) (40,False) |||
-0.06775899	(55,True) (40,True) |||
-0.18359107	(52,True) (40,True) |||
-0.050079055	(57,False) (41,False) |||
-0.09612999	(57,True) (41,False) |||
-0.09612999	(55,True) (41,False) |||
-0.09612999	(53,False) (41,False) |||
-0.09612999	(52,True) (41,False) |||
-0.17453259	<s> (36,False) |||
-0.17453259	(48,False) (36,False) |||
-0.0766438	(52,False) (36,False) |||
-0.1697753	||| (36,True) |||
-0.17453259	(48,True) (36,True) |||
-0.031207	(52,True) (36,True) |||
-0.18359107	(55,False) (46,False) |||
-0.18359107	(55,True) (46,False) |||
-0.07759853	(53,False) (38,False) |||
-0.07759853	(53,True) (38,True) |||
-0.64272904	(60,True) (58,False) |||
-0.33037886	(59,True) (54,False) |||
-0.3385345	(59,True) (54,True) |||
-0.5363594	(64,False) (61,False) |||
-0.7340876	(64,True) (61,True) |||
-0.09612999	(57,False) (43,False) |||
-0.050079055	(59,False) (43,False) |||
-0.09612999	(55,False) (43,False) |||
-0.09612999	(47,True) (43,False) |||
-0.09612999	(58,False) (43,False) |||
-0.13333999	(57,True) (43,True) |||
-0.16187681	(59,True) (43,True) |||
-0.13333999	(55,True) (43,True) |||
-0.13333999	(53,False) (43,True) |||
-0.13333999	(47,True) (43,True) |||
-0.25637916	(60,True) (58,True) |||
-0.18359107	(57,True) (41,True) |||
-0.091029495	(53,True) (41,True) |||
-0.07759853	(55,True) (46,True) |||
-0.15385582	(48,True) (33,False) |||
-0.18359107	(48,True) (33,True) |||
-0.18359107	(50,False) (33,True) |||
-0.18359107	(64,False) (49,False) |||
-0.18359107	(57,False) (49,False) |||
-0.17853256	(64,True) (49,True) |||
-0.17853256	(57,True) (49,True) |||
-1.155094	(60,False) ||| (69,True)
-0.51885104	(57,False) ||| (69,True)
-1.4168962	(60,True) ||| (69,True)
-0.70706314	(57,True) ||| (69,True)
-1.1235306	(62,False) ||| (69,True)
-1.0200881	(59,False) ||| (69,True)
-1.0969198	(62,True) ||| (69,True)
-1.4013814	(59,True) ||| (69,True)
-0.75272226	(55,False) ||| (69,True)
-0.39745277	(53,False) ||| (69,True)
-0.4971006	(53,True) ||| (69,True)
-0.5039649	(45,False) ||| (69,True)
-0.664252	(45,True) ||| (69,True)
-0.77352065	(47,False) ||| (69,True)
-1.1877378	(48,False) ||| (69,True)
-1.3497866	(48,True) ||| (69,True)
-0.75692433	(50,False) ||| (69,True)
-0.8288079	(50,True) ||| (69,True)
-0.37551355	(61,False) ||| (69,True)
-0.16588028	(61,True) ||| (69,True)
-0.97756225	(43,False) ||| (69,True)
-1.0045283	(43,True) ||| (69,True)
-0.16588028	(49,False) ||| (69,True)
-0.40736637	(49,True) ||| (69,True)
-2.1148536	||| (72,False) (69,True)
-0.6292634	||| (72,True) (69,True)
-0.59815717	(76,True) (72,True) (69,True)
-0.22873096	(77,True) (72,True) (69,True)
-2.115821	(60,True) (48,True) (69,True)
-1.1400788	||| (79,False) (69,True)
-1.5565165	||| (79,True) (69,True)
-0.64322567	||| (76,True) (69,True)
-0.7348361	||| (77,False) (69,True)
-0.62409294	||| (77,True) (69,True)
-1.3134494	||| (74,True) (69,True)
-0.7073219	||| (81,True) (69,True)
-0.39771912	<s> (.) (69,True)
-0.38610145	||| (.) (69,True)
-1.8768396	||| (69,False) (64,True)
-0.6599774	(72,True) (69,False) (64,True)
-0.807967	(76,True) (69,False) (64,True)
-1.3631141	(57,False) ||| (64,True)
-1.6891232	(57,True) ||| (64,True)
-0.83689797	(55,False) ||| (64,True)
-1.3133507	(55,True) ||| (64,True)
-0.5583006	(45,False) ||| (64,True)
-0.62532634	(45,True) ||| (64,True)
-1.3521014	(47,False) ||| (64,True)
-0.7186331	(48,False) ||| (64,True)
-1.0363104	(48,True) ||| (64,True)
-1.1100943	(50,False) ||| (64,True)
-1.1085439	(52,False) ||| (64,True)
-1.2633151	(52,True) ||| (64,True)
-1.2395093	(50,True) ||| (64,True)
-0.104195915	(44,False) ||| (64,True)
-0.27978134	(44,True) ||| (64,True)
-0.5394402	(40,False) ||| (64,True)
-0.7308844	(40,True) ||| (64,True)
-1.1168119	(36,False) ||| (64,True)
-1.3881798	(36,True) ||| (64,True)
-0.64076596	(46,False) ||| (64,True)
-0.9900193	(43,False) ||| (64,True)
-0.64076596	(46,True) ||| (64,True)
-0.16513278	||| (69,True) (64,True)
-0.32384968	(72,False) (69,True) (64,True)
-0.29830268	(72,True) (69,True) (64,True)
-0.32384968	(79,False) (69,True) (64,True)
-0.32384968	(79,True) (69,True) (64,True)
-1.0288965	(76,True) (69,True) (64,True)
-0.32384968	(81,True) (69,True) (64,True)
-0.092969745	(.) (69,True) (64,True)
-0.8486538	(72,True) (60,True) (64,True)
-2.3349206	(67,True) (60,True) (64,True)
-0.72549134	||| (71,False) (64,True)
-0.38313493	(69,True) (71,False) (64,True)
-1.1065	(74,False) (71,False) (64,True)
-0.8781328	(71,False) (68,False) (64,True)
-0.45495152	||| (71,True) (64,True)
-0.15000269	(76,True) (71,True) (64,True)
-0.643421	(74,True) (71,True) (64,True)
-0.16261266	(71,True) (68,True) (64,True)
-0.3398196	(72,True) (68,True) (64,True)
-0.6818863	(69,True) (67,False) (64,True)
-1.1058011	(72,True) (67,False) (64,True)
-0.9341167	||| (72,True) (64,True)
-0.35252163	(67,False) (72,True) (64,True)
-0.35252163	(67,True) (72,True) (64,True)
-0.15242106	(79,True) (72,True) (64,True)
-1.3864354	(76,True) (72,True) (64,True)
-0.3612352	(69,False) (67,True) (64,True)
-0.3838385	||| (67,True) (64,True)
-0.45600802	(69,True) (67,True) (64,True)
-0.60952663	(72,False) (67,True) (64,True)
-0.20197399	(72,True) (67,True) (64,True)
-0.59855443	(48,True) (67,True) (64,True)
-1.388443	(74,True) (67,True) (64,True)
-1.1292386	||| (79,False) (64,True)
-1.5419941	||| (79,True) (64,True)
-2.116284	||| (76,True) (64,True)
-0.46283692	(72,True) (70,False) (64,True)
-0.46283692	(72,True) (70,True) (64,True)
-0.39690056	(64,False) (69,False) (60,True)
-0.8290293	(76,True) (69,False) (60,True)
-1.8114872	||| (64,False) (60,True)
-0.8487923	(69,True) (64,False) (60,True)
-0.93314844	(67,True) (64,False) (60,True)
-1.2688146	(53,False) ||| (60,True)
-1.5020912	(53,True) ||| (60,True)
-1.1627109	(45,False) ||| (60,True)
-1.3037531	(45,True) ||| (60,True)
-1.4200187	(47,False) ||| (60,True)
-0.79361784	(48,False) ||| (60,True)
-0.96450275	(48,True) ||| (60,True)
-1.4360183	(50,False) ||| (60,True)
-1.8561219	(52,False) ||| (60,True)
-0.5514705	(40,False) ||| (60,True)
-0.76023585	(40,True) ||| (60,True)
-1.0695089	(41,False) ||| (60,True)
-0.37964454	(36,False) ||| (60,True)
-0.32979178	(36,True) ||| (60,True)
-0.66487795	(38,False) ||| (60,True)
-1.3319618	||| (69,True) (60,True)
-0.15581225	(76,True) (69,True) (60,True)
-1.0138347	(77,True) (69,True) (60,True)
-0.2443507	||| (64,True) (60,True)
-0.2124087	(69,True) (64,True) (60,True)
-1.0924525	(71,False) (64,True) (60,True)
-0.55172825	(72,True) (64,True) (60,True)
-0.20656294	(67,True) (64,True) (60,True)
-1.2451885	||| (62,False) (60,True)
-1.4506913	(69,True) (62,False) (60,True)
-1.1957029	(67,True) (59,False) (60,True)
-1.3252758	||| (62,True) (60,True)
-1.4417622	(67,True) (59,True) (60,True)
-0.3998583	(77,True) (71,False) (60,True)
-1.7669383	||| (72,True) (60,True)
-2.0383253	(76,True) (72,True) (60,True)
-1.2303972	(77,True) (72,True) (60,True)
-0.50882787	||| (67,True) (60,True)
-0.79236025	(64,True) (67,True) (60,True)
-0.31325507	(71,False) (67,True) (60,True)
-1.2178029	(71,True) (67,True) (60,True)
-0.6440995	(72,True) (67,True) (60,True)
-0.88950574	(48,True) (67,True) (60,True)
-0.7622926	(74,False) (67,True) (60,True)
-0.13949774	(76,True) (67,True) (60,True)
-0.8118829	||| (65,False) (60,True)
-0.46241537	(72,True) (65,False) (60,True)
-0.6827525	(67,True) (65,False) (60,True)
-0.2945401	||| (65,True) (60,True)
-0.70223624	(69,True) (65,True) (60,True)
-0.6287658	(72,True) (65,True) (60,True)
-0.74438953	(67,True) (65,True) (60,True)
-0.32402068	||| (66,False) (60,True)
-0.14775857	(69,True) (66,False) (60,True)
-0.32402068	(72,True) (66,False) (60,True)
-0.3822994	(72,True) (76,True) (60,True)
-0.5283337	||| (63,True) (60,True)
-0.9520549	(69,True) (66,True) (60,True)
-1.4084709	||| (64,False) (57,True)
-1.3698235	(71,False) (64,False) (57,True)
-1.6680257	(72,False) (64,False) (57,True)
-2.1108088	(64,False) (60,False) (57,True)
-0.40265614	(65,True) (60,False) (57,True)
-2.258901	(57,False) ||| (57,True)
-2.1562083	(57,True) ||| (57,True)
-1.042205	(45,False) ||| (57,True)
-1.1640787	(45,True) ||| (57,True)
-1.0240668	(47,False) ||| (57,True)
-1.7473811	(47,True) ||| (57,True)
-1.5936179	(48,False) ||| (57,True)
-1.8547817	(48,True) ||| (57,True)
-1.4828099	(50,False) ||| (57,True)
-0.40123188	(33,False) ||| (57,True)
-0.70327663	(72,True) (69,True) (57,True)
-0.6747661	(69,False) (64,True) (57,True)
-1.0679832	||| (64,True) (57,True)
-0.62342125	(69,True) (64,True) (57,True)
-0.3018099	(60,True) (64,True) (57,True)
-0.8801567	(71,False) (64,True) (57,True)
-1.3331774	(71,True) (64,True) (57,True)
-0.56123316	(67,False) (64,True) (57,True)
-0.50869554	(72,True) (64,True) (57,True)
-0.7308459	(76,True) (64,True) (57,True)
-0.3333141	(70,False) (64,True) (57,True)
-0.3333141	(70,True) (64,True) (57,True)
-0.76959914	||| (60,True) (57,True)
-0.19280395	(69,True) (60,True) (57,True)
-0.49563703	(64,True) (60,True) (57,True)
-0.34788138	(71,False) (60,True) (57,True)
-0.7244432	(72,True) (60,True) (57,True)
-1.6754981	(67,True) (60,True) (57,True)
-0.22263	(65,False) (60,True) (57,True)
-0.36077833	(65,True) (60,True) (57,True)
-0.22485915	(66,False) (60,True) (57,True)
-0.34788138	(66,True) (60,True) (57,True)
-0.9340264	(69,True) (62,False) (57,True)
-1.0770801	(64,True) (62,False) (57,True)
-0.76027393	(71,False) (62,False) (57,True)
-0.164073	(72,True) (62,False) (57,True)
-1.0269171	(65,False) (62,False) (57,True)
-1.1718386	(64,False) (59,False) (57,True)
-1.1123241	(64,True) (59,False) (57,True)
-1.3907143	(62,False) (59,False) (57,True)
-0.77820426	||| (62,True) (57,True)
-1.0711172	(69,True) (62,True) (57,True)
-0.9535345	(64,True) (62,True) (57,True)
-0.36870992	(72,True) (62,True) (57,True)
-0.9487641	(65,True) (62,True) (57,True)
-1.6534077	(64,True) (59,True) (57,True)
-1.4553132	(62,True) (59,True) (57,True)
-1.2746375	(71,False) (67,False) (57,True)
-0.42099553	(72,True) (67,False) (57,True)
-1.8561258	(76,True) (72,True) (57,True)
-1.4970235	(71,True) (67,True) (57,True)
-2.0481548	(72,True) (67,True) (57,True)
-0.48443466	(69,True) (65,False) (57,True)
-0.8257879	(71,False) (65,False) (57,True)
-1.386379	||| (65,True) (57,True)
-1.530609	(69,True) (65,True) (57,True)
-0.8422948	(71,True) (65,True) (57,True)
-0.9238394	(72,True) (65,True) (57,True)
-0.3756995	(76,True) (66,False) (57,True)
-0.65327746	(64,True) (56,False) (57,True)
-0.81887686	(71,True) (66,True) (57,True)
-1.1255352	(64,True) (61,True) (57,True)
-2.0096323	<s> (69,False) (62,False)
-1.2444576	||| (69,False) (62,False)
-2.5096357	(45,True) ||| (62,False)
-1.7572333	(48,True) ||| (62,False)
-0.883435	(41,True) ||| (62,False)
-1.5271282	||| (69,True) (62,False)
-1.5899603	(76,True) (69,True) (62,False)
-0.17230378	(77,False) (69,True) (62,False)
-1.2709478	||| (64,True) (62,False)
-1.8689766	(69,True) (64,True) (62,False)
-0.76708484	(71,False) (64,True) (62,False)
-1.9102178	(72,True) (64,True) (62,False)
-1.1732341	||| (71,False) (62,False)
-0.9261106	(76,True) (71,False) (62,False)
-0.78729427	(71,False) (68,False) (62,False)
-0.16260386	(76,True) (68,False) (62,False)
-0.94034886	<s> (67,False) (62,False)
-0.91134626	||| (67,False) (62,False)
-0.304888	(71,False) (67,False) (62,False)
-0.4563007	(79,False) (67,False) (62,False)
-0.41787288	(74,False) (67,False) (62,False)
-2.1395829	(76,True) (72,True) (62,False)
-1.2736202	(77,True) (72,True) (62,False)
-1.9685949	||| (67,True) (62,False)
-0.8384343	(71,False) (67,True) (62,False)
-1.619256	(72,True) (67,True) (62,False)
-1.7599002	(76,True) (67,True) (62,False)
-0.5654043	(69,False) (65,False) (62,False)
-0.51430076	||| (65,False) (62,False)
-0.55713296	(69,True) (65,False) (62,False)
-0.29868636	(60,True) (65,False) (62,False)
-0.60207945	(71,False) (65,False) (62,False)
-0.29868636	(67,False) (65,False) (62,False)
-0.65833515	(72,True) (65,False) (62,False)
-0.88626015	(67,True) (65,False) (62,False)
-0.9750131	(71,False) (65,True) (62,False)
-0.16681086	(69,False) (66,False) (62,False)
-0.3814992	(67,False) (74,False) (62,False)
-0.81248796	<s> (64,False) (59,False)
-0.8489846	||| (64,False) (59,False)
-0.93806803	(71,False) (64,False) (59,False)
-1.4343958	(67,False) (64,False) (59,False)
-0.6307534	(76,False) (64,False) (59,False)
-2.6896524	(48,True) ||| (59,False)
-0.713446	(33,True) ||| (59,False)
-2.2201746	(72,True) (69,True) (59,False)
-1.9730163	(76,True) (69,True) (59,False)
-2.1220686	||| (64,True) (59,False)
-1.8915734	(69,True) (64,True) (59,False)
-1.0131975	(71,False) (64,True) (59,False)
-0.36742592	(68,False) (64,True) (59,False)
-1.707768	(72,True) (64,True) (59,False)
-1.4000878	(67,True) (64,True) (59,False)
-0.36742592	(79,False) (64,True) (59,False)
-2.2254417	||| (60,True) (59,False)
-2.2316499	(64,True) (60,True) (59,False)
-1.9459449	(67,True) (60,True) (59,False)
-0.5592584	(69,False) (62,False) (59,False)
-0.6700111	||| (62,False) (59,False)
-0.3288643	(69,True) (62,False) (59,False)
-0.45652795	(64,True) (62,False) (59,False)
-0.65537715	(71,False) (62,False) (59,False)
-0.35553354	(68,False) (62,False) (59,False)
-0.3584026	(67,False) (62,False) (59,False)
-0.7528159	(67,True) (62,False) (59,False)
-0.32437372	(74,False) (62,False) (59,False)
-1.3052329	||| (62,True) (59,False)
-1.5997684	(65,True) (62,True) (59,False)
-1.2760401	(76,False) (71,False) (59,False)
-0.9223501	(76,True) (71,False) (59,False)
-0.13997073	(76,False) (68,False) (59,False)
-1.8101712	||| (67,False) (59,False)
-0.8029767	(74,False) (67,False) (59,False)
-2.1900702	||| (67,True) (59,False)
-1.9950732	(72,True) (67,True) (59,False)
-1.0437572	(48,True) (67,True) (59,False)
-1.7547375	(76,True) (67,True) (59,False)
-1.221897	(69,False) (65,False) (59,False)
-1.2247403	||| (65,False) (59,False)
-1.1190327	(69,True) (65,False) (59,False)
-1.8478698	(69,True) (65,True) (59,False)
-0.68577415	(54,True) (45,True) (59,False)
-0.55963665	(71,False) (66,False) (59,False)
-0.27244508	(66,False) (63,False) (59,False)
-1.956213	||| (69,False) (62,True)
-0.38455364	(79,True) (69,False) (62,True)
-0.9752116	(67,True) (64,False) (62,True)
-1.8902943	(47,False) ||| (62,True)
-1.8625543	(47,True) ||| (62,True)
-2.0427947	(48,True) ||| (62,True)
-1.5299873	(50,False) ||| (62,True)
-1.1364464	(43,False) ||| (62,True)
-1.1453605	(43,True) ||| (62,True)
-1.1824366	||| (69,True) (62,True)
-1.5745173	(76,True) (69,True) (62,True)
-1.4245237	||| (64,True) (62,True)
-2.2440767	(69,True) (64,True) (62,True)
-1.4159802	(71,True) (64,True) (62,True)
-1.5082211	||| (71,True) (62,True)
-1.1608607	(71,True) (68,True) (62,True)
-1.0227288	(76,True) (68,True) (62,True)
-2.206546	(76,True) (72,True) (62,True)
-0.88673484	||| (67,True) (62,True)
-0.2703596	(71,True) (67,True) (62,True)
-1.8161188	(72,True) (67,True) (62,True)
-0.5512983	(79,True) (67,True) (62,True)
-1.6482688	(76,True) (67,True) (62,True)
-0.44145778	(74,True) (67,True) (62,True)
-0.4045247	(71,True) (65,False) (62,True)
-0.7008542	||| (65,True) (62,True)
-0.55250704	(69,True) (65,True) (62,True)
-0.3180855	(60,True) (65,True) (62,True)
-0.76073426	(71,False) (65,True) (62,True)
-0.70677364	(71,True) (65,True) (62,True)
-0.82425463	(72,True) (65,True) (62,True)
-0.6962	(67,True) (65,True) (62,True)
-0.37826854	(71,True) (66,False) (62,True)
-0.351707	(67,True) (74,True) (62,True)
-0.2860478	(69,True) (66,True) (62,True)
-0.3159873	(71,False) (66,True) (62,True)
-0.899544	(71,True) (66,True) (62,True)
-0.84971637	(76,True) (69,False) (59,True)
-0.688864	(71,True) (64,False) (59,True)
-0.958845	(67,True) (64,False) (59,True)
-2.5338492	(64,False) (60,False) (59,True)
-2.0137792	(47,False) ||| (59,True)
-0.71380705	(33,True) ||| (59,True)
-2.2260234	(72,True) (69,True) (59,True)
-1.5728321	(76,True) (69,True) (59,True)
-0.71999663	||| (64,True) (59,True)
-0.8845514	(71,True) (64,True) (59,True)
-1.7661777	(72,True) (64,True) (59,True)
-1.0937802	(67,True) (64,True) (59,True)
-0.3764792	(79,True) (64,True) (59,True)
-0.3293785	(76,True) (64,True) (59,True)
-2.4626012	(64,True) (60,True) (59,True)
-1.9740297	(67,True) (60,True) (59,True)
-1.5660437	(64,True) (62,False) (59,True)
-1.363208	(67,True) (62,False) (59,True)
-0.42204157	(69,False) (62,True) (59,True)
-0.715402	||| (62,True) (59,True)
-0.44342807	(69,True) (62,True) (59,True)
-0.47405982	(64,True) (62,True) (59,True)
-0.5611576	(71,True) (62,True) (59,True)
-0.42204157	(68,True) (62,True) (59,True)
-0.38636437	(67,True) (62,True) (59,True)
-0.33326933	(74,True) (62,True) (59,True)
-1.1176565	(76,True) (71,True) (59,True)
-0.15759914	(76,True) (68,True) (59,True)
-1.8827798	||| (67,True) (59,True)
-2.1002874	(72,True) (67,True) (59,True)
-1.0022799	(48,True) (67,True) (59,True)
-1.6982486	(76,True) (67,True) (59,True)
-0.6084059	(74,True) (67,True) (59,True)
-1.5575898	||| (65,True) (59,True)
-1.2908337	(69,True) (65,True) (59,True)
-0.30466047	(66,True) (63,True) (59,True)
-0.8593098	(71,True) (66,True) (59,True)
-2.068077	(60,True) ||| (71,False)
-1.6580974	(57,True) ||| (71,False)
-1.9575496	(53,True) ||| (71,False)
-2.0507524	(45,True) ||| (71,False)
-1.7244412	(48,True) ||| (71,False)
-2.2266195	(52,True) ||| (71,False)
-1.5810344	(50,True) ||| (71,False)
-2.6293273	||| (69,True) (71,False)
-1.4897629	(74,False) (67,False) (71,False)
-0.6546924	||| (74,False) (71,False)
-0.36426574	(76,True) (74,False) (71,False)
-1.8378193	<s> (76,False) (71,False)
-0.72644866	||| (76,False) (71,False)
-1.9508994	||| (76,True) (71,False)
-1.2079617	||| (77,True) (71,False)
-0.116889	||| (75,False) (71,False)
-0.6735332	<s> (71,False) (68,False)
-1.1938524	||| (71,False) (68,False)
-2.1571393	||| (72,False) (68,False)
-1.3416421	<s> (76,False) (68,False)
-1.3180058	||| (76,False) (68,False)
-1.8276104	||| (76,True) (68,False)
-2.143956	(57,False) ||| (71,True)
-1.8135034	(57,True) ||| (71,True)
-1.4597325	(59,False) ||| (71,True)
-1.4448279	(59,True) ||| (71,True)
-0.85543036	(55,False) ||| (71,True)
-0.95741993	(55,True) ||| (71,True)
-1.852569	(45,True) ||| (71,True)
-1.6446731	(47,False) ||| (71,True)
-2.135768	(48,True) ||| (71,True)
-1.7133311	(50,False) ||| (71,True)
-1.2297884	(52,False) ||| (71,True)
-1.1587738	(52,True) ||| (71,True)
-1.0540031	(50,True) ||| (71,True)
-0.92446	(56,False) ||| (71,True)
-1.0066679	(56,True) ||| (71,True)
-1.0370317	(43,False) ||| (71,True)
-1.0579168	(43,True) ||| (71,True)
-2.6470873	||| (69,True) (71,True)
-1.7593007	(74,True) (67,True) (71,True)
-1.1483305	||| (76,True) (71,True)
-1.2112774	||| (77,True) (71,True)
-0.79838586	||| (74,True) (71,True)
-0.054696813	||| (75,True) (71,True)
-0.7575091	||| (71,True) (68,True)
-2.7982948	||| (72,True) (68,True)
-1.1751726	||| (76,True) (68,True)
-1.0607364	(60,True) ||| (72,False)
-1.4778285	(57,True) ||| (72,False)
-0.7443603	(62,True) ||| (72,False)
-0.59595084	(59,True) ||| (72,False)
-0.83530486	(67,True) ||| (72,False)
-1.6744224	(53,False) ||| (72,False)
-1.570405	(45,True) ||| (72,False)
-1.7246914	(47,True) ||| (72,False)
-1.3342851	(48,True) ||| (72,False)
-1.4889516	(52,True) ||| (72,False)
-0.9917551	(50,True) ||| (72,False)
-1.4589181	(56,True) ||| (72,False)
-0.31197265	<s> (79,False) (72,False)
-1.0466194	||| (79,False) (72,False)
-1.5446162	||| (74,False) (72,False)
-0.31880936	<s> (76,False) (72,False)
-0.4574374	||| (76,False) (72,False)
-0.3216827	(79,False) (76,False) (72,False)
-0.33267513	(79,True) (76,False) (72,False)
-2.1467814	||| (76,True) (72,False)
-0.31820875	<s> (77,False) (72,False)
-0.6995995	||| (77,False) (72,False)
-0.12941742	||| (81,False) (72,False)
-2.0527925	<s> (69,False) (67,False)
-1.380553	(72,False) (64,False) (67,False)
-2.0066772	(60,True) ||| (67,False)
-2.126397	(57,True) ||| (67,False)
-0.8512662	(72,True) ||| (67,False)
-0.83244747	(67,True) ||| (67,False)
-1.824024	(53,True) ||| (67,False)
-1.779813	(45,True) ||| (67,False)
-1.390321	(47,True) ||| (67,False)
-1.4718518	(48,True) ||| (67,False)
-1.782541	(52,True) ||| (67,False)
-0.8070178	(50,True) ||| (67,False)
-1.1690292	(40,True) ||| (67,False)
-1.5007695	(36,True) ||| (67,False)
-2.5179446	||| (69,True) (67,False)
-2.2319522	(72,True) (69,True) (67,False)
-0.64296204	||| (71,False) (67,False)
-1.1116056	(74,False) (71,False) (67,False)
-0.8909824	(76,True) (71,False) (67,False)
-0.15873991	<s> (72,False) (67,False)
-0.48579127	||| (72,False) (67,False)
-0.26328364	(76,False) (72,False) (67,False)
-2.3352647	||| (72,True) (67,False)
-1.6268747	(76,True) (72,True) (67,False)
-1.7458453	(64,False) (48,False) (67,False)
-0.38667905	(72,False) (48,False) (67,False)
-0.59634984	||| (79,False) (67,False)
-1.5491946	||| (79,True) (67,False)
-0.3321343	||| (74,False) (67,False)
-0.33370563	(79,False) (74,False) (67,False)
-0.33370563	(83,False) (74,False) (67,False)
-0.88691664	<s> (76,False) (67,False)
-0.14995702	(60,False) (76,False) (67,False)
-1.3852143	||| (76,False) (67,False)
-0.33006182	(84,False) (76,False) (67,False)
-1.1830703	(79,True) (76,True) (67,False)
-0.31450677	(64,False) ||| (72,True)
-0.33334473	(60,False) ||| (72,True)
-0.48867252	(57,False) ||| (72,True)
-0.32791397	(64,True) ||| (72,True)
-0.4648254	(60,True) ||| (72,True)
-0.7065462	(57,True) ||| (72,True)
-0.7131102	(62,False) ||| (72,True)
-0.585476	(59,False) ||| (72,True)
-0.37414637	(72,False) ||| (72,True)
-0.89139843	(67,False) ||| (72,True)
-0.32791397	(72,True) ||| (72,True)
-0.7700381	(67,True) ||| (72,True)
-1.4398484	(55,False) ||| (72,True)
-0.14406149	(65,False) ||| (72,True)
-0.9214516	(53,False) ||| (72,True)
-0.1033253	(65,True) ||| (72,True)
-1.4181737	(53,True) ||| (72,True)
-1.2171195	(45,False) ||| (72,True)
-1.2285659	(45,True) ||| (72,True)
-1.5174514	(47,False) ||| (72,True)
-0.6861791	(48,False) ||| (72,True)
-0.8819494	(48,True) ||| (72,True)
-0.7104	(50,False) ||| (72,True)
-0.54438514	(52,False) ||| (72,True)
-0.79607177	(52,True) ||| (72,True)
-0.4090719	(79,True) (67,False) (72,True)
-1.0781194	(79,True) (67,True) (72,True)
-0.41725355	||| (79,True) (72,True)
-0.3846109	||| (76,True) (72,True)
-0.21305938	(79,True) (76,True) (72,True)
-0.7377487	||| (77,False) (72,True)
-0.31253663	||| (77,True) (72,True)
-0.25571817	||| (81,True) (72,True)
-0.39870906	<s> (.) (72,True)
-0.38696036	||| (.) (72,True)
-0.68925315	(72,True) (69,False) (67,True)
-1.0881617	(64,False) ||| (67,True)
-1.537573	(60,False) ||| (67,True)
-1.4240896	(60,True) ||| (67,True)
-1.6030575	(59,False) ||| (67,True)
-1.3908541	(59,True) ||| (67,True)
-0.443824	(67,False) ||| (67,True)
-1.2120197	(55,False) ||| (67,True)
-1.3442013	(55,True) ||| (67,True)
-1.5195533	(53,False) ||| (67,True)
-0.8996238	(47,False) ||| (67,True)
-0.685975	(47,True) ||| (67,True)
-0.7029816	(48,False) ||| (67,True)
-0.7898623	(48,True) ||| (67,True)
-1.4080604	(50,False) ||| (67,True)
-0.5004047	(52,False) ||| (67,True)
-0.579726	(52,True) ||| (67,True)
-0.99689066	(40,False) ||| (67,True)
-1.0669274	(40,True) ||| (67,True)
-1.11749	(36,False) ||| (67,True)
-1.3890458	(36,True) ||| (67,True)
-0.6410714	(38,False) ||| (67,True)
-0.99070215	(43,False) ||| (67,True)
-2.0640466	||| (69,True) (67,True)
-1.4554454	(72,True) (64,True) (67,True)
-1.4454433	||| (71,False) (67,True)
-1.1090453	(74,False) (71,False) (67,True)
-0.88924426	(76,True) (71,False) (67,True)
-0.69362	||| (71,True) (67,True)
-1.4671102	(76,True) (71,True) (67,True)
-0.6844098	(74,True) (71,True) (67,True)
-2.027513	||| (72,False) (67,True)
-1.8499761	(76,False) (72,False) (67,True)
-0.28851557	||| (72,True) (67,True)
-0.248001	(76,True) (72,True) (67,True)
-0.16424802	(77,False) (72,True) (67,True)
-0.10264757	(.) (72,True) (67,True)
-1.4678447	(72,True) (65,False) (67,True)
-1.7063638	(64,True) (48,True) (67,True)
-0.38762712	(72,True) (48,True) (67,True)
-0.97371334	||| (79,True) (67,True)
-1.2161965	||| (74,False) (67,True)
-0.9553529	||| (76,True) (67,True)
-0.22291924	(60,True) (76,True) (67,True)
-0.3443759	(62,False) (76,True) (67,True)
-0.16824643	(84,True) (76,True) (67,True)
-0.15656808	||| (74,True) (67,True)
-0.31500098	(79,True) (74,True) (67,True)
-0.46344143	(72,True) (70,False) (67,True)
-1.7900506	<s> (64,False) (55,False)
-0.97244793	(71,False) (64,False) (55,False)
-0.7553815	(72,False) (64,False) (55,False)
-2.0483105	(67,False) (64,False) (55,False)
-0.06357473	<s> (60,False) (55,False)
-1.0320643	(64,False) (60,False) (55,False)
-0.60986125	||| (60,False) (55,False)
-0.95264995	(72,False) (60,False) (55,False)
-0.98954546	(67,False) (60,False) (55,False)
-1.1467208	(65,False) (60,False) (55,False)
-2.2391586	(69,True) (64,True) (55,False)
-1.8217765	(71,True) (64,True) (55,False)
-1.7489086	(64,True) (60,True) (55,False)
-0.47228163	(64,False) (57,True) (55,False)
-2.1638184	(60,True) (57,True) (55,False)
-0.37893772	(67,False) (62,False) (55,False)
-1.5503093	(65,False) (62,False) (55,False)
-0.9619032	(64,False) (59,False) (55,False)
-1.4472866	(64,True) (59,False) (55,False)
-1.3696723	(62,False) (59,False) (55,False)
-0.57570136	(67,False) (59,False) (55,False)
-2.04506	(64,True) (59,True) (55,False)
-1.3865333	||| (67,False) (55,False)
-0.7946235	(71,False) (67,False) (55,False)
-1.3802829	(74,False) (67,False) (55,False)
-1.4716833	(72,True) (65,False) (55,False)
-2.1011636	(60,True) (45,True) (55,False)
-0.33791754	(65,True) (58,False) (55,False)
-0.5690423	(69,False) (61,False) (55,False)
-1.1372826	(64,True) (61,True) (55,False)
-0.96850055	(67,True) (64,False) (55,True)
-2.391073	(64,False) (60,False) (55,True)
-1.4177289	||| (60,False) (55,True)
-1.0113287	(67,True) (60,False) (55,True)
-1.0441471	(60,True) (57,False) (55,True)
-2.3237855	||| (64,True) (55,True)
-0.9077693	(71,True) (64,True) (55,True)
-0.7987496	(72,True) (64,True) (55,True)
-2.1547782	(67,True) (64,True) (55,True)
-0.7812898	(64,False) (60,True) (55,True)
-0.1592929	||| (60,True) (55,True)
-0.9748055	(64,True) (60,True) (55,True)
-0.8249103	(72,True) (60,True) (55,True)
-1.0358093	(67,True) (60,True) (55,True)
-1.5328144	(65,True) (60,True) (55,True)
-1.8480848	(64,True) (57,True) (55,True)
-2.1544945	(60,True) (57,True) (55,True)
-0.5903721	||| (62,False) (55,True)
-1.1388012	(64,True) (62,False) (55,True)
-0.9776453	(65,False) (59,False) (55,True)
-0.5980128	||| (62,True) (55,True)
-0.35674143	(67,True) (62,True) (55,True)
-0.36912552	(65,False) (62,True) (55,True)
-1.3191404	(65,True) (62,True) (55,True)
-0.36912552	(66,False) (62,True) (55,True)
-0.61260927	(64,False) (59,True) (55,True)
-0.7612037	(64,True) (59,True) (55,True)
-1.3376602	(62,True) (59,True) (55,True)
-0.5824578	(67,True) (59,True) (55,True)
-0.925704	(65,True) (59,True) (55,True)
-1.1245561	(72,True) (67,False) (55,True)
-1.8236465	||| (67,True) (55,True)
-1.0753572	(71,True) (67,True) (55,True)
-1.6381732	(74,True) (67,True) (55,True)
-1.070945	(72,True) (65,False) (55,True)
-1.0667888	(72,True) (65,True) (55,True)
-2.0980563	(60,True) (45,True) (55,True)
-0.6809249	(60,True) (58,False) (55,True)
-0.4948392	(69,True) (61,True) (55,True)
-1.0271685	(64,True) (61,True) (55,True)
-0.27166644	(65,True) (58,True) (55,True)
-0.6139677	||| (69,False) (65,False)
-0.86634254	(72,False) (69,False) (65,False)
-0.37284464	(48,False) (69,False) (65,False)
-0.32709548	(77,False) (69,False) (65,False)
-2.475219	(60,True) ||| (65,False)
-2.2507184	(57,True) ||| (65,False)
-2.0133126	(53,True) ||| (65,False)
-2.0668612	(48,True) ||| (65,False)
-1.5659691	(50,True) ||| (65,False)
-2.255035	||| (69,True) (65,False)
-1.7200963	(72,True) (69,True) (65,False)
-2.4155602	(67,True) (60,True) (65,False)
-1.4607861	||| (71,False) (65,False)
-0.3858479	(67,False) (71,False) (65,False)
-1.1193784	(74,False) (71,False) (65,False)
-1.8815732	||| (71,True) (65,False)
-2.0443096	||| (72,False) (65,False)
-0.17299375	(81,False) (72,False) (65,False)
-1.8777918	||| (67,False) (65,False)
-1.4525921	||| (72,True) (65,False)
-2.0432458	||| (67,True) (65,False)
-2.217155	(72,True) (67,True) (65,False)
-0.34598923	(74,False) (67,True) (65,False)
-2.0870445	(72,False) (69,False) (53,False)
-1.28051	(69,False) (60,False) (53,False)
-2.4322476	(64,False) (60,False) (53,False)
-0.52151513	(65,False) (60,False) (53,False)
-1.656218	(64,False) (57,False) (53,False)
-1.2711656	(60,False) (57,False) (53,False)
-0.86969566	(60,True) (57,False) (53,False)
-0.65883493	(62,False) (57,False) (53,False)
-0.31787407	(65,False) (57,False) (53,False)
-1.3423325	(72,True) (60,True) (53,False)
-1.4548187	(67,True) (60,True) (53,False)
-0.6367734	(69,False) (62,False) (53,False)
-1.574124	(65,False) (62,False) (53,False)
-1.4650426	(62,False) (59,False) (53,False)
-2.0131915	(64,True) (59,True) (53,False)
-1.4767239	(62,True) (59,True) (53,False)
-1.6246667	(60,True) (55,True) (53,False)
-0.42787904	(62,False) (55,True) (53,False)
-1.0758436	(69,False) (65,False) (53,False)
-0.34430033	(72,False) (65,False) (53,False)
-2.1690466	(57,True) ||| (65,True)
-1.3197196	(53,False) ||| (65,True)
-1.0152047	(53,True) ||| (65,True)
-1.9301641	(48,False) ||| (65,True)
-1.5431718	(50,False) ||| (65,True)
-1.5182871	(50,True) ||| (65,True)
-1.1259488	(41,False) ||| (65,True)
-1.1115713	(43,False) ||| (65,True)
-0.85225093	(41,True) ||| (65,True)
-1.017524	||| (69,True) (65,True)
-0.8560893	(72,True) (69,True) (65,True)
-0.5517838	(77,True) (69,True) (65,True)
-2.4491432	(67,True) (60,True) (65,True)
-1.1875635	||| (71,False) (65,True)
-0.738146	(74,False) (71,False) (65,True)
-1.4306712	||| (71,True) (65,True)
-0.37726295	(67,True) (71,True) (65,True)
-1.0506971	(74,True) (71,True) (65,True)
-1.5130969	||| (72,True) (65,True)
-0.469749	(81,True) (72,True) (65,True)
-1.7021286	||| (67,True) (65,True)
-2.227392	(72,True) (67,True) (65,True)
-1.2536485	(74,True) (67,True) (65,True)
-0.3496059	(72,True) (64,False) (53,True)
-0.40938416	(62,False) (60,False) (53,True)
-0.17435186	(62,True) (57,False) (53,True)
-0.40103403	(65,True) (57,False) (53,True)
-1.9595592	(72,True) (69,True) (53,True)
-1.109964	(69,True) (60,True) (53,True)
-0.67464334	(62,False) (60,True) (53,True)
-1.7441047	(67,True) (60,True) (53,True)
-0.6043764	(65,True) (60,True) (53,True)
-1.9744859	(64,True) (57,True) (53,True)
-1.2009639	(60,True) (57,True) (53,True)
-1.2366552	(62,False) (57,True) (53,True)
-0.84353364	(62,True) (57,True) (53,True)
-0.5386953	(65,True) (57,True) (53,True)
-0.40887436	(65,True) (62,False) (53,True)
-1.2488897	(62,False) (59,False) (53,True)
-0.96995187	(65,False) (59,False) (53,True)
-0.8335274	(69,True) (62,True) (53,True)
-1.615137	(65,True) (62,True) (53,True)
-1.5324043	(62,True) (59,True) (53,True)
-0.40595362	(58,False) (55,False) (53,True)
-1.9463596	(60,True) (55,True) (53,True)
-1.1166854	(62,True) (55,True) (53,True)
-0.3995255	(58,True) (55,True) (53,True)
-1.030964	(69,True) (65,True) (53,True)
-0.4540254	(71,False) (65,True) (53,True)
-0.98480153	(72,True) (65,True) (53,True)
-2.0870445	(72,False) (69,False) (45,False)
-1.9847281	(69,False) (64,False) (45,False)
-0.8271018	(69,False) (60,False) (45,False)
-1.0123193	(64,False) (60,False) (45,False)
-1.5840544	(64,False) (57,False) (45,False)
-0.7682241	(60,False) (57,False) (45,False)
-2.2658145	(64,True) (57,True) (45,False)
-2.5571654	(60,True) (57,True) (45,False)
-1.3568144	(60,True) (55,False) (45,False)
-1.3659676	(57,False) (48,False) (45,False)
-0.37160602	(55,True) (48,False) (45,False)
-0.7359963	(52,False) (48,False) (45,False)
-0.97175336	(60,False) (52,False) (45,False)
-0.7715901	(57,False) (52,False) (45,False)
-0.38291278	(61,False) (52,False) (45,False)
-0.3541983	(60,False) (54,False) (45,False)
-2.521888	(64,False) (60,False) (45,True)
-1.9469903	(72,True) (69,True) (45,True)
-2.0670085	(69,True) (64,True) (45,True)
-1.1237096	(69,True) (60,True) (45,True)
-0.9754734	(64,True) (60,True) (45,True)
-1.0264624	(64,True) (57,True) (45,True)
-0.78064066	(60,True) (57,True) (45,True)
-0.83205956	(62,False) (57,True) (45,True)
-0.86822724	(62,True) (57,True) (45,True)
-1.1402609	(64,True) (62,False) (45,True)
-1.5366232	(65,False) (62,False) (45,True)
-1.0980994	(62,False) (59,False) (45,True)
-0.6837709	(71,False) (59,False) (45,True)
-1.0038222	(64,True) (62,True) (45,True)
-1.5947641	(65,True) (62,True) (45,True)
-1.1339504	(62,True) (59,True) (45,True)
-0.68202937	(71,True) (59,True) (45,True)
-1.3441702	(60,True) (55,False) (45,True)
-2.3423362	(60,True) (55,True) (45,True)
-1.1828532	(60,True) (53,False) (45,True)
-0.93540365	(60,True) (48,False) (45,True)
-1.8966833	(60,True) (48,True) (45,True)
-1.4554747	(57,True) (48,True) (45,True)
-1.9106376	(55,True) (48,True) (45,True)
-0.72793335	(52,True) (48,True) (45,True)
-0.60265666	(54,False) (48,True) (45,True)
-0.99568945	(60,True) (52,True) (45,True)
-0.77744704	(57,True) (52,True) (45,True)
-0.9525946	(59,False) (52,True) (45,True)
-0.35922348	(61,True) (52,True) (45,True)
-0.5533277	(60,True) (54,True) (45,True)
-0.32861927	(63,True) (54,True) (45,True)
-0.59506273	(64,True) (61,True) (45,True)
-2.2419338	(69,True) (64,True) (47,False)
-2.5945606	(67,True) (64,True) (47,False)
-2.0315347	(69,True) (60,True) (47,False)
-2.2622118	(64,True) (60,True) (47,False)
-2.2300198	(60,True) (57,True) (47,False)
-1.3475999	(69,True) (62,False) (47,False)
-1.087015	(64,True) (62,False) (47,False)
-1.0457175	(68,False) (62,False) (47,False)
-1.6509516	(67,False) (62,False) (47,False)
-0.6870897	(69,True) (59,False) (47,False)
-1.2488897	(62,False) (59,False) (47,False)
-1.6686572	(65,True) (62,True) (47,False)
-0.78426564	(62,False) (55,False) (47,False)
-2.2309945	(60,True) (55,True) (47,False)
-1.101356	(62,False) (55,True) (47,False)
-1.694638	(62,True) (55,True) (47,False)
-2.2797256	(52,True) (48,True) (47,False)
-0.71783316	(57,True) (50,False) (47,False)
-0.31061617	(55,False) (50,False) (47,False)
-0.71990025	(55,True) (50,False) (47,False)
-0.24268284	(52,True) (50,False) (47,False)
-0.7671707	(56,False) (50,False) (47,False)
-1.8375105	(57,True) (52,True) (47,False)
-1.0145108	(62,False) (52,True) (47,False)
-1.7309959	(55,True) (52,True) (47,False)
-0.38816744	(62,False) (56,False) (47,False)
-0.59365606	(60,True) (54,False) (47,False)
-2.6562335	(67,True) (64,True) (47,True)
-2.0410264	(69,True) (60,True) (47,True)
-2.4430313	(64,True) (60,True) (47,True)
-2.6027918	(60,True) (57,True) (47,True)
-0.37204623	(64,False) (62,True) (47,True)
-1.3748331	(69,True) (62,True) (47,True)
-0.9265051	(64,True) (62,True) (47,True)
-0.85540026	(68,True) (62,True) (47,True)
-1.7705228	(67,True) (62,True) (47,True)
-0.8470951	(69,True) (59,True) (47,True)
-1.5117104	(62,True) (59,True) (47,True)
-0.53627133	(62,True) (55,True) (47,True)
-2.2833004	(52,True) (48,True) (47,True)
-0.4014265	(62,True) (52,True) (47,True)
-2.161681	(55,True) (52,True) (47,True)
-0.78286517	(57,True) (50,True) (47,True)
-0.41959238	(55,True) (50,True) (47,True)
-0.29579264	(52,True) (50,True) (47,True)
-1.2134386	(56,True) (50,True) (47,True)
-0.33696926	(62,True) (56,True) (47,True)
-0.5582833	(60,True) (54,True) (47,True)
-0.33156633	(59,False) (54,True) (47,True)
-1.6856439	(69,False) (64,False) (48,False)
-0.6562916	(60,False) (64,False) (48,False)
-1.2623218	(72,False) (64,False) (48,False)
-0.7416507	(67,False) (64,False) (48,False)
-1.051172	(64,False) (60,False) (48,False)
-1.0977569	(72,False) (60,False) (48,False)
-1.2946886	(67,False) (60,False) (48,False)
-0.9894667	(64,False) (57,False) (48,False)
-1.5027325	(60,False) (57,False) (48,False)
-0.66694486	(64,True) (57,False) (48,False)
-0.82989204	(64,False) (60,True) (48,False)
-2.1619325	||| (60,True) (48,False)
-2.5825372	(64,True) (60,True) (48,False)
-2.1976466	(67,True) (60,True) (48,False)
-1.9155334	(76,False) (72,False) (48,False)
-0.82257557	(64,False) (67,False) (48,False)
-1.6658981	(72,False) (67,False) (48,False)
-0.928123	(76,False) (67,False) (48,False)
-0.3484187	(64,False) (55,False) (48,False)
-0.5118809	(60,False) (55,False) (48,False)
-0.9481203	(62,False) (55,False) (48,False)
-0.8659187	(60,False) (55,True) (48,False)
-1.4530287	(57,False) (53,False) (48,False)
-1.0434179	(64,False) (52,False) (48,False)
-0.7376343	(60,False) (52,False) (48,False)
-0.16453147	(57,False) (52,False) (48,False)
-0.5571987	(57,True) (52,False) (48,False)
-0.30866185	(55,False) (52,False) (48,False)
-1.9708109	(57,True) (52,True) (48,False)
-2.2259102	(67,False) (64,False) (48,True)
-0.6871724	(64,True) (57,False) (48,True)
-2.466435	(48,False) ||| (48,True)
-1.6994767	(69,True) (64,True) (48,True)
-0.78836805	(60,True) (64,True) (48,True)
-1.0040532	(71,False) (64,True) (48,True)
-1.489347	(71,True) (64,True) (48,True)
-0.61679626	(67,False) (64,True) (48,True)
-1.1141317	(72,True) (64,True) (48,True)
-0.7264446	(67,True) (64,True) (48,True)
-2.1245499	||| (60,True) (48,True)
-1.0653087	(64,True) (60,True) (48,True)
-1.2315859	(72,True) (60,True) (48,True)
-1.0799547	(67,True) (60,True) (48,True)
-1.4868867	||| (57,True) (48,True)
-0.9593366	(64,True) (57,True) (48,True)
-1.8125516	(60,True) (57,True) (48,True)
-1.3373904	(67,True) (62,False) (48,True)
-0.94935125	(65,False) (62,False) (48,True)
-1.588437	(64,True) (59,False) (48,True)
-1.9540409	(67,True) (62,True) (48,True)
-1.2561916	(65,True) (62,True) (48,True)
-1.847916	(76,True) (72,True) (48,True)
-0.93893385	(64,True) (67,True) (48,True)
-1.469342	(72,True) (67,True) (48,True)
-1.0393779	(76,True) (67,True) (48,True)
-1.4237928	(62,False) (55,False) (48,True)
-0.37091637	(64,False) (55,True) (48,True)
-0.76204515	(60,False) (55,True) (48,True)
-0.35645652	(64,True) (55,True) (48,True)
-0.5836798	(60,True) (55,True) (48,True)
-1.2453828	(62,True) (55,True) (48,True)
-0.8219323	(71,False) (65,False) (48,True)
-0.6918239	(67,True) (65,False) (48,True)
-0.75520897	(60,True) (53,False) (48,True)
-0.42271578	(55,True) (53,False) (48,True)
-0.9270885	(71,True) (65,True) (48,True)
-0.78835046	(67,True) (65,True) (48,True)
-1.0883142	(60,True) (53,True) (48,True)
-1.4201354	(57,True) (53,True) (48,True)
-0.87950903	(59,False) (53,True) (48,True)
-0.5013543	(55,True) (53,True) (48,True)
-1.8681358	(55,False) (52,False) (48,True)
-1.41072	(64,True) (52,True) (48,True)
-0.68464917	(60,True) (52,True) (48,True)
-0.31136242	(57,True) (52,True) (48,True)
-0.28840655	(55,True) (52,True) (48,True)
-0.38400966	(60,True) (56,False) (48,True)
-0.5254971	(60,True) (54,False) (48,True)
-0.31181672	(57,True) (54,False) (48,True)
-0.35694903	(57,True) (54,True) (48,True)
-2.0339096	<s> (69,False) (66,False)
-0.4023468	(74,False) (69,False) (66,False)
-2.7918837	(48,True) ||| (66,False)
-2.2687054	||| (69,True) (66,False)
-1.0964286	<s> (71,False) (66,False)
-0.2522258	(75,False) (71,False) (66,False)
-1.9038123	||| (71,True) (66,False)
-2.76344	||| (72,True) (66,False)
-2.4124303	||| (76,True) (66,False)
-1.3765506	(65,False) (60,False) (50,False)
-0.69834214	(62,False) (57,False) (50,False)
-2.2543187	(64,True) (60,True) (50,False)
-0.94465643	(65,False) (60,True) (50,False)
-1.8243097	(64,True) (57,True) (50,False)
-2.4488573	(60,True) (57,True) (50,False)
-0.39979997	(66,False) (57,True) (50,False)
-1.3403661	(69,True) (62,False) (50,False)
-0.9156925	(67,True) (62,False) (50,False)
-0.77245426	(65,False) (62,False) (50,False)
-0.6508749	(66,False) (62,False) (50,False)
-0.46901426	(65,False) (59,False) (50,False)
-1.2527215	(65,True) (62,True) (50,False)
-2.0331888	(64,True) (59,True) (50,False)
-0.40934736	(65,False) (67,True) (50,False)
-0.60180783	(67,False) (55,False) (50,False)
-1.4084553	(64,True) (55,True) (50,False)
-1.8084906	(60,True) (55,True) (50,False)
-0.37313682	(59,False) (55,True) (50,False)
-1.3830323	(59,True) (55,True) (50,False)
-0.36016834	(65,False) (55,True) (50,False)
-0.7031418	(67,True) (65,False) (50,False)
-0.89697486	(57,False) (53,False) (50,False)
-0.9437336	(60,True) (53,False) (50,False)
-0.30762067	(62,False) (53,False) (50,False)
-0.7243293	(55,True) (53,False) (50,False)
-1.5349225	(64,True) (52,True) (50,False)
-0.9863545	(57,True) (52,True) (50,False)
-1.1633267	(64,False) (56,False) (50,False)
-0.77546406	(59,False) (56,False) (50,False)
-0.9977066	(59,True) (56,True) (50,False)
-1.8726966	<s> (64,False) (52,False)
-0.25242978	(68,False) (64,False) (52,False)
-1.8475144	(67,False) (64,False) (52,False)
-1.24178	(69,False) (60,False) (52,False)
-1.9961672	(64,False) (60,False) (52,False)
-1.2883139	||| (60,False) (52,False)
-0.9963109	(72,False) (60,False) (52,False)
-0.45607734	(67,False) (60,False) (52,False)
-0.13375273	<s> (57,False) (52,False)
-1.4833391	(64,False) (57,False) (52,False)
-1.470512	(60,False) (57,False) (52,False)
-0.3611971	||| (57,False) (52,False)
-0.8700608	(64,False) (60,True) (52,False)
-1.9652663	||| (57,True) (52,False)
-1.0749271	(65,True) (57,True) (52,False)
-1.1414223	(68,False) (62,False) (52,False)
-0.40851066	(64,False) (59,False) (52,False)
-0.1522564	(68,False) (59,False) (52,False)
-1.2595661	(65,True) (62,True) (52,False)
-1.8903046	(72,False) (67,False) (52,False)
-0.82363427	(64,False) (55,False) (52,False)
-0.23585583	(60,False) (55,False) (52,False)
-1.1461753	(62,False) (55,False) (52,False)
-0.804971	(59,False) (55,False) (52,False)
-0.84118265	(67,False) (55,False) (52,False)
-1.6468898	(57,True) (53,True) (52,False)
-0.7636118	(64,False) (56,False) (52,False)
-0.7393152	(59,False) (56,False) (52,False)
-0.56981444	(69,False) (61,False) (52,False)
-1.0645099	(67,True) (60,False) (52,True)
-1.0529532	(60,True) (57,False) (52,True)
-0.824371	(69,False) (64,True) (52,True)
-2.0681913	||| (64,True) (52,True)
-0.08367334	(68,True) (64,True) (52,True)
-2.1657407	(67,True) (64,True) (52,True)
-2.089686	||| (60,True) (52,True)
-1.2054199	(69,True) (60,True) (52,True)
-2.304751	(64,True) (60,True) (52,True)
-1.208104	(72,True) (60,True) (52,True)
-0.5275179	(67,True) (60,True) (52,True)
-0.09969812	||| (57,True) (52,True)
-1.6523706	(64,True) (57,True) (52,True)
-1.446002	(60,True) (57,True) (52,True)
-1.466386	(69,True) (62,False) (52,True)
-0.74230915	(67,True) (62,False) (52,True)
-1.3873904	(64,False) (59,False) (52,True)
-1.3778129	(64,True) (59,False) (52,True)
-1.082463	(60,True) (59,False) (52,True)
-1.5171741	(62,False) (59,False) (52,True)
-1.0459247	(67,True) (59,False) (52,True)
-1.6428545	(69,True) (62,True) (52,True)
-0.47174478	(64,True) (59,True) (52,True)
-0.64318126	(62,False) (59,True) (52,True)
-0.056582995	(68,True) (59,True) (52,True)
-1.2918767	(67,True) (59,True) (52,True)
-2.241693	(72,True) (67,True) (52,True)
-0.4073345	(70,False) (67,True) (52,True)
-0.7407688	(60,False) (55,True) (52,True)
-1.0930254	(64,True) (55,True) (52,True)
-0.2666505	(60,True) (55,True) (52,True)
-1.4488705	(62,True) (55,True) (52,True)
-0.7715822	(59,True) (55,True) (52,True)
-1.0853963	(67,True) (55,True) (52,True)
-0.7881996	(64,True) (56,True) (52,True)
-0.29962078	(62,False) (56,True) (52,True)
-0.6736214	(62,True) (56,True) (52,True)
-0.8186574	(59,True) (56,True) (52,True)
-0.5678936	(69,True) (61,True) (52,True)
-2.7842078	(64,True) (60,True) (50,True)
-1.3605657	(65,True) (60,True) (50,True)
-1.8624517	(64,True) (57,True) (50,True)
-0.9643098	(62,True) (57,True) (50,True)
-0.6981955	(62,True) (59,False) (50,True)
-1.5811677	(67,True) (62,True) (50,True)
-0.7862605	(65,True) (62,True) (50,True)
-0.66522974	(66,True) (62,True) (50,True)
-0.3519706	(65,True) (59,True) (50,True)
-0.47260714	(57,True) (55,False) (50,True)
-1.3563819	(64,True) (55,True) (50,True)
-1.7396674	(60,True) (55,True) (50,True)
-0.44413108	(57,True) (55,True) (50,True)
-1.0558256	(59,True) (55,True) (50,True)
-0.36487022	(67,True) (55,True) (50,True)
-0.35041896	(65,True) (55,True) (50,True)
-0.80794466	(67,True) (65,True) (50,True)
-1.1467372	(57,True) (53,True) (50,True)
-0.25946075	(62,True) (53,True) (50,True)
-0.72501534	(55,True) (53,True) (50,True)
-1.5453788	(64,True) (52,True) (50,True)
-1.0769058	(57,True) (52,True) (50,True)
-0.64007187	(64,True) (56,True) (50,True)
-0.542033	(59,True) (56,True) (50,True)
-1.7796807	(60,True) ||| (79,False)
-2.6325612	(57,True) ||| (79,False)
-2.5948036	(48,True) ||| (79,False)
-1.886565	(52,True) ||| (79,False)
-0.41417664	(58,True) ||| (79,False)
-1.2616619	(60,False) ||| (79,True)
-1.246245	(60,True) ||| (79,True)
-2.4414132	(57,True) ||| (79,True)
-1.193306	(59,False) ||| (79,True)
-1.2143798	(59,True) ||| (79,True)
-2.2990801	(48,False) ||| (79,True)
-2.1484857	(48,True) ||| (79,True)
-2.1811202	(52,True) ||| (79,True)
-0.40600443	(58,False) ||| (79,True)
-1.8916692	<s> (64,False) (56,False)
-0.4178869	(71,False) (64,False) (56,False)
-0.68429047	(71,True) (64,False) (56,False)
-2.6465292	(69,True) (64,True) (56,False)
-1.2499778	(71,False) (64,True) (56,False)
-2.8825953	(64,True) (60,True) (56,False)
-0.87020755	(71,False) (62,False) (56,False)
-0.825454	(64,False) (59,False) (56,False)
-0.1686058	||| (59,False) (56,False)
-1.4627118	(64,True) (59,False) (56,False)
-0.6499927	(71,False) (59,False) (56,False)
-2.0893674	(64,True) (59,True) (56,False)
-1.2265545	(74,False) (71,False) (56,False)
-1.3366761	(60,True) ||| (74,False)
-1.9270219	(57,True) ||| (74,False)
-1.2674253	(62,True) ||| (74,False)
-1.5752705	(53,True) ||| (74,False)
-1.8188037	(48,True) ||| (74,False)
-2.2693908	(52,True) ||| (74,False)
-0.98216265	(79,False) (67,False) (74,False)
-1.1568639	||| (79,False) (74,False)
-2.4197724	||| (76,True) (74,False)
-0.16955785	||| (83,False) (74,False)
-1.7730627	<s> (60,False) (76,False)
-1.4896586	||| (60,False) (76,False)
-2.0357223	(60,True) ||| (76,False)
-1.5368843	(57,True) ||| (76,False)
-1.018639	(59,True) ||| (76,False)
-1.9081388	(53,True) ||| (76,False)
-2.0125656	(45,True) ||| (76,False)
-1.4281552	(47,True) ||| (76,False)
-1.7085489	(48,True) ||| (76,False)
-1.8266003	(52,True) ||| (76,False)
-0.40534204	(54,True) ||| (76,False)
-1.1433468	(79,False) (72,False) (76,False)
-0.6544893	<s> (79,False) (76,False)
-1.0488379	||| (79,False) (76,False)
-1.5753802	||| (79,True) (76,False)
-0.16925044	<s> (84,False) (76,False)
-0.5523875	(60,False) ||| (76,True)
-0.6978437	(57,False) ||| (76,True)
-0.7418139	(60,True) ||| (76,True)
-0.725725	(57,True) ||| (76,True)
-0.83747184	(59,False) ||| (76,True)
-1.0826035	(55,False) ||| (76,True)
-1.1845931	(55,True) ||| (76,True)
-1.1548202	(45,False) ||| (76,True)
-1.3396943	(45,True) ||| (76,True)
-1.2132951	(47,False) ||| (76,True)
-1.1536156	(48,False) ||| (76,True)
-1.2095357	(48,True) ||| (76,True)
-1.1202878	(52,False) ||| (76,True)
-1.1535472	(52,True) ||| (76,True)
-0.5780941	(56,False) ||| (76,True)
-0.38596565	(76,False) ||| (76,True)
-0.38596565	(76,True) ||| (76,True)
-0.5541532	(56,True) ||| (76,True)
-0.38596565	(54,False) ||| (76,True)
-1.6762816	||| (60,True) (76,True)
-1.3083831	||| (62,False) (76,True)
-1.081534	(79,True) (72,True) (76,True)
-0.79677397	||| (79,True) (76,True)
-0.091310464	||| (84,True) (76,True)
-1.789274	(60,True) ||| (77,False)
-2.3364918	(57,True) ||| (77,False)
-2.0667706	(59,True) ||| (77,False)
-2.0738032	(53,True) ||| (77,False)
-1.7711316	(57,False) ||| (77,True)
-1.8239269	(57,True) ||| (77,True)
-0.76894885	(62,False) ||| (77,True)
-1.2701635	(62,True) ||| (77,True)
-1.8045863	(53,False) ||| (77,True)
-1.5781649	(53,True) ||| (77,True)
-0.41279438	(71,True) (60,False) (56,True)
-0.85836476	(69,False) (64,True) (56,True)
-2.484919	||| (64,True) (56,True)
-0.35413557	(71,True) (64,True) (56,True)
-1.6476566	(64,True) (62,False) (56,True)
-0.95011187	(69,False) (62,True) (56,True)
-1.4301255	(64,True) (62,True) (56,True)
-0.68353206	(71,True) (62,True) (56,True)
-0.17366946	||| (59,True) (56,True)
-0.7870958	(64,True) (59,True) (56,True)
-0.67872936	(71,True) (59,True) (56,True)
-1.7087913	(64,False) (59,False) (44,False)
-0.50989187	(59,False) (52,False) (44,False)
-2.0494113	(64,True) (59,True) (44,True)
-0.69495857	(62,False) (59,True) (44,True)
-0.45951885	(59,True) (52,True) (44,True)
-1.6509287	(60,False) (55,False) (40,False)
-1.3348093	(59,False) (55,False) (40,False)
-1.9181507	(55,False) (52,False) (40,False)
-0.39063242	(57,False) (55,True) (40,True)
-1.8644211	(60,True) (55,True) (40,True)
-1.175308	(59,True) (55,True) (40,True)
-0.39063242	(58,False) (55,True) (40,True)
-2.2547774	(55,True) (52,True) (40,True)
-2.266655	(60,False) (57,False) (41,False)
-1.0409626	(60,True) (57,False) (41,False)
-1.4286538	(62,True) (57,True) (41,False)
-2.4189358	(60,True) (55,True) (41,False)
-1.46685	(57,False) (53,False) (41,False)
-2.244326	(55,True) (52,True) (41,False)
-2.1217957	(60,False) ||| (74,True)
-2.2223628	(60,True) ||| (74,True)
-2.1003296	(57,True) ||| (74,True)
-1.21384	(62,False) ||| (74,True)
-0.913805	(59,False) ||| (74,True)
-0.7424857	(62,True) ||| (74,True)
-0.8751223	(59,True) ||| (74,True)
-1.3307208	(55,False) ||| (74,True)
-1.4327103	(55,True) ||| (74,True)
-1.7315314	(47,False) ||| (74,True)
-2.086712	(48,True) ||| (74,True)
-1.3780082	(56,False) ||| (74,True)
-1.4519297	(56,True) ||| (74,True)
-1.0902833	(79,True) (67,True) (74,True)
-1.5910844	||| (79,True) (74,True)
-1.812474	(55,False) (48,False) (36,False)
-1.7506746	(60,False) (52,False) (36,False)
-1.1011398	(55,False) (52,False) (36,False)
-1.312192	(36,False) ||| (36,True)
-1.1296544	(36,True) ||| (36,True)
-2.1146016	(55,True) (48,True) (36,True)
-2.0043917	(60,True) (52,True) (36,True)
-0.9028139	(55,True) (52,True) (36,True)
-2.0973482	(60,False) (55,False) (46,False)
-1.1642771	(62,False) (55,True) (46,False)
-1.1565825	(60,True) (53,False) (38,False)
-1.2109898	(55,True) (53,False) (38,False)
-1.5808213	(60,True) (53,True) (38,True)
-1.2132304	(55,True) (53,True) (38,True)
-2.2896783	||| (60,True) (58,False)
-2.7779758	(64,True) (60,True) (58,False)
-1.76801	(65,True) (60,True) (58,False)
-1.6464049	||| (65,True) (58,False)
-2.028114	(55,True) ||| (63,False)
-0.9615694	(71,False) (66,False) (63,False)
-0.41322255	(63,False) (60,False) (54,False)
-2.3320777	||| (60,True) (54,False)
-0.70584995	(62,False) (60,True) (54,False)
-2.0257137	||| (57,True) (54,False)
-0.41182798	(69,False) (59,True) (54,False)
-2.3019037	(45,False) ||| (63,True)
-2.6131914	(45,True) ||| (63,True)
-0.8770462	(71,True) (66,True) (63,True)
-0.41252488	(62,True) (60,True) (54,True)
-0.41252488	(63,True) (60,True) (54,True)
-2.022209	||| (57,True) (54,True)
-0.7033527	(62,True) (59,False) (54,True)
-0.86926925	(69,True) (59,True) (54,True)
-0.53756267	||| (63,True) (54,True)
-2.2479959	||| (69,True) (66,True)
-0.3927017	(74,True) (69,True) (66,True)
-1.6563464	||| (71,False) (66,True)
-1.3183912	||| (71,True) (66,True)
